  DATE: 2022-06-30 CONTRIBUTOR: Shuozhi Xu (shuozhixu@ucsb.edu)
  CITATION: Shuozhi Xu, Wu-Rong Jian, Irene J. Beyerlein, APL Mater. 10 (2022) 111107
  Generated from https://www.ctcms.nist.gov/potentials/Download/2004--Zhou-X-W-Johnson-R-A-Wadley-H-N-G--Mg/3/Zhou04_create_v2.f
6 Hf Mo Nb Ta Ti A
2000 0.1133684583414624E+00 2000 0.3523568848986662E-02 0.7043614129124338E+01
72 178.49 4.4548 fcc
0.000000000000e+00
-6.144540804786e-02
-1.223409277321e-01
-1.826890515333e-01
-2.424922719321e-01
-3.017530814089e-01
-3.604739724443e-01
-4.186574375190e-01
-4.763059691133e-01
-5.334220597080e-01
-5.900082017836e-01
-6.460668878206e-01
-7.016006102995e-01
-7.566118617011e-01
-8.111031345057e-01
-8.650769211940e-01
-9.185357142465e-01
-9.714820061437e-01
-1.023918289366e+00
-1.075847056395e+00
-1.127270799710e+00
-1.178192011792e+00
-1.228613185121e+00
-1.278536812179e+00
-1.327965385445e+00
-1.376901397401e+00
-1.425347340527e+00
-1.473305707302e+00
-1.520778990209e+00
-1.567769681727e+00
-1.614280274338e+00
-1.660313260521e+00
-1.705871132757e+00
-1.750956383526e+00
-1.795571505310e+00
-1.839718990589e+00
-1.883401331844e+00
-1.926621021554e+00
-1.969380552200e+00
-2.011682416264e+00
-2.053529106226e+00
-2.094923114565e+00
-2.135866933764e+00
-2.176363056302e+00
-2.216413974659e+00
-2.256022181317e+00
-2.295190168756e+00
-2.333920429457e+00
-2.372215455899e+00
-2.410077740565e+00
-2.447509775933e+00
-2.484514054485e+00
-2.521093068702e+00
-2.557249311064e+00
-2.592985274051e+00
-2.628303450144e+00
-2.663206331823e+00
-2.697696411570e+00
-2.731776181864e+00
-2.765448135187e+00
-2.798714764018e+00
-2.831578560839e+00
-2.864042018130e+00
-2.896107628371e+00
-2.927777884043e+00
-2.959055277627e+00
-2.989942301603e+00
-3.020441448452e+00
-3.050555210654e+00
-3.080286080690e+00
-3.109636551040e+00
-3.138609114186e+00
-3.167206262606e+00
-3.195430488783e+00
-3.223284285197e+00
-3.250770144327e+00
-3.277890558656e+00
-3.304648020663e+00
-3.331045022828e+00
-3.357084057633e+00
-3.382767617558e+00
-3.408098195084e+00
-3.433078282690e+00
-3.457710372859e+00
-3.481996958069e+00
-3.505940530803e+00
-3.529543583539e+00
-3.552808608760e+00
-3.575738098945e+00
-3.598334546575e+00
-3.620600444130e+00
-3.642538284092e+00
-3.664150558941e+00
-3.685439761156e+00
-3.706408383220e+00
-3.727058917612e+00
-3.747393856812e+00
-3.767415693303e+00
-3.787126919563e+00
-3.806530028074e+00
-3.825627511316e+00
-3.844421861770e+00
-3.862915571916e+00
-3.881111134235e+00
-3.899011041207e+00
-3.916617785313e+00
-3.933933859034e+00
-3.950961754850e+00
-3.967703965241e+00
-3.984162982689e+00
-4.000341299674e+00
-4.016241408675e+00
-4.031865802175e+00
-4.047216972653e+00
-4.062297412590e+00
-4.077109614467e+00
-4.091656070763e+00
-4.105939273961e+00
-4.119961716539e+00
-4.133725890979e+00
-4.147234289762e+00
-4.160489405368e+00
-4.173493730277e+00
-4.186249756970e+00
-4.198759977927e+00
-4.211026885630e+00
-4.223052972559e+00
-4.234840731193e+00
-4.246392654015e+00
-4.257711233504e+00
-4.268798962141e+00
-4.279658332406e+00
-4.290291836780e+00
-4.300701967744e+00
-4.310891217778e+00
-4.320862079363e+00
-4.330617044979e+00
-4.340158607107e+00
-4.349489258227e+00
-4.358611490821e+00
-4.367527797368e+00
-4.376240670348e+00
-4.384752602244e+00
-4.393066085535e+00
-4.401183612701e+00
-4.409107676224e+00
-4.416840768583e+00
-4.424385382261e+00
-4.431744009736e+00
-4.438919143489e+00
-4.445913276002e+00
-4.452728899754e+00
-4.459368507227e+00
-4.465834590900e+00
-4.472129643255e+00
-4.478256156772e+00
-4.484216623931e+00
-4.490013537213e+00
-4.495649389098e+00
-4.501126672068e+00
-4.506447878603e+00
-4.511615501182e+00
-4.516632032288e+00
-4.521499964400e+00
-4.526221789999e+00
-4.530800001565e+00
-4.535237091579e+00
-4.539535552522e+00
-4.543697876874e+00
-4.547726557116e+00
-4.551624085728e+00
-4.555392955191e+00
-4.559035657986e+00
-4.562554686592e+00
-4.565952533491e+00
-4.569231691163e+00
-4.572394652088e+00
-4.575443908748e+00
-4.578381953622e+00
-4.581211279192e+00
-4.583934377938e+00
-4.586553742340e+00
-4.589071864879e+00
-4.591491238036e+00
-4.593814354290e+00
-4.596043706124e+00
-4.598181786016e+00
-4.600231086449e+00
-4.602194099902e+00
-4.604073318855e+00
-4.605871235790e+00
-4.607590343187e+00
-4.609233133527e+00
-4.610802099290e+00
-4.612299732956e+00
-4.613728527007e+00
-4.615090973923e+00
-4.616389566184e+00
-4.617626796271e+00
-4.618805156664e+00
-4.619927139844e+00
-4.620995238292e+00
-4.622011944488e+00
-4.622979750913e+00
-4.623901150047e+00
-4.624778634371e+00
-4.625614696366e+00
-4.626411828511e+00
-4.627172523288e+00
-4.627899273177e+00
-4.628594570659e+00
-4.629260908213e+00
-4.629900778322e+00
-4.630516386942e+00
-4.631108539858e+00
-4.631677615806e+00
-4.632223993417e+00
-4.632748051324e+00
-4.633250168158e+00
-4.633730722553e+00
-4.634190093139e+00
-4.634628658550e+00
-4.635046797417e+00
-4.635444888372e+00
-4.635823310048e+00
-4.636182441076e+00
-4.636522660089e+00
-4.636844345718e+00
-4.637147876596e+00
-4.637433631355e+00
-4.637701988627e+00
-4.637953327044e+00
-4.638188025239e+00
-4.638406461842e+00
-4.638609015487e+00
-4.638796064806e+00
-4.638967988429e+00
-4.639125164991e+00
-4.639267973122e+00
-4.639396791456e+00
-4.639511998623e+00
-4.639613973256e+00
-4.639703093987e+00
-4.639779739449e+00
-4.639844288272e+00
-4.639897119091e+00
-4.639938610535e+00
-4.639969141239e+00
-4.639989089833e+00
-4.639998834950e+00
-4.639998755222e+00
-4.639989229280e+00
-4.639970635758e+00
-4.639943353287e+00
-4.639907760500e+00
-4.639864236027e+00
-4.639813158503e+00
-4.639754906557e+00
-4.639689858824e+00
-4.639618393934e+00
-4.639540890520e+00
-4.639457727214e+00
-4.639369282649e+00
-4.639275935455e+00
-4.639178064265e+00
-4.639076047712e+00
-4.638970264428e+00
-4.638861093043e+00
-4.638748912192e+00
-4.638634100505e+00
-4.638517036615e+00
-4.638398099154e+00
-4.638277666754e+00
-4.638156118047e+00
-4.638033831666e+00
-4.637911186241e+00
-4.637788560406e+00
-4.637666332793e+00
-4.637544882033e+00
-4.637424586759e+00
-4.637305825602e+00
-4.637188977196e+00
-4.637074420171e+00
-4.636962533161e+00
-4.636853694797e+00
-4.636748283711e+00
-4.636646678535e+00
-4.636549233527e+00
-4.636452408282e+00
-4.636353486337e+00
-4.636252487215e+00
-4.636149430212e+00
-4.636044334396e+00
-4.635937218615e+00
-4.635828101501e+00
-4.635717001466e+00
-4.635603936715e+00
-4.635488925240e+00
-4.635371984829e+00
-4.635253133068e+00
-4.635132387341e+00
-4.635009764836e+00
-4.634885282545e+00
-4.634758957271e+00
-4.634630805626e+00
-4.634500844037e+00
-4.634369088746e+00
-4.634235555816e+00
-4.634100261129e+00
-4.633963220394e+00
-4.633824449143e+00
-4.633683962739e+00
-4.633541776377e+00
-4.633397905083e+00
-4.633252363721e+00
-4.633105166992e+00
-4.632956329438e+00
-4.632805865442e+00
-4.632653789234e+00
-4.632500114888e+00
-4.632344856329e+00
-4.632188027332e+00
-4.632029641524e+00
-4.631869712388e+00
-4.631708253263e+00
-4.631545277348e+00
-4.631380797701e+00
-4.631214827241e+00
-4.631047378755e+00
-4.630878464894e+00
-4.630708098175e+00
-4.630536290988e+00
-4.630363055590e+00
-4.630188404115e+00
-4.630012348568e+00
-4.629834900833e+00
-4.629656072670e+00
-4.629475875717e+00
-4.629294321497e+00
-4.629111421411e+00
-4.628927186746e+00
-4.628741628674e+00
-4.628554758253e+00
-4.628366586431e+00
-4.628177124044e+00
-4.627986381820e+00
-4.627794370378e+00
-4.627601100232e+00
-4.627406581791e+00
-4.627210825360e+00
-4.627013841141e+00
-4.626815639236e+00
-4.626616229647e+00
-4.626415622277e+00
-4.626213826932e+00
-4.626010853322e+00
-4.625806711059e+00
-4.625601409667e+00
-4.625394958571e+00
-4.625187367110e+00
-4.624978644527e+00
-4.624768799981e+00
-4.624557842538e+00
-4.624345781181e+00
-4.624132624802e+00
-4.623918382212e+00
-4.623703062136e+00
-4.623486673216e+00
-4.623269224011e+00
-4.623050723001e+00
-4.622831178583e+00
-4.622610599077e+00
-4.622388992723e+00
-4.622166367685e+00
-4.621942732048e+00
-4.621718093825e+00
-4.621492460950e+00
-4.621265841287e+00
-4.621038242623e+00
-4.620809672677e+00
-4.620580139093e+00
-4.620349649447e+00
-4.620118211243e+00
-4.619885831917e+00
-4.619652518838e+00
-4.619418279306e+00
-4.619183120555e+00
-4.618947049752e+00
-4.618710074001e+00
-4.618472200340e+00
-4.618233435743e+00
-4.617993787123e+00
-4.617753261328e+00
-4.617511865146e+00
-4.617269605305e+00
-4.617026488471e+00
-4.616782521250e+00
-4.616537710192e+00
-4.616292061786e+00
-4.616045582465e+00
-4.615798278603e+00
-4.615550156520e+00
-4.615301222479e+00
-4.615051482689e+00
-4.614800943302e+00
-4.614549610419e+00
-4.614297490085e+00
-4.614044588294e+00
-4.613790910988e+00
-4.613536464056e+00
-4.613281253337e+00
-4.613025284618e+00
-4.612768563638e+00
-4.612511096085e+00
-4.612252887598e+00
-4.611993943769e+00
-4.611734270140e+00
-4.611473872208e+00
-4.611212755421e+00
-4.610950925182e+00
-4.610688386847e+00
-4.610425145728e+00
-4.610161207089e+00
-4.609896576153e+00
-4.609631258097e+00
-4.609365258055e+00
-4.609098581118e+00
-4.608831232333e+00
-4.608563216707e+00
-4.608294539203e+00
-4.608025204744e+00
-4.607755218211e+00
-4.607484584446e+00
-4.607213308249e+00
-4.606941394382e+00
-4.606668847566e+00
-4.606395672485e+00
-4.606121873782e+00
-4.605847456063e+00
-4.605572423899e+00
-4.605296781818e+00
-4.605020534316e+00
-4.604743685850e+00
-4.604466240841e+00
-4.604188203675e+00
-4.603909578701e+00
-4.603630370233e+00
-4.603350582552e+00
-4.603070219902e+00
-4.602789286494e+00
-4.602507786507e+00
-4.602225724083e+00
-4.601943103332e+00
-4.601659928333e+00
-4.601376203131e+00
-4.601091931739e+00
-4.600807118138e+00
-4.600521766277e+00
-4.600235880074e+00
-4.599949463417e+00
-4.599662520162e+00
-4.599375054136e+00
-4.599087069135e+00
-4.598798568924e+00
-4.598509557241e+00
-4.598220037794e+00
-4.597930014260e+00
-4.597639490290e+00
-4.597348469506e+00
-4.597056955500e+00
-4.596764951839e+00
-4.596472462060e+00
-4.596179489674e+00
-4.595886038164e+00
-4.595592110988e+00
-4.595297711574e+00
-4.595002843328e+00
-4.594707509626e+00
-4.594411713821e+00
-4.594115459238e+00
-4.593818749180e+00
-4.593521586920e+00
-4.593223975711e+00
-4.592925918778e+00
-4.592627419323e+00
-4.592328480524e+00
-4.592029105534e+00
-4.591729297483e+00
-4.591429059478e+00
-4.591128394600e+00
-4.590827305911e+00
-4.590525796446e+00
-4.590223869220e+00
-4.589921527224e+00
-4.589618773428e+00
-4.589315610779e+00
-4.589012042203e+00
-4.588708070602e+00
-4.588403698860e+00
-4.588098929837e+00
-4.587793766372e+00
-4.587488211285e+00
-4.587182267373e+00
-4.586875937414e+00
-4.586569224165e+00
-4.586262130363e+00
-4.585954658724e+00
-4.585646811947e+00
-4.585338592707e+00
-4.585030003663e+00
-4.584721047454e+00
-4.584411726699e+00
-4.584102043998e+00
-4.583792001933e+00
-4.583481603067e+00
-4.583170849944e+00
-4.582859745090e+00
-4.582548291013e+00
-4.582236490204e+00
-4.581924345134e+00
-4.581611858258e+00
-4.581299032012e+00
-4.580985868816e+00
-4.580672371071e+00
-4.580358541164e+00
-4.580044381462e+00
-4.579729894317e+00
-4.579415082062e+00
-4.579099947017e+00
-4.578784491483e+00
-4.578468717745e+00
-4.578152628073e+00
-4.577836224719e+00
-4.577519509923e+00
-4.577202485905e+00
-4.576885154872e+00
-4.576567519015e+00
-4.576249580508e+00
-4.575931341514e+00
-4.575612804176e+00
-4.575293970626e+00
-4.574974842978e+00
-4.574655423334e+00
-4.574335713781e+00
-4.574015716389e+00
-4.573695433217e+00
-4.573374866308e+00
-4.573054017691e+00
-4.572732889382e+00
-4.572411483381e+00
-4.572089801678e+00
-4.571767846246e+00
-4.571445619045e+00
-4.571123122024e+00
-4.570800357115e+00
-4.570477326239e+00
-4.570154031305e+00
-4.569830474206e+00
-4.569506656826e+00
-4.569182581032e+00
-4.568858248681e+00
-4.568533661618e+00
-4.568208821672e+00
-4.567883730665e+00
-4.567558390402e+00
-4.567232802678e+00
-4.566906969275e+00
-4.566580891965e+00
-4.566254572505e+00
-4.565928012644e+00
-4.565601214116e+00
-4.565274178645e+00
-4.564946907943e+00
-4.564619403712e+00
-4.564291667640e+00
-4.563963701406e+00
-4.563635506677e+00
-4.563307085110e+00
-4.562978438349e+00
-4.562649568029e+00
-4.562320475773e+00
-4.561991163194e+00
-4.561661631894e+00
-4.561331883465e+00
-4.561001919489e+00
-4.560671741535e+00
-4.560341351165e+00
-4.560010749929e+00
-4.559679939367e+00
-4.559348921009e+00
-4.559017696376e+00
-4.558686266977e+00
-4.558354634313e+00
-4.558022799875e+00
-4.557690765144e+00
-4.557358531591e+00
-4.557026100679e+00
-4.556693473859e+00
-4.556360652574e+00
-4.556027638260e+00
-4.555694432339e+00
-4.555361036228e+00
-4.555027451332e+00
-4.554693679049e+00
-4.554359720768e+00
-4.554025577867e+00
-4.553691251717e+00
-4.553356743680e+00
-4.553022055110e+00
-4.552687187349e+00
-4.552352141736e+00
-4.552016919596e+00
-4.551681522249e+00
-4.551345951006e+00
-4.551010207169e+00
-4.550674292032e+00
-4.550338206881e+00
-4.550001952993e+00
-4.549665531638e+00
-4.549328944079e+00
-4.548992191568e+00
-4.548655275352e+00
-4.548318196669e+00
-4.547980956749e+00
-4.547643556814e+00
-4.547305998079e+00
-4.546968281753e+00
-4.546630409033e+00
-4.546292381114e+00
-4.545954199179e+00
-4.545615864406e+00
-4.545277377965e+00
-4.544938741019e+00
-4.544599954724e+00
-4.544261020228e+00
-4.543921938672e+00
-4.543582711191e+00
-4.543243338912e+00
-4.542903822956e+00
-4.542564164435e+00
-4.542224364456e+00
-4.541884424119e+00
-4.541544344518e+00
-4.541204126737e+00
-4.540863771857e+00
-4.540523280952e+00
-4.540182655086e+00
-4.539841895320e+00
-4.539501002707e+00
-4.539159978295e+00
-4.538818823124e+00
-4.538477538228e+00
-4.538136124635e+00
-4.537794583367e+00
-4.537452915439e+00
-4.537111121861e+00
-4.536769203635e+00
-4.536427161759e+00
-4.536084997224e+00
-4.535742711015e+00
-4.535400304111e+00
-4.535057777486e+00
-4.534715132106e+00
-4.534372368933e+00
-4.534029488924e+00
-4.533686493027e+00
-4.533343382188e+00
-4.533000157345e+00
-4.532656819430e+00
-4.532313369372e+00
-4.531969808092e+00
-4.531626136507e+00
-4.531282355528e+00
-4.530938466059e+00
-4.530594469001e+00
-4.530250365249e+00
-4.529906155692e+00
-4.529561841215e+00
-4.529217422695e+00
-4.528872901007e+00
-4.528528277020e+00
-4.528183551596e+00
-4.527838725593e+00
-4.527493799865e+00
-4.527148775260e+00
-4.526803652622e+00
-4.526458432787e+00
-4.526113116590e+00
-4.525767704858e+00
-4.525422198415e+00
-4.525076598080e+00
-4.524730904666e+00
-4.524385118983e+00
-4.524039241834e+00
-4.523693274020e+00
-4.523347216334e+00
-4.523001069568e+00
-4.522654834507e+00
-4.522308511932e+00
-4.521962102620e+00
-4.521615607341e+00
-4.521269026865e+00
-4.520922361954e+00
-4.520575613366e+00
-4.520228781857e+00
-4.519881868174e+00
-4.519534873065e+00
-4.519187797270e+00
-4.518840641526e+00
-4.518493406566e+00
-4.518146093117e+00
-4.517798701905e+00
-4.517451233649e+00
-4.517103689066e+00
-4.516756068866e+00
-4.516408373757e+00
-4.516060604444e+00
-4.515712761625e+00
-4.515364845996e+00
-4.515016858249e+00
-4.514668799072e+00
-4.514320669147e+00
-4.513972469154e+00
-4.513624199770e+00
-4.513275861667e+00
-4.512927455512e+00
-4.512578981971e+00
-4.512230441702e+00
-4.511881835364e+00
-4.511533163610e+00
-4.511184427088e+00
-4.510835626445e+00
-4.510486762322e+00
-4.510137835359e+00
-4.509788846188e+00
-4.509439795443e+00
-4.509090683750e+00
-4.508741511733e+00
-4.508392280013e+00
-4.508042989207e+00
-4.507693639928e+00
-4.507344232787e+00
-4.506994768391e+00
-4.506645247341e+00
-4.506295670239e+00
-4.505946037681e+00
-4.505596350259e+00
-4.505246608564e+00
-4.504896813182e+00
-4.504546964697e+00
-4.504197063687e+00
-4.503847110731e+00
-4.503497106401e+00
-4.503147051267e+00
-4.502796945897e+00
-4.502446790855e+00
-4.502096586701e+00
-4.501746333993e+00
-4.501396033286e+00
-4.501045685130e+00
-4.500695290075e+00
-4.500344848666e+00
-4.499994361445e+00
-4.499643828951e+00
-4.499293251720e+00
-4.498942630286e+00
-4.498591965180e+00
-4.498241256929e+00
-4.497890506056e+00
-4.497539713085e+00
-4.497188878533e+00
-4.496838002917e+00
-4.496487086749e+00
-4.496136130540e+00
-4.495785134797e+00
-4.495434100025e+00
-4.495083026726e+00
-4.494731915398e+00
-4.494380766538e+00
-4.494029580640e+00
-4.493678358194e+00
-4.493327099689e+00
-4.492975805610e+00
-4.492624476441e+00
-4.492273112660e+00
-4.491921714746e+00
-4.491570283174e+00
-4.491218818416e+00
-4.490867320942e+00
-4.490515791220e+00
-4.490164229713e+00
-4.489812636885e+00
-4.489461013194e+00
-4.489109359098e+00
-4.488757675051e+00
-4.488405961506e+00
-4.488054218912e+00
-4.487702447718e+00
-4.487350648366e+00
-4.486998821300e+00
-4.486646966961e+00
-4.486295085785e+00
-4.485943178207e+00
-4.485591244662e+00
-4.485239285578e+00
-4.484887301386e+00
-4.484535292510e+00
-4.484183259373e+00
-4.483831202399e+00
-4.483479122004e+00
-4.483127018608e+00
-4.482774892622e+00
-4.482422744462e+00
-4.482070574535e+00
-4.481718383251e+00
-4.481366171014e+00
-4.481013938229e+00
-4.480661685296e+00
-4.480309412616e+00
-4.479957120584e+00
-4.479604809596e+00
-4.479252480045e+00
-4.478900132322e+00
-4.478547766814e+00
-4.478195383909e+00
-4.477842983991e+00
-4.477490567442e+00
-4.477138134643e+00
-4.476785685971e+00
-4.476433221805e+00
-4.476080742516e+00
-4.475728248479e+00
-4.475375740063e+00
-4.475023217636e+00
-4.474670681565e+00
-4.474318132214e+00
-4.473965569946e+00
-4.473612995122e+00
-4.473260408099e+00
-4.472907809235e+00
-4.472555198884e+00
-4.472202577400e+00
-4.471849945133e+00
-4.471497302433e+00
-4.471144649647e+00
-4.470791987120e+00
-4.470439315197e+00
-4.470086634218e+00
-4.469733944525e+00
-4.469381246454e+00
-4.469028540344e+00
-4.468675826528e+00
-4.468323105339e+00
-4.467970377109e+00
-4.467617642166e+00
-4.467264900839e+00
-4.466912153454e+00
-4.466559400334e+00
-4.466206641802e+00
-4.465853878179e+00
-4.465501109783e+00
-4.465148336934e+00
-4.464795559945e+00
-4.464442779132e+00
-4.464089994806e+00
-4.463737207279e+00
-4.463384416859e+00
-4.463031623854e+00
-4.462678828571e+00
-4.462326031313e+00
-4.461973232382e+00
-4.461620432081e+00
-4.461267630709e+00
-4.460914828563e+00
-4.460562025941e+00
-4.460209223136e+00
-4.459856420442e+00
-4.459503618152e+00
-4.459150816554e+00
-4.458798015939e+00
-4.458445216593e+00
-4.458092418801e+00
-4.457739622849e+00
-4.457386829018e+00
-4.457034037590e+00
-4.456681248846e+00
-4.456328463062e+00
-4.455975680516e+00
-4.455622901484e+00
-4.455270126239e+00
-4.454917355054e+00
-4.454564588200e+00
-4.454211825947e+00
-4.453859068563e+00
-4.453506316315e+00
-4.453153569468e+00
-4.452800828288e+00
-4.452448093035e+00
-4.452095363973e+00
-4.451742641360e+00
-4.451389925456e+00
-4.451037216518e+00
-4.450684514801e+00
-4.450331820562e+00
-4.449979134052e+00
-4.449626455524e+00
-4.449273785228e+00
-4.448921123415e+00
-4.448568470332e+00
-4.448215826226e+00
-4.447863191343e+00
-4.447510565926e+00
-4.447157950220e+00
-4.446805344465e+00
-4.446452748902e+00
-4.446100163770e+00
-4.445747589308e+00
-4.445395025752e+00
-4.445042473338e+00
-4.444689932300e+00
-4.444337402871e+00
-4.443984885283e+00
-4.443632379767e+00
-4.443279886552e+00
-4.442927405867e+00
-4.442574937939e+00
-4.442222482993e+00
-4.441870041256e+00
-4.441517612949e+00
-4.441165198296e+00
-4.440812797518e+00
-4.440460410836e+00
-4.440108038468e+00
-4.439755680632e+00
-4.439403337545e+00
-4.439051009423e+00
-4.438698696480e+00
-4.438346398930e+00
-4.437994116985e+00
-4.437641850856e+00
-4.437289600754e+00
-4.436937366888e+00
-4.436585149465e+00
-4.436232948693e+00
-4.435880764777e+00
-4.435528597923e+00
-4.435176448333e+00
-4.434824316212e+00
-4.434472201759e+00
-4.434120105177e+00
-4.433768026664e+00
-4.433415966419e+00
-4.433063924640e+00
-4.432711901524e+00
-4.432359897264e+00
-4.432007912057e+00
-4.431655946096e+00
-4.431303999573e+00
-4.430952072679e+00
-4.430600165606e+00
-4.430248278542e+00
-4.429896411676e+00
-4.429544565196e+00
-4.429192739289e+00
-4.428840934140e+00
-4.428489149934e+00
-4.428137386854e+00
-4.427785645084e+00
-4.427433924805e+00
-4.427082226198e+00
-4.426730549443e+00
-4.426378894720e+00
-4.426027262206e+00
-4.425675652079e+00
-4.425324064515e+00
-4.424972499689e+00
-4.424620957776e+00
-4.424269438949e+00
-4.423917943382e+00
-4.423566471246e+00
-4.423215022712e+00
-4.422863597950e+00
-4.422512197130e+00
-4.422160820419e+00
-4.421809467985e+00
-4.421458139994e+00
-4.421106836614e+00
-4.420755558007e+00
-4.420404304339e+00
-4.420053075772e+00
-4.419701872470e+00
-4.419350694592e+00
-4.418999542301e+00
-4.418648415756e+00
-4.418297315115e+00
-4.417946240538e+00
-4.417595192181e+00
-4.417244170202e+00
-4.416893174756e+00
-4.416542205997e+00
-4.416191264081e+00
-4.415840349160e+00
-4.415489461387e+00
-4.415138600914e+00
-4.414787767893e+00
-4.414436962472e+00
-4.414086184802e+00
-4.413735435032e+00
-4.413384713309e+00
-4.413034019780e+00
-4.412683354593e+00
-4.412332717892e+00
-4.411982109822e+00
-4.411631530529e+00
-4.411280980154e+00
-4.410930458841e+00
-4.410579966732e+00
-4.410229503968e+00
-4.409879070689e+00
-4.409528667036e+00
-4.409178293147e+00
-4.408827949161e+00
-4.408477635214e+00
-4.408127351445e+00
-4.407777097989e+00
-4.407426874982e+00
-4.407076682558e+00
-4.406726520852e+00
-4.406376389998e+00
-4.406026290126e+00
-4.405676221371e+00
-4.405326183863e+00
-4.404976177732e+00
-4.404626203110e+00
-4.404276260124e+00
-4.403926348904e+00
-4.403576469578e+00
-4.403226622272e+00
-4.402876807115e+00
-4.402527024231e+00
-4.402177273746e+00
-4.401827555784e+00
-4.401477870471e+00
-4.401128217928e+00
-4.400778598280e+00
-4.400429011647e+00
-4.400079458152e+00
-4.399729937915e+00
-4.399380451057e+00
-4.399030997697e+00
-4.398681577954e+00
-4.398332191947e+00
-4.397982839793e+00
-4.397633521610e+00
-4.397284237513e+00
-4.396934987620e+00
-4.396585772044e+00
-4.396236590902e+00
-4.395887444307e+00
-4.395538332372e+00
-4.395189255211e+00
-4.394840212936e+00
-4.394491205658e+00
-4.394142233490e+00
-4.393793296540e+00
-4.393444394920e+00
-4.393095528740e+00
-4.392746698106e+00
-4.392397903129e+00
-4.392049143916e+00
-4.391700420574e+00
-4.391351733209e+00
-4.391003081929e+00
-4.390654466837e+00
-4.390305888039e+00
-4.389957345640e+00
-4.389608839743e+00
-4.389260370452e+00
-4.388911937870e+00
-4.388563542098e+00
-4.388215183239e+00
-4.387866861393e+00
-4.387518576661e+00
-4.387170329143e+00
-4.386822118939e+00
-4.386473946148e+00
-4.386125810869e+00
-4.385777713199e+00
-4.385429653235e+00
-4.385081631076e+00
-4.384733646817e+00
-4.384385700554e+00
-4.384037792382e+00
-4.383689922398e+00
-4.383342090694e+00
-4.382994297365e+00
-4.382646542505e+00
-4.382298826206e+00
-4.381951148562e+00
-4.381603509662e+00
-4.381255909601e+00
-4.380908348467e+00
-4.380560826352e+00
-4.380213343347e+00
-4.379865899539e+00
-4.379518495019e+00
-4.379171129875e+00
-4.378823804195e+00
-4.378476518067e+00
-4.378129271578e+00
-4.377782064815e+00
-4.377434897864e+00
-4.377087770811e+00
-4.376740683740e+00
-4.376393636738e+00
-4.376046629889e+00
-4.375699663276e+00
-4.375352736982e+00
-4.375005851092e+00
-4.374659005688e+00
-4.374312200852e+00
-4.373965436665e+00
-4.373618713210e+00
-4.373272030566e+00
-4.372925388815e+00
-4.372578788036e+00
-4.372232228309e+00
-4.371885709713e+00
-4.371539232327e+00
-4.371192796229e+00
-4.370846401497e+00
-4.370500048208e+00
-4.370153736440e+00
-4.369807466269e+00
-4.369461237772e+00
-4.369115051023e+00
-4.368768906100e+00
-4.368422803075e+00
-4.368076742025e+00
-4.367730723023e+00
-4.367384746142e+00
-4.367038811457e+00
-4.366692919041e+00
-4.366347068965e+00
-4.366001261302e+00
-4.365655496124e+00
-4.365309773502e+00
-4.364964093507e+00
-4.364618456210e+00
-4.364272861681e+00
-4.363927309990e+00
-4.363581801206e+00
-4.363236335398e+00
-4.362890912635e+00
-4.362545532985e+00
-4.362200196516e+00
-4.361854903296e+00
-4.361509653392e+00
-4.361164446871e+00
-4.360819283799e+00
-4.360474164242e+00
-4.360129088266e+00
-4.359784055936e+00
-4.359439067318e+00
-4.359094122475e+00
-4.358749221473e+00
-4.358404364374e+00
-4.358059551243e+00
-4.357714782143e+00
-4.357370057137e+00
-4.357025376286e+00
-4.356680739654e+00
-4.356336147302e+00
-4.355991599291e+00
-4.355647095683e+00
-4.355302636538e+00
-4.354958221917e+00
-4.354613851879e+00
-4.354269526485e+00
-4.353925245795e+00
-4.353581009866e+00
-4.353236818758e+00
-4.352892672529e+00
-4.352548571237e+00
-4.352204514941e+00
-4.351860503696e+00
-4.351516537561e+00
-4.351172616593e+00
-4.350828740847e+00
-4.350484910380e+00
-4.350141125247e+00
-4.349797385505e+00
-4.349453691208e+00
-4.349110042411e+00
-4.348766439168e+00
-4.348422881535e+00
-4.348079369564e+00
-4.347735903309e+00
-4.347392482825e+00
-4.347049108162e+00
-4.346705779375e+00
-4.346362496516e+00
-4.346019259637e+00
-4.345676068789e+00
-4.345332924024e+00
-4.344989825393e+00
-4.344646772948e+00
-4.344303766737e+00
-4.343960806813e+00
-4.343617893225e+00
-4.343275026022e+00
-4.342932205255e+00
-4.342589430971e+00
-4.342246703220e+00
-4.341904022051e+00
-4.341561387512e+00
-4.341218799650e+00
-4.340876258514e+00
-4.340533764150e+00
-4.340191316606e+00
-4.339848915929e+00
-4.339506562166e+00
-4.339164255362e+00
-4.338821995564e+00
-4.338479782817e+00
-4.338137617167e+00
-4.337795498659e+00
-4.337453427338e+00
-4.337111403249e+00
-4.336769426436e+00
-4.336427496943e+00
-4.336085614814e+00
-4.335743780092e+00
-4.335401992822e+00
-4.335060253045e+00
-4.334718560805e+00
-4.334376916145e+00
-4.334035319106e+00
-4.333693769732e+00
-4.333352268062e+00
-4.333010814140e+00
-4.332669408005e+00
-4.332328049700e+00
-4.331986739265e+00
-4.331645476741e+00
-4.331304262167e+00
-4.330963095584e+00
-4.330621977032e+00
-4.330280906550e+00
-4.329939884177e+00
-4.329598909953e+00
-4.329257983916e+00
-4.328917106104e+00
-4.328576276557e+00
-4.328235495312e+00
-4.327894762406e+00
-4.327554077879e+00
-4.327213441766e+00
-4.326872854105e+00
-4.326532314933e+00
-4.326191824286e+00
-4.325851382202e+00
-4.325510988715e+00
-4.325170643863e+00
-4.324830347681e+00
-4.324490100203e+00
-4.324149901467e+00
-4.323809751506e+00
-4.323469650356e+00
-4.323129598050e+00
-4.322789594625e+00
-4.322449640112e+00
-4.322109734548e+00
-4.321769877964e+00
-4.321430070395e+00
-4.321090311875e+00
-4.320750602435e+00
-4.320410942109e+00
-4.320071330930e+00
-4.319731768930e+00
-4.319392256141e+00
-4.319052792595e+00
-4.318713378323e+00
-4.318374013359e+00
-4.318034697732e+00
-4.317695431474e+00
-4.317356214616e+00
-4.317017047189e+00
-4.316677929223e+00
-4.316338860748e+00
-4.315999841795e+00
-4.315660872394e+00
-4.315321952573e+00
-4.314983082364e+00
-4.314644261794e+00
-4.314305490894e+00
-4.313966769691e+00
-4.313628098215e+00
-4.313289476495e+00
-4.312950904558e+00
-4.312612382433e+00
-4.312273910148e+00
-4.311935487730e+00
-4.311597115207e+00
-4.311258792606e+00
-4.310920519954e+00
-4.310582297279e+00
-4.310244124607e+00
-4.309906001965e+00
-4.309567929379e+00
-4.309229906876e+00
-4.308891934481e+00
-4.308554012220e+00
-4.308216140119e+00
-4.307878318203e+00
-4.307540546498e+00
-4.307202825029e+00
-4.306865153821e+00
-4.306527532898e+00
-4.306189962285e+00
-4.305852442006e+00
-4.305514972087e+00
-4.305177552550e+00
-4.304840183419e+00
-4.304502864719e+00
-4.304165596472e+00
-4.303828378703e+00
-4.303491211433e+00
-4.303154094687e+00
-4.302817028487e+00
-4.302480012856e+00
-4.302143047816e+00
-4.301806133389e+00
-4.301469269598e+00
-4.301132456465e+00
-4.300795694010e+00
-4.300458982257e+00
-4.300122321227e+00
-4.299785710940e+00
-4.299449151418e+00
-4.299112642681e+00
-4.298776184752e+00
-4.298439777650e+00
-4.298103421395e+00
-4.297767116009e+00
-4.297430861511e+00
-4.297094657922e+00
-4.296758505261e+00
-4.296422403547e+00
-4.296086352801e+00
-4.295750353041e+00
-4.295414404288e+00
-4.295078506560e+00
-4.294742659875e+00
-4.294406864253e+00
-4.294071119713e+00
-4.293735426272e+00
-4.293399783949e+00
-4.293064192763e+00
-4.292728652730e+00
-4.292393163870e+00
-4.292057726199e+00
-4.291722339736e+00
-4.291387004497e+00
-4.291051720500e+00
-4.290716487762e+00
-4.290381306300e+00
-4.290046176130e+00
-4.289711097271e+00
-4.289376069736e+00
-4.289041093545e+00
-4.288706168712e+00
-4.288371295253e+00
-4.288036473185e+00
-4.287701702523e+00
-4.287366983284e+00
-4.287032315482e+00
-4.286697699133e+00
-4.286363134252e+00
-4.286028620854e+00
-4.285694158955e+00
-4.285359748568e+00
-4.285025389710e+00
-4.284691082394e+00
-4.284356826634e+00
-4.284022622446e+00
-4.283688469843e+00
-4.283354368839e+00
-4.283020319448e+00
-4.282686321685e+00
-4.282352375561e+00
-4.282018481092e+00
-4.281684638290e+00
-4.281350847169e+00
-4.281017107741e+00
-4.280683420021e+00
-4.280349784019e+00
-4.280016199750e+00
-4.279682667226e+00
-4.279349186459e+00
-4.279015757462e+00
-4.278682380246e+00
-4.278349054825e+00
-4.278015781209e+00
-4.277682559411e+00
-4.277349389443e+00
-4.277016271316e+00
-4.276683205041e+00
-4.276350190630e+00
-4.276017228094e+00
-4.275684317444e+00
-4.275351458692e+00
-4.275018651847e+00
-4.274685896922e+00
-4.274353193925e+00
-4.274020542869e+00
-4.273687943763e+00
-4.273355396617e+00
-4.273022901443e+00
-4.272690458249e+00
-4.272358067045e+00
-4.272025727842e+00
-4.271693440650e+00
-4.271361205477e+00
-4.271029022333e+00
-4.270696891228e+00
-4.270364812171e+00
-4.270032785171e+00
-4.269700810237e+00
-4.269368887377e+00
-4.269037016602e+00
-4.268705197918e+00
-4.268373431336e+00
-4.268041716862e+00
-4.267710054507e+00
-4.267378444278e+00
-4.267046886182e+00
-4.266715380229e+00
-4.266383926426e+00
-4.266052524781e+00
-4.265721175301e+00
-4.265389877995e+00
-4.265058632869e+00
-4.264727439931e+00
-4.264396299188e+00
-4.264065210649e+00
-4.263734174318e+00
-4.263403190205e+00
-4.263072258314e+00
-4.262741378655e+00
-4.262410551231e+00
-4.262079776052e+00
-4.261749053122e+00
-4.261418382449e+00
-4.261087764038e+00
-4.260757197896e+00
-4.260426684029e+00
-4.260096222443e+00
-4.259765813143e+00
-4.259435456136e+00
-4.259105151427e+00
-4.258774899021e+00
-4.258444698925e+00
-4.258114551143e+00
-4.257784455681e+00
-4.257454412544e+00
-4.257124421738e+00
-4.256794483266e+00
-4.256464597135e+00
-4.256134763348e+00
-4.255804981911e+00
-4.255475252828e+00
-4.255145576104e+00
-4.254815951743e+00
-4.254486379750e+00
-4.254156860129e+00
-4.253827392883e+00
-4.253497978018e+00
-4.253168615537e+00
-4.252839305443e+00
-4.252510047742e+00
-4.252180842436e+00
-4.251851689529e+00
-4.251522589025e+00
-4.251193540927e+00
-4.250864545238e+00
-4.250535601963e+00
-4.250206711103e+00
-4.249877872662e+00
-4.249549086644e+00
-4.249220353051e+00
-4.248891671885e+00
-4.248563043150e+00
-4.248234466849e+00
-4.247905942984e+00
-4.247577471557e+00
-4.247249052571e+00
-4.246920686028e+00
-4.246592371931e+00
-4.246264110281e+00
-4.245935901082e+00
-4.245607744334e+00
-4.245279640040e+00
-4.244951588201e+00
-4.244623588820e+00
-4.244295641898e+00
-4.243967747437e+00
-4.243639905438e+00
-4.243312115903e+00
-4.242984378833e+00
-4.242656694229e+00
-4.242329062093e+00
-4.242001482426e+00
-4.241673955229e+00
-4.241346480502e+00
-4.241019058247e+00
-4.240691688465e+00
-4.240364371156e+00
-4.240037106320e+00
-4.239709893960e+00
-4.239382734075e+00
-4.239055626665e+00
-4.238728571731e+00
-4.238401569274e+00
-4.238074619293e+00
-4.237747721789e+00
-4.237420876762e+00
-4.237094084211e+00
-4.236767344137e+00
-4.236440656540e+00
-4.236114021419e+00
-4.235787438774e+00
-4.235460908605e+00
-4.235134430912e+00
-4.234808005693e+00
-4.234481632948e+00
-4.234155312678e+00
-4.233829044880e+00
-4.233502829554e+00
-4.233176666700e+00
-4.232850556317e+00
-4.232524498402e+00
-4.232198492957e+00
-4.231872539978e+00
-4.231546639466e+00
-4.231220791419e+00
-4.230894995835e+00
-4.230569252714e+00
-4.230243562053e+00
-4.229917923852e+00
-4.229592338108e+00
-4.229266804820e+00
-4.228941323987e+00
-4.228615895606e+00
-4.228290519675e+00
-4.227965196194e+00
-4.227639925159e+00
-4.227314706570e+00
-4.226989540422e+00
-4.226664426716e+00
-4.226339365447e+00
-4.226014356615e+00
-4.225689400216e+00
-4.225364496249e+00
-4.225039644710e+00
-4.224714845598e+00
-4.224390098909e+00
-4.224065404641e+00
-4.223740762791e+00
-4.223416173357e+00
-4.223091636335e+00
-4.222767151723e+00
-4.222442719518e+00
-4.222118339716e+00
-4.221794012315e+00
-4.221469737312e+00
-4.221145514702e+00
-4.220821344484e+00
-4.220497226654e+00
-4.220173161207e+00
-4.219849148142e+00
-4.219525187454e+00
-4.219201279140e+00
-4.218877423196e+00
-4.218553619619e+00
-4.218229868404e+00
-4.217906169549e+00
-4.217582523048e+00
-4.217258928899e+00
-4.216935387098e+00
-4.216611897640e+00
-4.216288460521e+00
-4.215965075737e+00
-4.215641743284e+00
-4.215318463158e+00
-4.214995235355e+00
-4.214672059870e+00
-4.214348936699e+00
-4.214025865837e+00
-4.213702847279e+00
-4.213379881023e+00
-4.213056967062e+00
-4.212734105392e+00
-4.212411296008e+00
-4.212088538906e+00
-4.211765834081e+00
-4.211443181528e+00
-4.211120581242e+00
-4.210798033218e+00
-4.210475537451e+00
-4.210153093936e+00
-4.209830702668e+00
-4.209508363641e+00
-4.209186076851e+00
-4.208863842293e+00
-4.208541659960e+00
-4.208219529848e+00
-4.207897451951e+00
-4.207575426264e+00
-4.207253452781e+00
-4.206931531496e+00
-4.206609662405e+00
-4.206287845500e+00
-4.205966080778e+00
-4.205644368231e+00
-4.205322707855e+00
-4.205001099642e+00
-4.204679543588e+00
-4.204358039687e+00
-4.204036587931e+00
-4.203715188316e+00
-4.203393840836e+00
-4.203072545483e+00
-4.202751302253e+00
-4.202430111138e+00
-4.202108972133e+00
-4.201787885231e+00
-4.201466850426e+00
-4.201145867711e+00
-4.200824937080e+00
-4.200504058527e+00
-4.200183232045e+00
-4.199862457627e+00
-4.199541735266e+00
-4.199221064957e+00
-4.198900446692e+00
-4.198579880465e+00
-4.198259366269e+00
-4.197938904096e+00
-4.197618493941e+00
-4.197298135796e+00
-4.196977829654e+00
-4.196657575508e+00
-4.196337373351e+00
-4.196017223177e+00
-4.195697124977e+00
-4.195377078745e+00
-4.195057084474e+00
-4.194737142155e+00
-4.194417251783e+00
-4.194097413349e+00
-4.193777626847e+00
-4.193457892268e+00
-4.193138209606e+00
-4.192818578853e+00
-4.192499000000e+00
-4.192179473042e+00
-4.191859997969e+00
-4.191540574775e+00
-4.191221203452e+00
-4.190901883992e+00
-4.190582616387e+00
-4.190263400629e+00
-4.189944236711e+00
-4.189625124625e+00
-4.189306064362e+00
-4.188987055915e+00
-4.188668099275e+00
-4.188349194436e+00
-4.188030341388e+00
-4.187711540123e+00
-4.187392790634e+00
-4.187074092912e+00
-4.186755446949e+00
-4.186436852737e+00
-4.186118310266e+00
-4.185799819530e+00
-4.185481380520e+00
-4.185162993226e+00
-4.184844657642e+00
-4.184526373758e+00
-4.184208141565e+00
-4.183889961056e+00
-4.183571832221e+00
-4.183253755052e+00
-4.182935729541e+00
-4.182617755678e+00
-4.182299833456e+00
-4.181981962864e+00
-4.181664143895e+00
-4.181346376539e+00
-4.181028660788e+00
-4.180710996633e+00
-4.180393384065e+00
-4.180075823074e+00
-4.179758313653e+00
-4.179440855791e+00
-4.179123449480e+00
-4.178806094711e+00
-4.178488791474e+00
-4.178171539761e+00
-4.177854339562e+00
-4.177537190868e+00
-4.177220093670e+00
-4.176903047958e+00
-4.176586053723e+00
-4.176269110956e+00
-4.175952219647e+00
-4.175635379788e+00
-4.175318591368e+00
-4.175001854378e+00
-4.174685168808e+00
-4.174368534650e+00
-4.174051951893e+00
-4.173735420527e+00
-4.173418940544e+00
-4.173102511934e+00
-4.172786134686e+00
-4.172469808792e+00
-4.172153534241e+00
-4.171837311023e+00
-4.171521139129e+00
-4.171205018550e+00
-4.170888949274e+00
-4.170572931292e+00
-4.170256964595e+00
-4.169941049172e+00
-4.169625185014e+00
-4.169309372110e+00
-4.168993610450e+00
-4.168677900024e+00
-4.168362240822e+00
-4.168046632835e+00
-4.167731076051e+00
-4.167415570461e+00
-4.167100116054e+00
-4.166784712821e+00
-4.166469360750e+00
-4.166154059832e+00
-4.165838810057e+00
-4.165523611413e+00
-4.165208463891e+00
-4.164893367481e+00
-4.164578322171e+00
-4.164263327952e+00
-4.163948384812e+00
-4.163633492742e+00
-4.163318651731e+00
-4.163003861768e+00
-4.162689122843e+00
-4.162374434945e+00
-4.162059798064e+00
-4.161745212188e+00
-4.161430677308e+00
-4.161116193412e+00
-4.160801760489e+00
-4.160487378530e+00
-4.160173047523e+00
-4.159858767457e+00
-4.159544538322e+00
-4.159230360107e+00
-4.158916232800e+00
-4.158602156391e+00
-4.158288130870e+00
-4.157974156224e+00
-4.157660232443e+00
-4.157346359517e+00
-4.157032537433e+00
-4.156718766182e+00
-4.156405045751e+00
-4.156091376131e+00
-4.155777757309e+00
-4.155464189274e+00
-4.155150672016e+00
-4.154837205524e+00
-4.154523789785e+00
-4.154210424789e+00
-4.153897110525e+00
-4.153583846980e+00
-4.153270634145e+00
-4.152957472008e+00
-4.152644360557e+00
-4.152331299781e+00
-4.152018289668e+00
-4.151705330207e+00
-4.151392421388e+00
-4.151079563197e+00
-4.150766755624e+00
-4.150453998658e+00
-4.150141292287e+00
-4.149828636498e+00
-4.149516031282e+00
-4.149203476625e+00
-4.148890972517e+00
-4.148578518946e+00
-4.148266115901e+00
-4.147953763368e+00
-4.147641461338e+00
-4.147329209798e+00
-4.147017008737e+00
-4.146704858142e+00
-4.146392758002e+00
-4.146080708306e+00
-4.145768709041e+00
-4.145456760196e+00
-4.145144861758e+00
-4.144833013716e+00
-4.144521216059e+00
-4.144209468773e+00
-4.143897771848e+00
-4.143586125271e+00
-4.143274529030e+00
-4.142962983114e+00
-4.142651487510e+00
-4.142340042206e+00
-4.142028647191e+00
-4.141717302452e+00
-4.141406007977e+00
-4.141094763754e+00
-4.140783569772e+00
-4.140472426017e+00
-4.140161332478e+00
-4.139850289142e+00
-4.139539295998e+00
-4.139228353034e+00
-4.138917460236e+00
-4.138606617593e+00
-4.138295825093e+00
-4.137985082723e+00
-4.137674390471e+00
-4.137363748324e+00
-4.137053156271e+00
-4.136742614299e+00
-4.136432122396e+00
-4.136121680549e+00
-4.135811288746e+00
-4.135500946975e+00
-4.135190655223e+00
-4.134880413477e+00
-4.134570221726e+00
-4.134260079957e+00
-4.133949988157e+00
-4.133639946314e+00
-4.133329954415e+00
-4.133020012448e+00
-4.132710120400e+00
-4.132400278259e+00
-4.132090486012e+00
-4.131780743646e+00
-4.131471051150e+00
-4.131161408509e+00
-4.130851815713e+00
-4.130542272747e+00
-4.130232779599e+00
-4.129923336258e+00
-4.129613942709e+00
-4.129304598940e+00
-4.128995304939e+00
-4.128686060693e+00
-4.128376866189e+00
-4.128067721414e+00
-4.127758626355e+00
-4.127449581000e+00
-4.127140585336e+00
-4.126831639350e+00
-4.126522743029e+00
-4.126213896360e+00
-4.125905099331e+00
-4.125596351928e+00
-4.125287654139e+00
-4.124979005950e+00
-4.124670407349e+00
-4.124361858323e+00
-4.124053358859e+00
-4.123744908944e+00
-4.123436508565e+00
-4.123128157709e+00
-4.122819856363e+00
-4.122511604513e+00
-4.122203402147e+00
-4.121895249253e+00
-4.121587145816e+00
-4.121279091823e+00
-4.120971087263e+00
-4.120663132120e+00
-4.120355226383e+00
-4.120047370039e+00
-4.119739563073e+00
-4.119431805473e+00
-4.119124097227e+00
-4.118816438319e+00
-4.118508828739e+00
-4.118201268471e+00
-4.117893757503e+00
-4.117586295823e+00
-4.117278883415e+00
-4.116971520268e+00
-4.116664206368e+00
-4.116356941702e+00
-4.116049726257e+00
-4.115742560018e+00
-4.115435442973e+00
-4.115128375109e+00
-4.114821356412e+00
-4.114514386869e+00
-4.114207466467e+00
-4.113900595192e+00
-4.113593773030e+00
-4.113286999969e+00
-4.112980275995e+00
-4.112673601094e+00
-4.112366975254e+00
-4.112060398460e+00
-4.111753870700e+00
-4.111447391960e+00
-4.111140962226e+00
-4.110834581484e+00
-4.110528249723e+00
-4.110221966927e+00
-4.109915733083e+00
-4.109609548179e+00
-4.109303412200e+00
-4.108997325132e+00
-4.108691286963e+00
-4.108385297679e+00
-4.108079357266e+00
-4.107773465711e+00
-4.107467622999e+00
-4.107161829118e+00
-4.106856084054e+00
-4.106550387793e+00
-4.106244740322e+00
-4.105939141626e+00
-4.105633591693e+00
-4.105328090508e+00
-4.105022638059e+00
-4.104717234330e+00
-4.104411879310e+00
-4.104106572983e+00
-4.103801315336e+00
-4.103496106356e+00
-4.103190946029e+00
-4.102885834341e+00
-4.102580771278e+00
-4.102275756827e+00
-4.101970790974e+00
-4.101665873705e+00
-4.101361005006e+00
-4.101056184863e+00
-4.100751413264e+00
-4.100446690193e+00
-4.100142015637e+00
-4.099837389583e+00
-4.099532812016e+00
-4.099228282923e+00
-4.098923802290e+00
-4.098619370102e+00
-4.098314986347e+00
-4.098010651010e+00
-4.097706364078e+00
-4.097402125536e+00
-4.097097935370e+00
-4.096793793568e+00
-4.096489700114e+00
-4.096185654995e+00
-4.095881658197e+00
-4.095577709706e+00
-4.095273809508e+00
-4.094969957590e+00
-4.094666153936e+00
-4.094362398534e+00
-4.094058691370e+00
-4.093755032428e+00
-4.093451421696e+00
-4.093147859160e+00
-4.092844344805e+00
-4.092540878617e+00
-4.092237460582e+00
-4.091934090687e+00
-4.091630768918e+00
-4.091327495260e+00
-4.091024269699e+00
-4.090721092221e+00
-4.090417962812e+00
-4.090114881459e+00
-4.089811848146e+00
-4.089508862861e+00
-4.089205925589e+00
-4.088903036315e+00
-4.088600195027e+00
2.266235482246e+02
2.266235482246e+02
2.266235482246e+02
2.266235482246e+02
2.266235482246e+02
2.266235482246e+02
2.266235482246e+02
2.266235482246e+02
2.266235482246e+02
2.266235482246e+02
2.266235482246e+02
2.266235482246e+02
2.266235482246e+02
2.266235482246e+02
2.266235482246e+02
2.266235482246e+02
2.266235482246e+02
2.266235482246e+02
2.266235482246e+02
2.266235482246e+02
2.266235482246e+02
2.266235482246e+02
2.266235482246e+02
2.266235482246e+02
2.266235482246e+02
2.266235482246e+02
2.266235482246e+02
2.266235482246e+02
2.266235482246e+02
2.266235482246e+02
2.266235482246e+02
2.266235482246e+02
2.266235482246e+02
2.266235482246e+02
2.266235482246e+02
2.266235482246e+02
2.266235482246e+02
2.266235482246e+02
2.266235482246e+02
2.266235482246e+02
2.266235482246e+02
2.266235482246e+02
2.266235482246e+02
2.266235482246e+02
2.266235482246e+02
2.266235482246e+02
2.266235482246e+02
2.266235482246e+02
2.266235482246e+02
2.266235482246e+02
2.266235482246e+02
2.266235482246e+02
2.266235482246e+02
2.266235482246e+02
2.266235482246e+02
2.266235482246e+02
2.266235482246e+02
2.266235482246e+02
2.266235482246e+02
2.266235482246e+02
2.266235482246e+02
2.266235482246e+02
2.266235482246e+02
2.266235482246e+02
2.266235482246e+02
2.266235482246e+02
2.266235482246e+02
2.266235482246e+02
2.266235482246e+02
2.266235482246e+02
2.266235482246e+02
2.266235482246e+02
2.266235482246e+02
2.266235482246e+02
2.266235482246e+02
2.266235482246e+02
2.266235482246e+02
2.266235482246e+02
2.266235482246e+02
2.266235482246e+02
2.266235482246e+02
2.266235482246e+02
2.266235482246e+02
2.266235482246e+02
2.266235482246e+02
2.266235482246e+02
2.266235482246e+02
2.266235482246e+02
2.266235482246e+02
2.266235482246e+02
2.266235482246e+02
2.266235482246e+02
2.266235482246e+02
2.266235482246e+02
2.266235482246e+02
2.266235482246e+02
2.266235482246e+02
2.266235482246e+02
2.266235482246e+02
2.266235482246e+02
2.266235482246e+02
2.266235482246e+02
2.266235482246e+02
2.266235482246e+02
2.266235482246e+02
2.266235482246e+02
2.266235482246e+02
2.266235482246e+02
2.266235482246e+02
2.266235482246e+02
2.266235482246e+02
2.266235482246e+02
2.266235482246e+02
2.266235482246e+02
2.266235482246e+02
2.266235482246e+02
2.266235482246e+02
2.266235482246e+02
2.266235482246e+02
2.266235482246e+02
2.266235482246e+02
2.266235482246e+02
2.266235482246e+02
2.266235482246e+02
2.266235482246e+02
2.266235482246e+02
2.266235482246e+02
2.266235482246e+02
2.266235482246e+02
2.266235482246e+02
2.266235482246e+02
2.266235482246e+02
2.266235482246e+02
2.266235482246e+02
2.266235482246e+02
2.266235482246e+02
2.266235482246e+02
2.266235482246e+02
2.266235482246e+02
2.266235482246e+02
2.266235482246e+02
2.266235482246e+02
2.265044696342e+02
2.252956264173e+02
2.240888888321e+02
2.228843879377e+02
2.216822506010e+02
2.204825995795e+02
2.192855536024e+02
2.180912274527e+02
2.168997320475e+02
2.157111745189e+02
2.145256582940e+02
2.133432831743e+02
2.121641454143e+02
2.109883377995e+02
2.098159497239e+02
2.086470672663e+02
2.074817732662e+02
2.063201473980e+02
2.051622662458e+02
2.040082033754e+02
2.028580294070e+02
2.017118120857e+02
2.005696163521e+02
1.994315044106e+02
1.982975357977e+02
1.971677674491e+02
1.960422537651e+02
1.949210466753e+02
1.938041957030e+02
1.926917480267e+02
1.915837485425e+02
1.904802399238e+02
1.893812626810e+02
1.882868552194e+02
1.871970538964e+02
1.861118930776e+02
1.850314051912e+02
1.839556207823e+02
1.828845685653e+02
1.818182754756e+02
1.807567667203e+02
1.797000658272e+02
1.786481946940e+02
1.776011736348e+02
1.765590214273e+02
1.755217553575e+02
1.744893912644e+02
1.734619435833e+02
1.724394253878e+02
1.714218484315e+02
1.704092231886e+02
1.694015588926e+02
1.683988635758e+02
1.674011441061e+02
1.664084062243e+02
1.654206545794e+02
1.644378927641e+02
1.634601233483e+02
1.624873479128e+02
1.615195670817e+02
1.605567805534e+02
1.595989871323e+02
1.586461847580e+02
1.576983705350e+02
1.567555407610e+02
1.558176909548e+02
1.548848158830e+02
1.539569095865e+02
1.530339654064e+02
1.521159760081e+02
1.512029334065e+02
1.502948289889e+02
1.493916535382e+02
1.484933972553e+02
1.476000497807e+02
1.467116002158e+02
1.458280371429e+02
1.449493486458e+02
1.440755223291e+02
1.432065453364e+02
1.423424043695e+02
1.414830857056e+02
1.406285752148e+02
1.397788583768e+02
1.389339202975e+02
1.380937457243e+02
1.372583190618e+02
1.364276243868e+02
1.356016454626e+02
1.347803657531e+02
1.339637684365e+02
1.331518364182e+02
1.323445523441e+02
1.315418986129e+02
1.307438573879e+02
1.299504106090e+02
1.291615400038e+02
1.283772270989e+02
1.275974532303e+02
1.268221995537e+02
1.260514470546e+02
1.252851765582e+02
1.245233687382e+02
1.237660041266e+02
1.230130631219e+02
1.222645259979e+02
1.215203729121e+02
1.207805839132e+02
1.200451389493e+02
1.193140178751e+02
1.185872004592e+02
1.178646663911e+02
1.171463952879e+02
1.164323667009e+02
1.157225601220e+02
1.150169549894e+02
1.143155306942e+02
1.136182665852e+02
1.129251419753e+02
1.122361361461e+02
1.115512283536e+02
1.108703978327e+02
1.101936238021e+02
1.095208854691e+02
1.088521620340e+02
1.081874326939e+02
1.075266766478e+02
1.068698730996e+02
1.062170012625e+02
1.055680403626e+02
1.049229696425e+02
1.042817683644e+02
1.036444158140e+02
1.030108913032e+02
1.023811741733e+02
1.017552437980e+02
1.011330795860e+02
1.005146609843e+02
9.989996748002e+01
9.928897860352e+01
9.868167393054e+01
9.807803308454e+01
9.747803573898e+01
9.688166161939e+01
9.628889050544e+01
9.569970223285e+01
9.511407669532e+01
9.453199384626e+01
9.395343370056e+01
9.337837633615e+01
9.280680189565e+01
9.223869058778e+01
9.167402268884e+01
9.111277854404e+01
9.055493856881e+01
9.000048325002e+01
8.944939314713e+01
8.890164889335e+01
8.835723119666e+01
8.781612084084e+01
8.727829868637e+01
8.674374567140e+01
8.621244281253e+01
8.568437120567e+01
8.515951202675e+01
8.463784653245e+01
8.411935606088e+01
8.360402203220e+01
8.309182594918e+01
8.258274939781e+01
8.207677404773e+01
8.157388165278e+01
8.107405405139e+01
8.057727316700e+01
8.008352100845e+01
7.959277967030e+01
7.910503133315e+01
7.862025826392e+01
7.813844281611e+01
7.765956743002e+01
7.718361463298e+01
7.671056703945e+01
7.624040735127e+01
7.577311835771e+01
7.530868293563e+01
7.484708404950e+01
7.438830475153e+01
7.393232818167e+01
7.347913756766e+01
7.302871622498e+01
7.258104755691e+01
7.213611505445e+01
7.169390229628e+01
7.125439294870e+01
7.081757076553e+01
7.038341958808e+01
6.995192334494e+01
6.952306605196e+01
6.909683181202e+01
6.867320481497e+01
6.825216933740e+01
6.783370974251e+01
6.741781047989e+01
6.700445608536e+01
6.659363118077e+01
6.618532047374e+01
6.577950875748e+01
6.537618091053e+01
6.497532189656e+01
6.457691676407e+01
6.418095064617e+01
6.378740876027e+01
6.339627640788e+01
6.300753897428e+01
6.262118192824e+01
6.223719082173e+01
6.185555128965e+01
6.147624904948e+01
6.109926990103e+01
6.072459972607e+01
6.035222448806e+01
5.998213023180e+01
5.961430308309e+01
5.924872924845e+01
5.888539501475e+01
5.852428674887e+01
5.816539089737e+01
5.780869398615e+01
5.745418262008e+01
5.710184348270e+01
5.675166333579e+01
5.640362901910e+01
5.605772744993e+01
5.571394562279e+01
5.537227060904e+01
5.503268955656e+01
5.469518968930e+01
5.435975830700e+01
5.402638278480e+01
5.369505057284e+01
5.336574919591e+01
5.303846625309e+01
5.271318941737e+01
5.238990643526e+01
5.206860512646e+01
5.174927338343e+01
5.143189917106e+01
5.111647052630e+01
5.080297555772e+01
5.049140244522e+01
5.018173943961e+01
4.987397486223e+01
4.956809710460e+01
4.926409462803e+01
4.896195596324e+01
4.866166971001e+01
4.836322453677e+01
4.806660918028e+01
4.777181244519e+01
4.747882320373e+01
4.718763039530e+01
4.689822302611e+01
4.661059016882e+01
4.632472096216e+01
4.604060461056e+01
4.575823038379e+01
4.547758761658e+01
4.519866570829e+01
4.492145412249e+01
4.464594238665e+01
4.437212009174e+01
4.409997689189e+01
4.382950250401e+01
4.356068670747e+01
4.329351934368e+01
4.302799031580e+01
4.276408958835e+01
4.250180718684e+01
4.224113319746e+01
4.198205776669e+01
4.172457110098e+01
4.146866346638e+01
4.121432518819e+01
4.096154665066e+01
4.071031829657e+01
4.046063062694e+01
4.021247420070e+01
3.996583963430e+01
3.972071760140e+01
3.947709883254e+01
3.923497411480e+01
3.899433429144e+01
3.875517026162e+01
3.851747298001e+01
3.828123345652e+01
3.804644275591e+01
3.781309199751e+01
3.758117235490e+01
3.735067505554e+01
3.712159138049e+01
3.689391266408e+01
3.666763029359e+01
3.644273570893e+01
3.621922040232e+01
3.599707591801e+01
3.577629385192e+01
3.555686585136e+01
3.533878361472e+01
3.512203889116e+01
3.490662348030e+01
3.469252923191e+01
3.447974804563e+01
3.426827187067e+01
3.405809270547e+01
3.384920259744e+01
3.364159364268e+01
3.343525798564e+01
3.323018781885e+01
3.302637538264e+01
3.282381296484e+01
3.262249290049e+01
3.242240757156e+01
3.222354940665e+01
3.202591088075e+01
3.182948451490e+01
3.163426287596e+01
3.144023857631e+01
3.124740427357e+01
3.105575267033e+01
3.086527651389e+01
3.067596859597e+01
3.048782175244e+01
3.030082886307e+01
3.011498285125e+01
2.993027668372e+01
2.974670337033e+01
2.956425596373e+01
2.938292755916e+01
2.920271129417e+01
2.902360034836e+01
2.884558794312e+01
2.866866734139e+01
2.849283184740e+01
2.831807480639e+01
2.814438960443e+01
2.797176966810e+01
2.780020846427e+01
2.762969949985e+01
2.746023632157e+01
2.729181251570e+01
2.712442170784e+01
2.695805756264e+01
2.679271378360e+01
2.662838411284e+01
2.646506233080e+01
2.630274225609e+01
2.614141774520e+01
2.598108269227e+01
2.582173102889e+01
2.566335672385e+01
2.550595378293e+01
2.534951624863e+01
2.519403820002e+01
2.503951375244e+01
2.488593705733e+01
2.473330230196e+01
2.458160370929e+01
2.443083553765e+01
2.428099208062e+01
2.413206766675e+01
2.398405665936e+01
2.383695345635e+01
2.369075248996e+01
2.354544822658e+01
2.340103516652e+01
2.325750784384e+01
2.311486082608e+01
2.297308871413e+01
2.283218614197e+01
2.269214777648e+01
2.255296831727e+01
2.241464249642e+01
2.227716507836e+01
2.214053085957e+01
2.200473466850e+01
2.186977136527e+01
2.173563584154e+01
2.160232302029e+01
2.146982785566e+01
2.133814533270e+01
2.120727046723e+01
2.107719830564e+01
2.094792392471e+01
2.081944243139e+01
2.069174896264e+01
2.056483868527e+01
2.043870679570e+01
2.031334851984e+01
2.018875911285e+01
2.006493385901e+01
1.994186807152e+01
1.981955709231e+01
1.969799629188e+01
1.957718106915e+01
1.945710685123e+01
1.933776909328e+01
1.921916327834e+01
1.910128491715e+01
1.898412954799e+01
1.886769273649e+01
1.875197007548e+01
1.863695718485e+01
1.852264971130e+01
1.840904332827e+01
1.829613373573e+01
1.818391666000e+01
1.807238785364e+01
1.796154309525e+01
1.785137818931e+01
1.774188896604e+01
1.763307128124e+01
1.752492101612e+01
1.741743407715e+01
1.731060639592e+01
1.720443392895e+01
1.709891265758e+01
1.699403858780e+01
1.688980775006e+01
1.678621619921e+01
1.668326001425e+01
1.658093529825e+01
1.647923817819e+01
1.637816480479e+01
1.627771135237e+01
1.617787401874e+01
1.607864902501e+01
1.598003261548e+01
1.588202105746e+01
1.578461064119e+01
1.568779767964e+01
1.559157850840e+01
1.549594948552e+01
1.540090699141e+01
1.530644742868e+01
1.521256722199e+01
1.511926281792e+01
1.502653068487e+01
1.493436731289e+01
1.484276921356e+01
1.475173291984e+01
1.466125498597e+01
1.457133198732e+01
1.448196052027e+01
1.439313720207e+01
1.430485867071e+01
1.421712158481e+01
1.412992262349e+01
1.404325848623e+01
1.395712589275e+01
1.387152158289e+01
1.378644231650e+01
1.370188487327e+01
1.361784605268e+01
1.353432267383e+01
1.345131157530e+01
1.336880961509e+01
1.328681367048e+01
1.320532063786e+01
1.312432743271e+01
1.304383098937e+01
1.296382826104e+01
1.288431621957e+01
1.280529185539e+01
1.272675217739e+01
1.264869421282e+01
1.257111500714e+01
1.249401162394e+01
1.241738114483e+01
1.234122066930e+01
1.226552731466e+01
1.219029821586e+01
1.211553052546e+01
1.204122141347e+01
1.196736806724e+01
1.189396769140e+01
1.182101750771e+01
1.174851475497e+01
1.167645668892e+01
1.160484058213e+01
1.153366372389e+01
1.146292342013e+01
1.139261699330e+01
1.132274178226e+01
1.125329514221e+01
1.118427444456e+01
1.111567707684e+01
1.104750044262e+01
1.097974196137e+01
1.091239906840e+01
1.084546921477e+01
1.077894986713e+01
1.071283850771e+01
1.064713263415e+01
1.058182975946e+01
1.051692741190e+01
1.045242313489e+01
1.038831448690e+01
1.032459904139e+01
1.026127438671e+01
1.019833812598e+01
1.013578787705e+01
1.007362127236e+01
1.001183595886e+01
9.950429597967e+00
9.889399865412e+00
9.828744451193e+00
9.768461059474e+00
9.708547408503e+00
9.649001230520e+00
9.589820271674e+00
9.531002291939e+00
9.472545065028e+00
9.414446378307e+00
9.356704032714e+00
9.299315842676e+00
9.242279636022e+00
9.185593253906e+00
9.129254550723e+00
9.073261394026e+00
9.017611664449e+00
8.962303255624e+00
8.907334074102e+00
8.852702039274e+00
8.798405083293e+00
8.744441150994e+00
8.690808199818e+00
8.637504199732e+00
8.584527133155e+00
8.531874994882e+00
8.479545792003e+00
8.427537543836e+00
8.375848281844e+00
8.324476049565e+00
8.273418902535e+00
8.222674908219e+00
8.172242145932e+00
8.122118706773e+00
8.072302693544e+00
8.022792220688e+00
7.973585414210e+00
7.924680411610e+00
7.876075361811e+00
7.827768425090e+00
7.779757773006e+00
7.732041588335e+00
7.684618064997e+00
7.637485407989e+00
7.590641833319e+00
7.544085567937e+00
7.497814849665e+00
7.451827927137e+00
7.406123059725e+00
7.360698517480e+00
7.315552581062e+00
7.270683541676e+00
7.226089701008e+00
7.181769371162e+00
7.137720874592e+00
7.093942544042e+00
7.050432722483e+00
7.007189763047e+00
6.964212028969e+00
6.921497893521e+00
6.879045739955e+00
6.836853961436e+00
6.794920960986e+00
6.753245151422e+00
6.711824955296e+00
6.670658804833e+00
6.629745141876e+00
6.589082417824e+00
6.548669093574e+00
6.508503639464e+00
6.468584535212e+00
6.428910269863e+00
6.389479341725e+00
6.350290258322e+00
6.311341536328e+00
6.272631701516e+00
6.234159288701e+00
6.195922841684e+00
6.157920913199e+00
6.120152064854e+00
6.082614867082e+00
6.045307899083e+00
6.008229748770e+00
5.971379012718e+00
5.934754296110e+00
5.898354212684e+00
5.862177384680e+00
5.826222442788e+00
5.790488026096e+00
5.754972782042e+00
5.719675366357e+00
5.684594443017e+00
5.649728684192e+00
5.615076770199e+00
5.580637389446e+00
5.546409238387e+00
5.512391021470e+00
5.478581451091e+00
5.444979247541e+00
5.411583138962e+00
5.378391861295e+00
5.345404158236e+00
5.312618781185e+00
5.280034489199e+00
5.247650048949e+00
5.215464234669e+00
5.183475828111e+00
5.151683618499e+00
5.120086402482e+00
5.088682984093e+00
5.057472174697e+00
5.026452792950e+00
4.995623664755e+00
4.964983623215e+00
4.934531508590e+00
4.904266168254e+00
4.874186456650e+00
4.844291235247e+00
4.814579372497e+00
4.785049743792e+00
4.755701231422e+00
4.726532724532e+00
4.697543119082e+00
4.668731317801e+00
4.640096230149e+00
4.611636772275e+00
4.583351866975e+00
4.555240443653e+00
4.527301438279e+00
4.499533793348e+00
4.471936457842e+00
4.444508387189e+00
4.417248543224e+00
4.390155894150e+00
4.363229414496e+00
4.336468085085e+00
4.309870892986e+00
4.283436831485e+00
4.257164900039e+00
4.231054104244e+00
4.205103455794e+00
4.179311972445e+00
4.153678677978e+00
4.128202602161e+00
4.102882780713e+00
4.077718255266e+00
4.052708073332e+00
4.027851288264e+00
4.003146959220e+00
3.978594151132e+00
3.954191934664e+00
3.929939386181e+00
3.905835587712e+00
3.881879626917e+00
3.858070597054e+00
3.834407596938e+00
3.810889730914e+00
3.787516108821e+00
3.764285845956e+00
3.741198063043e+00
3.718251886198e+00
3.695446446899e+00
3.672780881948e+00
3.650254333445e+00
3.627865948747e+00
3.605614880446e+00
3.583500286328e+00
3.561521329345e+00
3.539677177583e+00
3.517967004232e+00
3.496389987551e+00
3.474945310841e+00
3.453632162409e+00
3.432449735545e+00
3.411397228483e+00
3.390473844377e+00
3.369678791265e+00
3.349011282047e+00
3.328470534448e+00
3.308055770990e+00
3.287766218966e+00
3.267601110406e+00
3.247559682053e+00
3.227641175328e+00
3.207844836307e+00
3.188169915690e+00
3.168615668771e+00
3.149181355414e+00
3.129866240020e+00
3.110669591505e+00
3.091590683265e+00
3.072628793155e+00
3.053783203460e+00
3.035053200864e+00
3.016438076429e+00
2.997937125563e+00
2.979549647998e+00
2.961274947758e+00
2.943112333138e+00
2.925061116674e+00
2.907120615120e+00
2.889290149419e+00
2.871569044680e+00
2.853956630151e+00
2.836452239194e+00
2.819055209260e+00
2.801764881863e+00
2.784580602557e+00
2.767501720908e+00
2.750527590472e+00
2.733657568772e+00
2.716891017270e+00
2.700227301343e+00
2.683665790262e+00
2.667205857166e+00
2.650846879039e+00
2.634588236688e+00
2.618429314713e+00
2.602369501493e+00
2.586408189157e+00
2.570544773561e+00
2.554778654268e+00
2.539109234523e+00
2.523535921231e+00
2.508058124935e+00
2.492675259793e+00
2.477386743557e+00
2.462191997550e+00
2.447090446644e+00
2.432081519237e+00
2.417164647234e+00
2.402339266027e+00
2.387604814466e+00
2.372960734846e+00
2.358406472883e+00
2.343941477690e+00
2.329565201760e+00
2.315277100946e+00
2.301076634436e+00
2.286963264735e+00
2.272936457647e+00
2.258995682249e+00
2.245140410878e+00
2.231370119105e+00
2.217684285718e+00
2.204082392702e+00
2.190563925219e+00
2.177128371589e+00
2.163775223269e+00
2.150503974838e+00
2.137314123972e+00
2.124205171429e+00
2.111176621030e+00
2.098227979637e+00
2.085358757140e+00
2.072568466431e+00
2.059856623392e+00
2.047222746875e+00
2.034666358681e+00
2.022186983545e+00
2.009784149117e+00
1.997457385945e+00
1.985206227453e+00
1.973030209932e+00
1.960928872511e+00
1.948901757151e+00
1.936948408620e+00
1.925068374477e+00
1.913261205059e+00
1.901526453458e+00
1.889863675508e+00
1.878272429768e+00
1.866752277504e+00
1.855302782673e+00
1.843923511906e+00
1.832614034493e+00
1.821373922364e+00
1.810202750077e+00
1.799100094797e+00
1.788065536284e+00
1.777098656874e+00
1.766199041466e+00
1.755366277505e+00
1.744599954966e+00
1.733899666338e+00
1.723265006610e+00
1.712695573256e+00
1.702190966217e+00
1.691750787890e+00
1.681374643110e+00
1.671062139133e+00
1.660812885627e+00
1.650626494654e+00
1.640502580653e+00
1.630440760429e+00
1.620440653139e+00
1.610501880274e+00
1.600624065646e+00
1.590806835376e+00
1.581049817876e+00
1.571352643840e+00
1.561714946224e+00
1.552136360239e+00
1.542616523328e+00
1.533155075164e+00
1.523751657624e+00
1.514405914786e+00
1.505117492909e+00
1.495886040422e+00
1.486711207910e+00
1.477592648101e+00
1.468530015854e+00
1.459522968144e+00
1.450571164051e+00
1.441674264743e+00
1.432831933470e+00
1.424043835546e+00
1.415309638335e+00
1.406629011246e+00
1.398001625713e+00
1.389427155184e+00
1.380905275113e+00
1.372435662942e+00
1.364017998093e+00
1.355651961953e+00
1.347337237863e+00
1.339073511108e+00
1.330860468902e+00
1.322697800377e+00
1.314585196572e+00
1.306522350423e+00
1.298508956745e+00
1.290544712229e+00
1.282629315425e+00
1.274762466731e+00
1.266943868382e+00
1.259173224442e+00
1.251450240789e+00
1.243774625103e+00
1.236146086859e+00
1.228564337313e+00
1.221029089493e+00
1.213540058186e+00
1.206096959929e+00
1.198699512996e+00
1.191347437392e+00
1.184040454837e+00
1.176778288758e+00
1.169560664279e+00
1.162387308210e+00
1.155257949035e+00
1.148172316905e+00
1.141130143626e+00
1.134131162647e+00
1.127175109056e+00
1.120261719561e+00
1.113390732488e+00
1.106561887766e+00
1.099774926922e+00
1.093029593064e+00
1.086325630880e+00
1.079662786620e+00
1.073040808095e+00
1.066459444657e+00
1.059918447201e+00
1.053417568145e+00
1.046956561430e+00
1.040535182502e+00
1.034153188309e+00
1.027810337291e+00
1.021506389367e+00
1.015241105930e+00
1.009014249837e+00
1.002825585397e+00
9.966748783667e-01
9.905618959396e-01
9.844864067362e-01
9.784481807964e-01
9.724469895707e-01
9.664826059110e-01
9.605548040628e-01
9.546633596561e-01
9.488080496969e-01
9.429886525591e-01
9.372049479758e-01
9.314567170312e-01
9.257437421520e-01
9.200658070996e-01
9.144226969614e-01
9.088141981432e-01
9.032400983607e-01
8.977001866316e-01
8.921942532678e-01
8.867220898672e-01
8.812834893057e-01
8.758782457299e-01
8.705061545489e-01
8.651670124265e-01
8.598606172737e-01
8.545867682411e-01
8.493452657110e-01
8.441359112900e-01
8.389585078019e-01
8.338128592794e-01
8.286987709575e-01
8.236160492654e-01
8.185645018199e-01
8.135439374175e-01
8.085541660276e-01
8.035949987851e-01
7.986662479831e-01
7.937677270662e-01
7.888992506231e-01
7.840606343797e-01
7.792516951923e-01
7.744722510401e-01
7.697221210192e-01
7.650011253347e-01
7.603090852950e-01
7.556458233041e-01
7.510111628555e-01
7.464049285249e-01
7.418269459645e-01
7.372770418955e-01
7.327550441018e-01
7.282607814238e-01
7.237940837515e-01
7.193547820185e-01
7.149427081950e-01
7.105576952822e-01
7.061995773051e-01
7.018681893071e-01
6.975633673431e-01
6.932849484736e-01
6.890327707585e-01
6.848066732509e-01
6.806064959911e-01
6.764320800004e-01
6.722832672753e-01
6.681599007813e-01
6.640618244470e-01
6.599888831585e-01
6.559409227529e-01
6.519177900132e-01
6.479193326619e-01
6.439453993556e-01
6.399958396790e-01
6.360705041395e-01
6.321692441613e-01
6.282919120800e-01
6.244383611367e-01
6.206084454729e-01
6.168020201243e-01
6.130189410161e-01
6.092590649569e-01
6.055222496338e-01
6.018083536065e-01
5.981172363024e-01
5.944487580110e-01
5.908027798787e-01
5.871791639035e-01
5.835777729299e-01
5.799984706437e-01
5.764411215665e-01
5.729055910510e-01
5.693917452759e-01
5.658994512404e-01
5.624285767596e-01
5.589789904592e-01
5.555505617710e-01
5.521431609272e-01
5.487566589561e-01
5.453909276772e-01
5.420458396959e-01
5.387212683991e-01
5.354170879503e-01
5.321331732847e-01
5.288694001046e-01
5.256256448747e-01
5.224017848173e-01
5.191976979080e-01
5.160132628705e-01
5.128483591725e-01
5.097028670209e-01
5.065766673574e-01
5.034696418539e-01
5.003816729081e-01
4.973126436388e-01
4.942624378820e-01
4.912309401860e-01
4.882180358071e-01
4.852236107056e-01
4.822475515410e-01
4.792897456682e-01
4.763500811329e-01
4.734284466673e-01
4.705247316863e-01
4.676388262830e-01
4.647706212244e-01
4.619200079477e-01
4.590868785559e-01
4.562711258137e-01
4.534726431435e-01
4.506913246216e-01
4.479270649737e-01
4.451797595713e-01
4.424493044277e-01
4.397355961938e-01
4.370385321546e-01
4.343580102248e-01
4.316939289457e-01
4.290461874803e-01
4.264146856105e-01
4.237993237328e-01
4.212000028544e-01
4.186166245899e-01
4.160490911572e-01
4.134973053740e-01
4.109611706540e-01
4.084405910033e-01
4.059354710169e-01
4.034457158747e-01
4.009712313384e-01
3.985119237476e-01
3.960677000164e-01
3.936384676298e-01
3.912241346401e-01
3.888246096638e-01
3.864398018777e-01
3.840696210158e-01
3.817139773656e-01
3.793727817648e-01
3.770459455982e-01
3.747333807939e-01
3.724349998203e-01
3.701507156825e-01
3.678804419193e-01
3.656240925999e-01
3.633815823202e-01
3.611528262003e-01
3.589377398808e-01
3.567362395194e-01
3.545482417885e-01
3.523736638712e-01
3.502124234588e-01
3.480644387473e-01
3.459296284344e-01
3.438079117166e-01
3.416992082859e-01
3.396034383269e-01
3.375205225137e-01
3.354503820068e-01
3.333929384506e-01
3.313481139697e-01
3.293158311666e-01
3.272960131184e-01
3.252885833741e-01
3.232934659514e-01
3.213105853341e-01
3.193398664693e-01
3.173812347644e-01
3.154346160840e-01
3.134999367479e-01
3.115771235273e-01
3.096661036429e-01
3.077668047616e-01
3.058791549941e-01
3.040030828917e-01
3.021385174443e-01
3.002853880772e-01
2.984436246483e-01
2.966131574461e-01
2.947939171865e-01
2.929858350102e-01
2.911888424804e-01
2.894028715800e-01
2.876278547090e-01
2.858637246823e-01
2.841104147264e-01
2.823678584777e-01
2.806359899796e-01
2.789147436798e-01
2.772040544282e-01
2.755038574743e-01
2.738140884648e-01
2.721346834408e-01
2.704655788361e-01
2.688067114741e-01
2.671580185656e-01
2.655194377067e-01
2.638909068762e-01
2.622723644332e-01
2.606637491149e-01
2.590650000343e-01
2.574760566777e-01
2.558968589027e-01
2.543273469356e-01
2.527674613695e-01
2.512171431616e-01
2.496763336315e-01
2.481449744584e-01
2.466230076795e-01
2.451103756872e-01
2.436070212274e-01
2.421128873971e-01
2.406279176423e-01
2.391520557557e-01
2.376852458751e-01
2.362274324805e-01
2.347785603926e-01
2.333385747704e-01
2.319074211095e-01
2.304850452395e-01
2.290713933223e-01
2.276664118500e-01
2.262700476430e-01
2.248822478475e-01
2.235029599343e-01
2.221321316960e-01
2.207697112455e-01
2.194156470139e-01
2.180698877486e-01
2.167323825113e-01
2.154030806762e-01
2.140819319276e-01
2.127688862589e-01
2.114638939698e-01
2.101669056649e-01
2.088778722517e-01
2.075967449389e-01
2.063234752343e-01
2.050580149430e-01
2.038003161658e-01
2.025503312971e-01
2.013080130235e-01
2.000733143215e-01
1.988461884559e-01
1.976265889784e-01
1.964144697253e-01
1.952097848160e-01
1.940124886514e-01
1.928225359118e-01
1.916398815556e-01
1.904644808173e-01
1.892962892059e-01
1.881352625032e-01
1.869813567622e-01
1.858345283053e-01
1.846947337229e-01
1.835619298713e-01
1.824360738716e-01
1.813171231075e-01
1.802050352244e-01
1.790997681271e-01
1.780012799786e-01
1.769095291984e-01
1.758244744609e-01
1.747460746939e-01
1.736742890771e-01
1.726090770403e-01
1.715503982622e-01
1.704982126685e-01
1.694524804308e-01
1.684131619648e-01
1.673802179287e-01
1.663536092220e-01
1.653332969840e-01
1.643192425921e-01
1.633114076605e-01
1.623097540386e-01
1.613142438097e-01
1.603248392897e-01
1.593415030251e-01
1.583641977923e-01
1.573928865958e-01
1.564275326666e-01
1.554680994614e-01
1.545145506605e-01
1.535668501672e-01
1.526249621055e-01
1.516888508198e-01
1.507584808725e-01
1.498338170436e-01
1.489148243285e-01
1.480014679373e-01
1.470937132934e-01
1.461915260317e-01
1.452948719980e-01
1.444037172470e-01
1.435180280416e-01
1.426377708514e-01
1.417629123511e-01
1.408934194198e-01
1.400292591395e-01
1.391703987936e-01
1.383168058660e-01
1.374684480398e-01
1.366252931958e-01
1.357873094117e-01
1.349544649607e-01
1.341267283099e-01
1.333040681199e-01
1.324864532429e-01
1.316738527219e-01
1.308662357893e-01
1.300635718659e-01
1.292658305598e-01
1.284729816647e-01
1.276849951596e-01
1.269018412070e-01
1.261234901519e-01
1.253499125210e-01
1.245810790209e-01
1.238169605379e-01
1.230575281359e-01
1.223027530562e-01
1.215526067156e-01
1.208070607061e-01
1.200660867929e-01
1.193296569144e-01
1.185977431800e-01
1.178703178700e-01
1.171473534338e-01
1.164288224895e-01
1.157146978222e-01
1.150049523835e-01
1.142995592901e-01
1.135984918230e-01
1.129017234264e-01
1.122092277066e-01
1.115209784310e-01
1.108369495273e-01
1.101571150823e-01
1.094814493408e-01
1.088099267050e-01
1.081425217331e-01
1.074792091386e-01
1.068199637890e-01
1.061647607055e-01
1.055135750611e-01
1.048663821805e-01
1.042231575387e-01
1.035838767599e-01
1.029485156172e-01
1.023170500309e-01
1.016894560682e-01
1.010657099418e-01
1.004457880094e-01
9.982966677242e-02
9.921732287526e-02
9.860873310442e-02
9.800387438756e-02
9.740272379257e-02
9.680525852673e-02
9.621145593583e-02
9.562129350322e-02
9.503474884902e-02
9.445179972919e-02
9.387242403470e-02
9.329659979064e-02
9.272430515536e-02
9.215551841967e-02
9.159021800592e-02
9.102838246720e-02
9.046999048648e-02
8.991502087581e-02
8.936345257543e-02
8.881526465301e-02
8.827043630276e-02
8.772894684468e-02
8.719077572369e-02
8.665590250887e-02
8.612430689258e-02
8.559596868976e-02
8.507086783704e-02
8.454898439201e-02
8.403029853239e-02
8.351479055526e-02
8.300244087628e-02
8.249323002892e-02
8.198713866365e-02
8.148414754723e-02
8.098423756186e-02
8.048738970451e-02
7.999358508609e-02
7.950280493073e-02
7.901503057499e-02
7.853024346717e-02
7.804842516651e-02
7.756955734247e-02
7.709362177401e-02
7.662060034880e-02
7.615047506254e-02
7.568322801823e-02
7.521884142539e-02
7.475729759941e-02
7.429857896076e-02
7.384266803434e-02
7.338954744872e-02
7.293919993545e-02
7.249160832833e-02
7.204675556275e-02
7.160462467495e-02
7.116519880133e-02
7.072846117775e-02
7.029439513886e-02
6.986298411738e-02
6.943421164344e-02
6.900806134386e-02
6.858451694151e-02
6.816356225461e-02
6.774518119602e-02
6.732935777263e-02
6.691607608464e-02
6.650532032490e-02
6.609707477827e-02
6.569132382091e-02
6.528805191964e-02
6.488724363129e-02
6.448888360203e-02
6.409295656670e-02
6.369944734818e-02
6.330834085673e-02
6.291962208933e-02
6.253327612907e-02
6.214928814443e-02
6.176764338872e-02
6.138832719937e-02
6.101132499734e-02
6.063662228647e-02
6.026420465280e-02
5.989405776400e-02
5.952616736870e-02
5.916051929587e-02
5.879709945418e-02
5.843589383138e-02
5.807688849368e-02
5.772006958512e-02
5.736542332694e-02
5.701293601696e-02
5.666259402897e-02
5.631438381211e-02
5.596829189024e-02
5.562430486133e-02
5.528240939684e-02
5.494259224114e-02
5.460484021084e-02
5.426914019423e-02
5.393547915064e-02
5.360384410984e-02
5.327422217145e-02
5.294660050428e-02
5.262096634581e-02
5.229730700149e-02
5.197560984422e-02
5.165586231369e-02
5.133805191581e-02
5.102216622209e-02
5.070819286904e-02
5.039611955761e-02
5.008593405254e-02
4.977762418177e-02
4.947117783588e-02
4.916658296748e-02
4.886382759058e-02
4.856289978003e-02
4.826378767093e-02
4.796647945802e-02
4.767096339508e-02
4.737722779437e-02
4.708526102600e-02
4.679505151739e-02
4.650658775262e-02
4.621985827189e-02
4.593485167090e-02
4.565155660027e-02
4.536996176497e-02
4.509005592372e-02
4.481182788840e-02
4.453526652344e-02
4.426036074531e-02
4.398709952185e-02
4.371547187174e-02
4.344546686389e-02
4.317707361688e-02
4.291028129835e-02
4.264507912444e-02
4.238145635919e-02
4.211940231401e-02
4.185890634700e-02
4.159995786249e-02
4.134254631037e-02
4.108666118557e-02
4.083229202743e-02
4.057942841919e-02
4.032805998737e-02
4.007817640118e-02
3.982976737202e-02
3.958282265283e-02
3.933733203757e-02
3.909328536061e-02
3.885067249621e-02
3.860948335791e-02
3.836970789801e-02
3.813133610695e-02
3.789435801280e-02
3.765876368067e-02
3.742454321214e-02
3.719168674477e-02
3.696018445146e-02
3.673002653995e-02
3.650120325227e-02
3.627370486415e-02
3.604752168454e-02
3.582264405502e-02
3.559906234927e-02
3.537676697255e-02
3.515574836116e-02
3.493599698189e-02
3.471750333154e-02
3.450025793635e-02
3.428425135153e-02
3.406947416070e-02
3.385591697542e-02
3.364357043467e-02
3.343242520434e-02
3.322247197677e-02
3.301370147025e-02
3.280610442850e-02
3.259967162027e-02
3.239439383880e-02
3.219026190141e-02
3.198726664901e-02
3.178539894570e-02
3.158464967827e-02
3.138500975582e-02
3.118647010932e-02
3.098902169121e-02
3.079265547499e-02
3.059736245481e-02
3.040313364513e-02
3.020996008033e-02
3.001783281436e-02
2.982674292037e-02
2.963668149041e-02
2.944763963510e-02
2.925960848332e-02
2.907257918193e-02
2.888654289548e-02
2.870149080597e-02
2.851741411261e-02
2.833430403155e-02
2.815215179576e-02
2.797094865475e-02
2.779068587446e-02
2.761135473710e-02
2.743294654103e-02
2.725545260063e-02
2.707886424623e-02
2.690317282409e-02
2.672836969630e-02
2.655444624085e-02
2.638139385158e-02
2.620920393828e-02
2.603786792673e-02
2.586737725883e-02
2.569772339275e-02
2.552889780305e-02
2.536089198093e-02
2.519369743446e-02
2.502730568882e-02
2.486170828667e-02
2.469689678843e-02
2.453286277271e-02
2.436959783672e-02
2.420709359677e-02
2.404534168872e-02
2.388433376859e-02
2.372406151316e-02
2.356451662059e-02
2.340569081114e-02
2.324757582790e-02
2.309016343762e-02
2.293344543153e-02
2.277741362627e-02
2.262205986485e-02
2.246737601765e-02
2.231335398352e-02
2.215998569092e-02
2.200726309910e-02
2.185517819938e-02
2.170372301648e-02
2.155288960991e-02
2.140267007542e-02
2.125305654656e-02
2.110404119626e-02
2.095561623848e-02
2.080777393002e-02
2.066050657229e-02
2.051380651320e-02
2.036766614918e-02
2.022207792718e-02
2.007703434684e-02
1.993252796266e-02
1.978855138633e-02
1.964509728908e-02
1.950215840413e-02
1.935972752925e-02
1.921779752937e-02
1.907636133930e-02
1.893541196649e-02
1.879494249395e-02
1.865494608319e-02
1.851541597728e-02
1.837634550396e-02
1.823772807890e-02
1.809955720896e-02
1.796182649562e-02
1.782452963842e-02
1.768766043851e-02
1.755121280231e-02
1.741518074520e-02
1.727955839534e-02
1.714433999748e-02
1.700951991695e-02
1.687509264365e-02
1.674105279614e-02
1.660739512575e-02
1.647411452085e-02
1.634120601102e-02
1.620866477146e-02
1.607648612732e-02
1.594466555808e-02
1.581319870206e-02
1.568208136089e-02
1.555130950402e-02
1.542087927327e-02
1.529078698739e-02
1.516102914663e-02
1.503160243734e-02
1.490250373648e-02
1.477373011628e-02
1.464527884868e-02
1.451714740991e-02
1.438933348493e-02
1.426183497190e-02
1.413464998650e-02
1.400777686631e-02
1.388121417495e-02
1.375496070631e-02
1.362901548857e-02
1.350337778810e-02
1.337804711333e-02
1.325302321841e-02
1.312830610675e-02
1.300389603441e-02
1.287979351329e-02
1.275599931418e-02
1.263251446958e-02
1.250934027635e-02
1.238647829808e-02
1.226393036726e-02
1.214169858723e-02
1.201978533381e-02
1.189819325667e-02
1.177692528047e-02
1.165598460561e-02
1.153537470875e-02
1.141509934294e-02
1.129516253745e-02
1.117556859721e-02
1.105632210200e-02
1.093742790510e-02
1.081889113169e-02
1.070071717682e-02
1.058291170298e-02
1.046548063721e-02
1.034843016794e-02
1.023176674120e-02
1.011549705661e-02
9.999628062782e-03
9.884166952353e-03
9.769121156590e-03
9.654498339511e-03
9.540306391596e-03
9.426553423040e-03
9.313247756575e-03
9.200397919846e-03
9.088012637363e-03
8.976100822020e-03
8.864671566194e-03
8.753734132432e-03
8.643297943737e-03
8.533372573456e-03
8.423967734794e-03
8.315093269961e-03
8.206759138962e-03
8.098975408057e-03
7.991752237901e-03
7.885099871385e-03
7.779028621199e-03
7.673548857137e-03
7.568670993162e-03
7.464405474265e-03
7.360762763133e-03
7.257753326657e-03
7.155387622296e-03
7.053676084345e-03
6.952629110106e-03
6.852257046022e-03
6.752570173771e-03
6.653578696374e-03
6.555292724339e-03
6.457722261861e-03
6.360877193124e-03
6.264767268724e-03
6.169402092242e-03
6.074791107009e-03
5.980943583078e-03
5.887868604435e-03
5.795575056488e-03
5.704071613844e-03
5.613366728418e-03
5.523468617889e-03
5.434385254527e-03
5.346124354430e-03
5.258693367169e-03
5.172099465888e-03
5.086349537864e-03
5.001450175546e-03
4.917407668103e-03
4.834227993476e-03
4.751916810973e-03
4.670479454401e-03
4.589920925753e-03
4.510245889460e-03
4.431458667216e-03
4.353563233382e-03
4.276563210968e-03
4.200461868209e-03
4.125262115718e-03
4.050966504236e-03
3.977577222956e-03
3.905096098434e-03
3.833524594073e-03
3.762863810174e-03
3.693114484548e-03
3.624276993679e-03
3.556351354423e-03
3.489337226237e-03
3.423233913917e-03
3.358040370841e-03
3.293755202684e-03
3.230376671609e-03
3.167902700899e-03
3.106330880024e-03
3.045658470110e-03
2.985882409811e-03
2.926999321534e-03
2.869005518031e-03
2.811897009304e-03
2.755669509827e-03
2.700318446040e-03
2.645838964123e-03
2.592225937990e-03
2.539473977517e-03
2.487577436958e-03
2.436530423540e-03
2.386326806206e-03
2.336960224495e-03
2.288424097532e-03
2.240711633102e-03
2.193815836805e-03
2.147729521252e-03
2.102445315299e-03
2.057955673293e-03
2.014252884308e-03
1.971329081370e-03
1.929176250636e-03
1.887786240520e-03
1.847150770754e-03
1.807261441363e-03
1.768109741541e-03
1.729687058428e-03
1.691984685750e-03
1.654993832340e-03
1.618705630511e-03
1.583111144272e-03
1.548201377391e-03
1.513967281283e-03
1.480399762717e-03
1.447489691350e-03
1.415227907061e-03
1.383605227092e-03
1.352612452995e-03
1.322240377364e-03
1.292479790372e-03
1.263321486092e-03
1.234756268602e-03
1.206774957884e-03
1.179368395504e-03
1.152527450078e-03
1.126243022522e-03
1.100506051088e-03
1.075307516184e-03
1.050638444987e-03
1.026489915834e-03
1.002853062419e-03
9.797190777678e-04
9.570792180216e-04
9.349248060110e-04
9.132472346368e-04
8.920379700544e-04
8.712885546689e-04
8.509906099416e-04
8.311358390159e-04
8.117160291630e-04
7.927230540540e-04
7.741488758626e-04
7.559855472019e-04
7.382252129013e-04
7.208601116272e-04
7.038825773526e-04
6.872850406807e-04
6.710600300269e-04
6.552001726635e-04
6.396981956340e-04
6.245469265390e-04
6.097392942005e-04
5.952683292085e-04
5.811271643552e-04
5.673090349605e-04
5.538072790947e-04
5.406153377012e-04
5.277267546260e-04
5.151351765556e-04
5.028343528707e-04
4.908181354164e-04
4.790804781968e-04
4.676154369950e-04
4.564171689237e-04
4.454799319104e-04
4.347980841206e-04
4.243660833229e-04
4.141784861986e-04
4.042299476008e-04
3.945152197651e-04
3.850291514752e-04
3.757666871875e-04
3.667228661163e-04
3.578928212836e-04
3.492717785355e-04
3.408550555289e-04
3.326380606897e-04
3.246162921464e-04
3.167853366401e-04
3.091408684147e-04
3.016786480884e-04
2.943945215082e-04
2.872844185916e-04
2.803443521541e-04
2.735704167280e-04
2.669587873708e-04
2.605057184673e-04
2.542075425260e-04
2.480606689712e-04
2.420615829327e-04
2.362068440338e-04
2.304930851794e-04
2.249170113456e-04
2.194753983710e-04
2.141650917516e-04
2.089830054401e-04
2.039261206502e-04
1.989914846675e-04
1.941762096671e-04
1.894774715386e-04
1.848925087208e-04
1.804186210437e-04
1.760531685822e-04
1.717935705186e-04
1.676373040169e-04
1.635819031080e-04
1.596249575870e-04
1.557641119224e-04
1.519970641780e-04
1.483215649480e-04
1.447354163049e-04
1.412364707608e-04
1.378226302431e-04
1.344918450836e-04
1.312421130215e-04
1.280714782212e-04
1.249780303046e-04
1.219599033968e-04
1.190152751882e-04
1.161423660094e-04
1.133394379220e-04
1.106047938239e-04
1.079367765693e-04
1.053337681028e-04
1.027941886096e-04
1.003164956790e-04
9.789918348336e-05
9.554078197115e-05
9.323985607495e-05
9.099500493346e-05
8.880486112800e-05
8.666808993315e-05
8.458338858155e-05
8.254948554261e-05
8.056513981506e-05
7.862914023323e-05
7.674030478687e-05
7.489747995436e-05
7.309954004925e-05
7.134538657983e-05
6.963394762163e-05
6.796417720278e-05
6.633505470187e-05
6.474558425831e-05
6.319479419491e-05
6.168173645254e-05
6.020548603676e-05
5.876514047603e-05
5.735981929163e-05
5.598866347879e-05
5.465083499909e-05
5.334551628381e-05
5.207190974811e-05
5.082923731582e-05
4.961673995466e-05
4.843367722178e-05
4.727932681929e-05
4.615298415976e-05
4.505396194143e-05
4.398158973288e-05
4.293521356718e-05
4.191419554513e-05
4.091791344753e-05
3.994576035633e-05
3.899714428439e-05
3.807148781375e-05
3.716822774223e-05
3.628681473818e-05
42 95.940 3.8581 fcc
0.000000000000e+00
-4.678372898875e-02
-9.316435206650e-02
-1.391446329017e-01
-1.847263351626e-01
-2.299112225177e-01
-2.747010586353e-01
-3.190976071838e-01
-3.631026318317e-01
-4.067178962472e-01
-4.499451640988e-01
-4.927861990548e-01
-5.352427647837e-01
-5.773166249538e-01
-6.190095432335e-01
-6.603232832911e-01
-7.012596087951e-01
-7.418202834139e-01
-7.820070708158e-01
-8.218217346692e-01
-8.612660386424e-01
-9.003417464040e-01
-9.390506216222e-01
-9.773944279654e-01
-1.015374929102e+00
-1.052993888700e+00
-1.090253070429e+00
-1.127154237956e+00
-1.163699154950e+00
-1.199889585080e+00
-1.235727292013e+00
-1.271214039418e+00
-1.306351590964e+00
-1.341141710319e+00
-1.375586161150e+00
-1.409686707128e+00
-1.443445111919e+00
-1.476863139193e+00
-1.509942552618e+00
-1.542685115861e+00
-1.575092592592e+00
-1.607166746480e+00
-1.638909341191e+00
-1.670322140395e+00
-1.701406907760e+00
-1.732165406955e+00
-1.762599401647e+00
-1.792710655506e+00
-1.822500932199e+00
-1.851971995395e+00
-1.881125608763e+00
-1.909963535970e+00
-1.938487540686e+00
-1.966699386577e+00
-1.994600837314e+00
-2.022193656564e+00
-2.049479607996e+00
-2.076460455277e+00
-2.103137962078e+00
-2.129513892064e+00
-2.155590008906e+00
-2.181368076272e+00
-2.206849857829e+00
-2.232037117247e+00
-2.256931618194e+00
-2.281535124337e+00
-2.305849399346e+00
-2.329876206889e+00
-2.353617310634e+00
-2.377074474250e+00
-2.400249461405e+00
-2.423144035767e+00
-2.445759961005e+00
-2.468099000787e+00
-2.490162918781e+00
-2.511953478657e+00
-2.533472444081e+00
-2.554721578724e+00
-2.575702646252e+00
-2.596417410335e+00
-2.616867634640e+00
-2.637055082837e+00
-2.656981518594e+00
-2.676648705578e+00
-2.696058407459e+00
-2.715212387904e+00
-2.734112410582e+00
-2.752760239162e+00
-2.771157637312e+00
-2.789306368700e+00
-2.807208196995e+00
-2.824864885865e+00
-2.842278198978e+00
-2.859449900003e+00
-2.876381752608e+00
-2.893075520461e+00
-2.909532967232e+00
-2.925755856588e+00
-2.941745952197e+00
-2.957505017729e+00
-2.973034816851e+00
-2.988337113231e+00
-3.003413670540e+00
-3.018266252443e+00
-3.032896622611e+00
-3.047306544711e+00
-3.061497782412e+00
-3.075472099381e+00
-3.089231259289e+00
-3.102777025802e+00
-3.116111162589e+00
-3.129235433320e+00
-3.142151601661e+00
-3.154861431281e+00
-3.167366685850e+00
-3.179669129034e+00
-3.191770524504e+00
-3.203672635926e+00
-3.215377226969e+00
-3.226886061302e+00
-3.238200902593e+00
-3.249323514511e+00
-3.260255660724e+00
-3.270999104900e+00
-3.281555610707e+00
-3.291926941814e+00
-3.302114861890e+00
-3.312121134603e+00
-3.321947523620e+00
-3.331595792612e+00
-3.341067705245e+00
-3.350365025188e+00
-3.359489516110e+00
-3.368442941679e+00
-3.377227065564e+00
-3.385843651432e+00
-3.394294462953e+00
-3.402581263794e+00
-3.410705817624e+00
-3.418669888112e+00
-3.426475238925e+00
-3.434123633732e+00
-3.441616836202e+00
-3.448956610003e+00
-3.456144718803e+00
-3.463182926271e+00
-3.470072996074e+00
-3.476816691882e+00
-3.483415777363e+00
-3.489872016185e+00
-3.496187172017e+00
-3.502363008526e+00
-3.508401289382e+00
-3.514303778253e+00
-3.520072238806e+00
-3.525708434711e+00
-3.531214129636e+00
-3.536591087249e+00
-3.541841071219e+00
-3.546965845214e+00
-3.551967172902e+00
-3.556846817952e+00
-3.561606544032e+00
-3.566248114810e+00
-3.570773293955e+00
-3.575183845136e+00
-3.579481532020e+00
-3.583668118277e+00
-3.587745367574e+00
-3.591715043579e+00
-3.595578909962e+00
-3.599338730390e+00
-3.602996268533e+00
-3.606553288057e+00
-3.610011552633e+00
-3.613372825927e+00
-3.616638871609e+00
-3.619811453347e+00
-3.622892334809e+00
-3.625883279664e+00
-3.628786051580e+00
-3.631602414225e+00
-3.634334131268e+00
-3.636982966377e+00
-3.639550683220e+00
-3.642039045467e+00
-3.644449816785e+00
-3.646784760842e+00
-3.649045641308e+00
-3.651234221850e+00
-3.653352266137e+00
-3.655401537837e+00
-3.657383800618e+00
-3.659300818150e+00
-3.661154354100e+00
-3.662946172137e+00
-3.664678035929e+00
-3.666351709144e+00
-3.667968955451e+00
-3.669531538519e+00
-3.671041222015e+00
-3.672499769608e+00
-3.673908944967e+00
-3.675270511759e+00
-3.676586233654e+00
-3.677857874319e+00
-3.679087197423e+00
-3.680275966635e+00
-3.681425945622e+00
-3.682538898053e+00
-3.683616587597e+00
-3.684660777921e+00
-3.685673232695e+00
-3.686655715587e+00
-3.687609990264e+00
-3.688537820396e+00
-3.689440969651e+00
-3.690321201696e+00
-3.691180280202e+00
-3.692019968835e+00
-3.692842031264e+00
-3.693647558460e+00
-3.694437547756e+00
-3.695211315283e+00
-3.695968592747e+00
-3.696709111856e+00
-3.697432604317e+00
-3.698138801836e+00
-3.698827436121e+00
-3.699498238879e+00
-3.700150941818e+00
-3.700785276644e+00
-3.701400975064e+00
-3.701997768785e+00
-3.702575389515e+00
-3.703133568961e+00
-3.703672038829e+00
-3.704190530828e+00
-3.704688776663e+00
-3.705166508042e+00
-3.705623456673e+00
-3.706059354262e+00
-3.706473932517e+00
-3.706866923144e+00
-3.707238057850e+00
-3.707587068344e+00
-3.707913686331e+00
-3.708217643519e+00
-3.708498671616e+00
-3.708756502327e+00
-3.708990867361e+00
-3.709201498424e+00
-3.709388127224e+00
-3.709550485468e+00
-3.709688304862e+00
-3.709801317114e+00
-3.709889253931e+00
-3.709951847020e+00
-3.709988828088e+00
-3.709999928843e+00
-3.709984880990e+00
-3.709943416239e+00
-3.709875266295e+00
-3.709780162866e+00
-3.709657837658e+00
-3.709508022380e+00
-3.709330448737e+00
-3.709124848438e+00
-3.708890953189e+00
-3.708628494697e+00
-3.708337204670e+00
-3.708016814814e+00
-3.707667056837e+00
-3.707287662446e+00
-3.706878363348e+00
-3.706438891250e+00
-3.705968977859e+00
-3.705468354882e+00
-3.704936754027e+00
-3.704373907000e+00
-3.703779545508e+00
-3.703153401259e+00
-3.702495205960e+00
-3.701804691318e+00
-3.701081589040e+00
-3.700325630833e+00
-3.699536548405e+00
-3.698714073461e+00
-3.697857937710e+00
-3.696967872859e+00
-3.696043610614e+00
-3.695084882683e+00
-3.694091420773e+00
-3.693062956591e+00
-3.691999221844e+00
-3.690899948239e+00
-3.689764867483e+00
-3.688593711284e+00
-3.687386858207e+00
-3.686148844625e+00
-3.684882604718e+00
-3.683588272449e+00
-3.682265980717e+00
-3.680915861368e+00
-3.679538045209e+00
-3.678132662015e+00
-3.676699840548e+00
-3.675239708561e+00
-3.673752392813e+00
-3.672238019078e+00
-3.670696712156e+00
-3.669128595887e+00
-3.667533793155e+00
-3.665912425903e+00
-3.664264615145e+00
-3.662590480968e+00
-3.660890142552e+00
-3.659163718170e+00
-3.657411325207e+00
-3.655633080161e+00
-3.653829098658e+00
-3.651999495460e+00
-3.650144384472e+00
-3.648263878752e+00
-3.646358090523e+00
-3.644427131177e+00
-3.642471111286e+00
-3.640490140611e+00
-3.638484328107e+00
-3.636453781937e+00
-3.634398609476e+00
-3.632318917320e+00
-3.630214811293e+00
-3.628086396456e+00
-3.625933777117e+00
-3.623757056834e+00
-3.621556338425e+00
-3.619331723976e+00
-3.617083314846e+00
-3.614811211678e+00
-3.612515514403e+00
-3.610196322248e+00
-3.607853733744e+00
-3.605487846729e+00
-3.603098758361e+00
-3.600686565120e+00
-3.598251362817e+00
-3.595793246598e+00
-3.593312310954e+00
-3.590808649724e+00
-3.588282356102e+00
-3.585733522648e+00
-3.583162241285e+00
-3.580568603313e+00
-3.577952699413e+00
-3.575314619650e+00
-3.572654453481e+00
-3.569972289764e+00
-3.567268216756e+00
-3.564542322126e+00
-3.561794692957e+00
-3.559025415751e+00
-3.556234576437e+00
-3.553422260375e+00
-3.550588552360e+00
-3.547733536630e+00
-3.544857296868e+00
-3.541959916210e+00
-3.539041477248e+00
-3.536102062037e+00
-3.533141752097e+00
-3.530160628422e+00
-3.527158771480e+00
-3.524136261221e+00
-3.521093177083e+00
-3.518029597990e+00
-3.514945602367e+00
-3.511841268133e+00
-3.508716672716e+00
-3.505571893048e+00
-3.502407005578e+00
-3.499222086271e+00
-3.496017210612e+00
-3.492792453614e+00
-3.489547889820e+00
-3.486283593306e+00
-3.482999637687e+00
-3.479696096119e+00
-3.476373041307e+00
-3.473030545504e+00
-3.469668680519e+00
-3.466287517716e+00
-3.462887128025e+00
-3.459467581940e+00
-3.456028949522e+00
-3.452571300408e+00
-3.449094703813e+00
-3.445599228528e+00
-3.442084942931e+00
-3.438551914988e+00
-3.435000212253e+00
-3.431429901879e+00
-3.427841050612e+00
-3.424233724803e+00
-3.420607990406e+00
-3.416963912982e+00
-3.413301557706e+00
-3.409620989366e+00
-3.405922272367e+00
-3.402205470735e+00
-3.398470648120e+00
-3.394717867801e+00
-3.390947192685e+00
-3.387158685313e+00
-3.383352407862e+00
-3.379528422148e+00
-3.375686789630e+00
-3.371827571411e+00
-3.367950828243e+00
-3.364056620527e+00
-3.360145008320e+00
-3.356216051333e+00
-3.352269808939e+00
-3.348306340169e+00
-3.344325703723e+00
-3.340327957965e+00
-3.336313160930e+00
-3.332281370326e+00
-3.328232643535e+00
-3.324167037619e+00
-3.320084609317e+00
-3.315985415054e+00
-3.311869510937e+00
-3.307736952765e+00
-3.303587796023e+00
-3.299422095891e+00
-3.295239907244e+00
-3.291041284652e+00
-3.286826282389e+00
-3.282594954426e+00
-3.278347354442e+00
-3.274083535822e+00
-3.269803551660e+00
-3.265507454758e+00
-3.261195297636e+00
-3.256867132526e+00
-3.252523011380e+00
-3.248162985869e+00
-3.243787107385e+00
-3.239395427044e+00
-3.234987995691e+00
-3.230564863896e+00
-3.226126081960e+00
-3.221671699917e+00
-3.217201767535e+00
-3.212716334318e+00
-3.208215449508e+00
-3.203699162088e+00
-3.199167520782e+00
-3.194620574059e+00
-3.190058370134e+00
-3.185480956968e+00
-3.180888382273e+00
-3.176280693513e+00
-3.171657937904e+00
-3.167020162417e+00
-3.162367413782e+00
-3.157699738484e+00
-3.153017182772e+00
-3.148319792655e+00
-3.143607613906e+00
-3.138880692065e+00
-3.134139072437e+00
-3.129382800097e+00
-3.124611919891e+00
-3.119826476437e+00
-3.115026514126e+00
-3.110212077126e+00
-3.105383209380e+00
-3.100539954611e+00
-3.095682356322e+00
-3.090810457797e+00
-3.085924302104e+00
-3.081023932096e+00
-3.076109390412e+00
-3.071180719478e+00
-3.066237961510e+00
-3.061281158516e+00
-3.056310352294e+00
-3.051325584437e+00
-3.046326896332e+00
-3.041314329164e+00
-3.036287923915e+00
-3.031247721366e+00
-3.026193762100e+00
-3.021126086500e+00
-3.016044734755e+00
-3.010949746856e+00
-3.005841162602e+00
-3.000719021600e+00
-2.995583363263e+00
-2.990434226816e+00
-2.985271651295e+00
-2.980095675549e+00
-2.974906338240e+00
-2.969703677845e+00
-2.964487732658e+00
-2.959258540791e+00
-2.954016140173e+00
-2.948760568555e+00
-2.943491863508e+00
-2.938210062426e+00
-2.932915202527e+00
-2.927607320851e+00
-2.922286454268e+00
-2.916952639472e+00
-2.911605912986e+00
-2.906246311163e+00
-2.900873870187e+00
-2.895488626070e+00
-2.890090614661e+00
-2.884679871641e+00
-2.879256432525e+00
-2.873820332665e+00
-2.868371607249e+00
-2.862910291304e+00
-2.857436419697e+00
-2.851950027131e+00
-2.846451148156e+00
-2.840939817159e+00
-2.835416068374e+00
-2.829879935876e+00
-2.824331453587e+00
-2.818770655275e+00
-2.813197574555e+00
-2.807612244890e+00
-2.802014699592e+00
-2.796404971824e+00
-2.790783094598e+00
-2.785149100779e+00
-2.779503023087e+00
-2.773844894091e+00
-2.768174746220e+00
-2.762492611754e+00
-2.756798522832e+00
-2.751092511451e+00
-2.745374609464e+00
-2.739644848585e+00
-2.733903260388e+00
-2.728149876306e+00
-2.722384727637e+00
-2.716607845538e+00
-2.710819261033e+00
-2.705019005007e+00
-2.699207108213e+00
-2.693383601268e+00
-2.687548514657e+00
-2.681701878732e+00
-2.675843723713e+00
-2.669974079691e+00
-2.664092976626e+00
-2.658200444347e+00
-2.652296512557e+00
-2.646381210831e+00
-2.640454568616e+00
-2.634516615234e+00
-2.628567379882e+00
-2.622606891631e+00
-2.616635179428e+00
-2.610652272099e+00
-2.604658198345e+00
-2.598652986749e+00
-2.592636665769e+00
-2.586609263744e+00
-2.580570808896e+00
-2.574521329326e+00
-2.568460853016e+00
-2.562389407833e+00
-2.556307021526e+00
-2.550213721728e+00
-2.544109535957e+00
-2.537994491616e+00
-2.531868615994e+00
-2.525731936268e+00
-2.519584479501e+00
-2.513426272643e+00
-2.507257342536e+00
-2.501077715908e+00
-2.494887419378e+00
-2.488686479457e+00
-2.482474922544e+00
-2.476252774934e+00
-2.470020062812e+00
-2.463776812255e+00
-2.457523049236e+00
-2.451258799621e+00
-2.444984089172e+00
-2.438698943545e+00
-2.432403388293e+00
-2.426097448866e+00
-2.419781150610e+00
-2.413454518771e+00
-2.407117578491e+00
-2.400770354813e+00
-2.394412872677e+00
-2.388045156927e+00
-2.381667232304e+00
-2.375279123453e+00
-2.368880854919e+00
-2.362472451150e+00
-2.356053936496e+00
-2.349625335213e+00
-2.343186671459e+00
-2.336737969296e+00
-2.330279252692e+00
-2.323810545521e+00
-2.317331871562e+00
-2.310843254502e+00
-2.304344717934e+00
-2.297836285359e+00
-2.291317980185e+00
-2.284789825732e+00
-2.278251845224e+00
-2.271704061800e+00
-2.265146498506e+00
-2.258579178299e+00
-2.252002124047e+00
-2.245415358532e+00
-2.238818904444e+00
-2.232212784388e+00
-2.225597020883e+00
-2.218971636358e+00
-2.212336653161e+00
-2.205692093550e+00
-2.199037979699e+00
-2.192374333699e+00
-2.185701177555e+00
-2.179018533190e+00
-2.172326422440e+00
-2.165624867064e+00
-2.158913888732e+00
-2.152193509038e+00
-2.145463749491e+00
-2.138724631519e+00
-2.131976176471e+00
-2.125218405613e+00
-2.118451340135e+00
-2.111675001144e+00
-2.104889409671e+00
-2.098094586665e+00
-2.091290553000e+00
-2.084477329470e+00
-2.077654936794e+00
-2.070823395611e+00
-2.063982726487e+00
-2.057132949908e+00
-2.050274086288e+00
-2.043406155963e+00
-2.036529179194e+00
-2.029643176170e+00
-2.022748167003e+00
-2.015844171732e+00
-2.008931210324e+00
-2.002009302671e+00
-1.995078468593e+00
-1.988138727838e+00
-1.981190100082e+00
-1.974232604929e+00
-1.967266261912e+00
-1.960291090494e+00
-1.953307110065e+00
-1.946314339949e+00
-1.939312799395e+00
-1.932302507588e+00
-1.925283483640e+00
-1.918255746596e+00
-1.911219315432e+00
-1.904174209056e+00
-1.897120446309e+00
-1.890058045964e+00
-1.882987026728e+00
-1.875907407239e+00
-1.868819206071e+00
-1.861722441731e+00
-1.854617132660e+00
-1.847503297235e+00
-1.840380953768e+00
-1.833250120503e+00
-1.826110815623e+00
-1.818963057247e+00
-1.811806863427e+00
-1.804642252156e+00
-1.797469241361e+00
-1.790287848906e+00
-1.783098092594e+00
-1.775899990166e+00
-1.768693559298e+00
-1.761478817608e+00
-1.754255782652e+00
-1.747024471923e+00
-1.739784902856e+00
-1.732537092823e+00
-1.725281059139e+00
-1.718016819055e+00
-1.710744389766e+00
-1.703463788408e+00
-1.696175032054e+00
-1.688878137723e+00
-1.681573122373e+00
-1.674260002904e+00
-1.666938796160e+00
-1.659609518925e+00
-1.652272187927e+00
-1.644926819838e+00
-1.637573431271e+00
-1.630212038784e+00
-1.622842658879e+00
-1.615465308002e+00
-1.608080002541e+00
-1.600686758833e+00
-1.593285593156e+00
-1.585876521735e+00
-1.578459560740e+00
-1.571034726287e+00
-1.563602034438e+00
-1.556161501199e+00
-1.548713142526e+00
-1.541256974319e+00
-1.533793012425e+00
-1.526321272641e+00
-1.518841770708e+00
-1.511354522316e+00
-1.503859543103e+00
-1.496356848655e+00
-1.488846454507e+00
-1.481328376141e+00
-1.473802628991e+00
-1.466269228435e+00
-1.458728189806e+00
-1.451179528383e+00
-1.443623259396e+00
-1.436059398025e+00
-1.428487959399e+00
-1.420908958599e+00
-1.413322410657e+00
-1.405728330554e+00
-1.398126733225e+00
-1.390517633553e+00
-1.382901046376e+00
-1.375276986482e+00
-1.367645468610e+00
-1.360006507454e+00
-1.352360117659e+00
-1.344706313821e+00
-1.337045110493e+00
-1.329376522177e+00
-1.321700563332e+00
-1.314017248367e+00
-1.306326591647e+00
-1.298628607491e+00
-1.290923310172e+00
-1.283210713915e+00
-1.275490832904e+00
-1.267763681274e+00
-1.260029273116e+00
-1.252287622478e+00
-1.244538743361e+00
-1.236782649722e+00
-1.229019355476e+00
-1.221248874492e+00
-1.213471220594e+00
-1.205686407566e+00
-1.197894449145e+00
-1.190095359026e+00
-1.182289150863e+00
-1.174475838263e+00
-1.166655434794e+00
-1.158827953981e+00
-1.150993409304e+00
-1.143151814203e+00
-1.135303182077e+00
-1.127447526282e+00
-1.119584860131e+00
-1.111715196899e+00
-1.103838549816e+00
-1.095954932075e+00
-1.088064356825e+00
-1.080166837175e+00
-1.072262386194e+00
-1.064351016911e+00
-1.056432742315e+00
-1.048507575354e+00
-1.040575528936e+00
-1.032636615931e+00
-1.024690849169e+00
-1.016738241439e+00
-1.008778805493e+00
-1.000812554043e+00
-9.928394997622e-01
-9.848596552863e-01
-9.768730332114e-01
-9.688796460955e-01
-9.608795064587e-01
-9.528726267830e-01
-9.448590195127e-01
-9.368386970544e-01
-9.288116717773e-01
-9.207779560132e-01
-9.127375620566e-01
-9.046905021653e-01
-8.966367885601e-01
-8.885764334250e-01
-8.805094489077e-01
-8.724358471191e-01
-8.643556401344e-01
-8.562688399924e-01
-8.481754586959e-01
-8.400755082122e-01
-8.319690004726e-01
-8.238559473733e-01
-8.157363607749e-01
-8.076102525030e-01
-7.994776343479e-01
-7.913385180652e-01
-7.831929153757e-01
-7.750408379657e-01
-7.668822974868e-01
-7.587173055565e-01
-7.505458737579e-01
-7.423680136403e-01
-7.341837367190e-01
-7.259930544754e-01
-7.177959783574e-01
-7.095925197796e-01
-7.013826901229e-01
-6.931665007351e-01
-6.849439629312e-01
-6.767150879929e-01
-6.684798871692e-01
-6.602383716765e-01
-6.519905526987e-01
-6.437364413871e-01
-6.354760488610e-01
-6.272093862072e-01
-6.189364644807e-01
-6.106572947047e-01
-6.023718878706e-01
-5.940802549379e-01
-5.857824068349e-01
-5.774783544585e-01
-5.691681086742e-01
-5.608516803165e-01
-5.525290801889e-01
-5.442003190640e-01
-5.358654076835e-01
-5.275243567588e-01
-5.191771769705e-01
-5.108238789689e-01
-5.024644733742e-01
-4.940989707762e-01
-4.857273817349e-01
-4.773497167802e-01
-4.689659864124e-01
-4.605762011021e-01
-4.521803712901e-01
-4.437785073881e-01
-4.353706197784e-01
-4.269567188139e-01
-4.185368148188e-01
-4.101109180878e-01
-4.016790388873e-01
-3.932411874546e-01
-3.847973739985e-01
-3.763476086991e-01
-3.678919017084e-01
-3.594302631499e-01
-3.509627031189e-01
-3.424892316828e-01
-3.340098588808e-01
-3.255245947244e-01
-3.170334491973e-01
-3.085364322556e-01
-3.000335538277e-01
-2.915248238149e-01
-2.830102520908e-01
-2.744898485020e-01
-2.659636228681e-01
-2.574315849813e-01
-2.488937446073e-01
-2.403501114849e-01
-2.318006953259e-01
-2.232455058160e-01
-2.146845526140e-01
-2.061178453525e-01
-1.975453936378e-01
-1.889672070500e-01
-1.803832951430e-01
-1.717936674450e-01
-1.631983334579e-01
-1.545973026581e-01
-1.459905844963e-01
-1.373781883974e-01
-1.287601237610e-01
-1.201363999612e-01
-1.115070263469e-01
-1.028720122417e-01
-9.423136694393e-02
-8.558509972720e-02
-7.693321984002e-02
-6.827573650610e-02
-5.961265892439e-02
-5.094399626922e-02
-4.226975769034e-02
-3.358995231307e-02
-2.490458923833e-02
-1.621367754275e-02
-7.517226278817e-03
1.184755525133e-03
9.892258864741e-03
1.860527475959e-02
2.732379425307e-02
3.604780841234e-02
4.477730832820e-02
5.351228511502e-02
6.225272991065e-02
7.099863387633e-02
7.974998819662e-02
8.850678407928e-02
9.726901275521e-02
1.060366654784e-01
1.148097335257e-01
1.235882081970e-01
1.323720808149e-01
1.411613427246e-01
1.499559852942e-01
1.587559999140e-01
1.675613779971e-01
1.763721109788e-01
1.851881903168e-01
1.940096074908e-01
2.028363540030e-01
2.116684213773e-01
2.205058011598e-01
2.293484849184e-01
2.381964642429e-01
2.470497307447e-01
2.559082760571e-01
2.647720918348e-01
2.736411697539e-01
2.825155015122e-01
2.913950788288e-01
3.002798934438e-01
3.091699371189e-01
3.180652016365e-01
3.269656788004e-01
3.358713604353e-01
3.447822383865e-01
3.536983045206e-01
3.626195507245e-01
3.715459689060e-01
3.804775509936e-01
3.894142889361e-01
3.983561747028e-01
4.073032002834e-01
4.162553576880e-01
4.252126389469e-01
4.341750361105e-01
4.431425412492e-01
4.521151464537e-01
4.610928438343e-01
4.700756255216e-01
4.790634836656e-01
4.880564104363e-01
4.970543980232e-01
5.060574386357e-01
5.150655245022e-01
5.240786478712e-01
5.330968010101e-01
5.421199762058e-01
5.511481657646e-01
5.601813620117e-01
5.692195572917e-01
5.782627439682e-01
5.873109144236e-01
5.963640610594e-01
6.054221762960e-01
6.144852525724e-01
6.235532823466e-01
6.326262580951e-01
6.417041723129e-01
6.507870175138e-01
6.598747862299e-01
6.689674710116e-01
6.780650644280e-01
6.871675590661e-01
6.962749475314e-01
7.053872224473e-01
7.145043764556e-01
7.236264022159e-01
7.327532924059e-01
7.418850397210e-01
7.510216368747e-01
7.601630765982e-01
7.693093516404e-01
7.784604547678e-01
7.876163787646e-01
7.967771164327e-01
8.059426605910e-01
8.151130040764e-01
8.242881397429e-01
8.334680604616e-01
8.426527591212e-01
8.518422286275e-01
8.610364619033e-01
8.702354518886e-01
8.794391915403e-01
8.886476738325e-01
8.978608917559e-01
9.070788383183e-01
9.163015065441e-01
9.255288894745e-01
9.347609801675e-01
9.439977716975e-01
9.532392571556e-01
9.624854296494e-01
9.717362823029e-01
9.809918082567e-01
9.902520006674e-01
9.995168527081e-01
1.008786357568e+00
1.018060508453e+00
1.027339298585e+00
1.036622721200e+00
1.045910769554e+00
1.055203436915e+00
1.064500716570e+00
1.073802601819e+00
1.083109085980e+00
1.092420162386e+00
1.101735824386e+00
1.111056065344e+00
1.120380878640e+00
1.129710257670e+00
1.139044195845e+00
1.148382686591e+00
1.157725723351e+00
1.167073299581e+00
1.176425408754e+00
1.185782044357e+00
1.195143199895e+00
1.204508868885e+00
1.213879044860e+00
1.223253721369e+00
1.232632891975e+00
1.242016550256e+00
1.251404689805e+00
1.260797304231e+00
1.270194387156e+00
1.279595932218e+00
1.289001933069e+00
1.298412383377e+00
1.307827276822e+00
1.317246607101e+00
1.326670367924e+00
1.336098553017e+00
1.345531156120e+00
1.354968170986e+00
1.364409591384e+00
1.373855411096e+00
1.383305623919e+00
1.392760223664e+00
1.402219204157e+00
1.411682559236e+00
1.421150282756e+00
1.430622368583e+00
1.440098810599e+00
1.449579602699e+00
1.459064738793e+00
1.468554212802e+00
1.478048018666e+00
1.487546150333e+00
1.497048601768e+00
1.506555366949e+00
1.516066439869e+00
1.525581814531e+00
1.535101484954e+00
1.544625445172e+00
