  DATE: 2022-06-30 CONTRIBUTOR: Shuozhi Xu (shuozhixu@ucsb.edu)
  CITATION: Shuozhi Xu, Wu-Rong Jian, Irene J. Beyerlein, APL Mater. (2022)
  Generated from https://www.ctcms.nist.gov/potentials/Download/2004--Zhou-X-W-Johnson-R-A-Wadley-H-N-G--Mg/3/Zhou04_create_v2.f
6 Hf Nb Ta Ti Zr A
2000 0.1133684583414624E+00 2000 0.3579473904204014E-02 0.7155368334503824E+01
72 178.49 4.4548 fcc
0.000000000000e+00
-6.144540804786e-02
-1.223409277321e-01
-1.826890515333e-01
-2.424922719321e-01
-3.017530814089e-01
-3.604739724443e-01
-4.186574375190e-01
-4.763059691133e-01
-5.334220597080e-01
-5.900082017836e-01
-6.460668878206e-01
-7.016006102995e-01
-7.566118617011e-01
-8.111031345057e-01
-8.650769211940e-01
-9.185357142465e-01
-9.714820061437e-01
-1.023918289366e+00
-1.075847056395e+00
-1.127270799710e+00
-1.178192011792e+00
-1.228613185121e+00
-1.278536812179e+00
-1.327965385445e+00
-1.376901397401e+00
-1.425347340527e+00
-1.473305707302e+00
-1.520778990209e+00
-1.567769681727e+00
-1.614280274338e+00
-1.660313260521e+00
-1.705871132757e+00
-1.750956383526e+00
-1.795571505310e+00
-1.839718990589e+00
-1.883401331844e+00
-1.926621021554e+00
-1.969380552200e+00
-2.011682416264e+00
-2.053529106226e+00
-2.094923114565e+00
-2.135866933764e+00
-2.176363056302e+00
-2.216413974659e+00
-2.256022181317e+00
-2.295190168756e+00
-2.333920429457e+00
-2.372215455899e+00
-2.410077740565e+00
-2.447509775933e+00
-2.484514054485e+00
-2.521093068702e+00
-2.557249311064e+00
-2.592985274051e+00
-2.628303450144e+00
-2.663206331823e+00
-2.697696411570e+00
-2.731776181864e+00
-2.765448135187e+00
-2.798714764018e+00
-2.831578560839e+00
-2.864042018130e+00
-2.896107628371e+00
-2.927777884043e+00
-2.959055277627e+00
-2.989942301603e+00
-3.020441448452e+00
-3.050555210654e+00
-3.080286080690e+00
-3.109636551040e+00
-3.138609114186e+00
-3.167206262606e+00
-3.195430488783e+00
-3.223284285197e+00
-3.250770144327e+00
-3.277890558656e+00
-3.304648020663e+00
-3.331045022828e+00
-3.357084057633e+00
-3.382767617558e+00
-3.408098195084e+00
-3.433078282690e+00
-3.457710372859e+00
-3.481996958069e+00
-3.505940530803e+00
-3.529543583539e+00
-3.552808608760e+00
-3.575738098945e+00
-3.598334546575e+00
-3.620600444130e+00
-3.642538284092e+00
-3.664150558941e+00
-3.685439761156e+00
-3.706408383220e+00
-3.727058917612e+00
-3.747393856812e+00
-3.767415693303e+00
-3.787126919563e+00
-3.806530028074e+00
-3.825627511316e+00
-3.844421861770e+00
-3.862915571916e+00
-3.881111134235e+00
-3.899011041207e+00
-3.916617785313e+00
-3.933933859034e+00
-3.950961754850e+00
-3.967703965241e+00
-3.984162982689e+00
-4.000341299674e+00
-4.016241408675e+00
-4.031865802175e+00
-4.047216972653e+00
-4.062297412590e+00
-4.077109614467e+00
-4.091656070763e+00
-4.105939273961e+00
-4.119961716539e+00
-4.133725890979e+00
-4.147234289762e+00
-4.160489405368e+00
-4.173493730277e+00
-4.186249756970e+00
-4.198759977927e+00
-4.211026885630e+00
-4.223052972559e+00
-4.234840731193e+00
-4.246392654015e+00
-4.257711233504e+00
-4.268798962141e+00
-4.279658332406e+00
-4.290291836780e+00
-4.300701967744e+00
-4.310891217778e+00
-4.320862079363e+00
-4.330617044979e+00
-4.340158607107e+00
-4.349489258227e+00
-4.358611490821e+00
-4.367527797368e+00
-4.376240670348e+00
-4.384752602244e+00
-4.393066085535e+00
-4.401183612701e+00
-4.409107676224e+00
-4.416840768583e+00
-4.424385382261e+00
-4.431744009736e+00
-4.438919143489e+00
-4.445913276002e+00
-4.452728899754e+00
-4.459368507227e+00
-4.465834590900e+00
-4.472129643255e+00
-4.478256156772e+00
-4.484216623931e+00
-4.490013537213e+00
-4.495649389098e+00
-4.501126672068e+00
-4.506447878603e+00
-4.511615501182e+00
-4.516632032288e+00
-4.521499964400e+00
-4.526221789999e+00
-4.530800001565e+00
-4.535237091579e+00
-4.539535552522e+00
-4.543697876874e+00
-4.547726557116e+00
-4.551624085728e+00
-4.555392955191e+00
-4.559035657986e+00
-4.562554686592e+00
-4.565952533491e+00
-4.569231691163e+00
-4.572394652088e+00
-4.575443908748e+00
-4.578381953622e+00
-4.581211279192e+00
-4.583934377938e+00
-4.586553742340e+00
-4.589071864879e+00
-4.591491238036e+00
-4.593814354290e+00
-4.596043706124e+00
-4.598181786016e+00
-4.600231086449e+00
-4.602194099902e+00
-4.604073318855e+00
-4.605871235790e+00
-4.607590343187e+00
-4.609233133527e+00
-4.610802099290e+00
-4.612299732956e+00
-4.613728527007e+00
-4.615090973923e+00
-4.616389566184e+00
-4.617626796271e+00
-4.618805156664e+00
-4.619927139844e+00
-4.620995238292e+00
-4.622011944488e+00
-4.622979750913e+00
-4.623901150047e+00
-4.624778634371e+00
-4.625614696366e+00
-4.626411828511e+00
-4.627172523288e+00
-4.627899273177e+00
-4.628594570659e+00
-4.629260908213e+00
-4.629900778322e+00
-4.630516386942e+00
-4.631108539858e+00
-4.631677615806e+00
-4.632223993417e+00
-4.632748051324e+00
-4.633250168158e+00
-4.633730722553e+00
-4.634190093139e+00
-4.634628658550e+00
-4.635046797417e+00
-4.635444888372e+00
-4.635823310048e+00
-4.636182441076e+00
-4.636522660089e+00
-4.636844345718e+00
-4.637147876596e+00
-4.637433631355e+00
-4.637701988627e+00
-4.637953327044e+00
-4.638188025239e+00
-4.638406461842e+00
-4.638609015487e+00
-4.638796064806e+00
-4.638967988429e+00
-4.639125164991e+00
-4.639267973122e+00
-4.639396791456e+00
-4.639511998623e+00
-4.639613973256e+00
-4.639703093987e+00
-4.639779739449e+00
-4.639844288272e+00
-4.639897119091e+00
-4.639938610535e+00
-4.639969141239e+00
-4.639989089833e+00
-4.639998834950e+00
-4.639998755222e+00
-4.639989229280e+00
-4.639970635758e+00
-4.639943353287e+00
-4.639907760500e+00
-4.639864236027e+00
-4.639813158503e+00
-4.639754906557e+00
-4.639689858824e+00
-4.639618393934e+00
-4.639540890520e+00
-4.639457727214e+00
-4.639369282649e+00
-4.639275935455e+00
-4.639178064265e+00
-4.639076047712e+00
-4.638970264428e+00
-4.638861093043e+00
-4.638748912192e+00
-4.638634100505e+00
-4.638517036615e+00
-4.638398099154e+00
-4.638277666754e+00
-4.638156118047e+00
-4.638033831666e+00
-4.637911186241e+00
-4.637788560406e+00
-4.637666332793e+00
-4.637544882033e+00
-4.637424586759e+00
-4.637305825602e+00
-4.637188977196e+00
-4.637074420171e+00
-4.636962533161e+00
-4.636853694797e+00
-4.636748283711e+00
-4.636646678535e+00
-4.636549233527e+00
-4.636452408282e+00
-4.636353486337e+00
-4.636252487215e+00
-4.636149430212e+00
-4.636044334396e+00
-4.635937218615e+00
-4.635828101501e+00
-4.635717001466e+00
-4.635603936715e+00
-4.635488925240e+00
-4.635371984829e+00
-4.635253133068e+00
-4.635132387341e+00
-4.635009764836e+00
-4.634885282545e+00
-4.634758957271e+00
-4.634630805626e+00
-4.634500844037e+00
-4.634369088746e+00
-4.634235555816e+00
-4.634100261129e+00
-4.633963220394e+00
-4.633824449143e+00
-4.633683962739e+00
-4.633541776377e+00
-4.633397905083e+00
-4.633252363721e+00
-4.633105166992e+00
-4.632956329438e+00
-4.632805865442e+00
-4.632653789234e+00
-4.632500114888e+00
-4.632344856329e+00
-4.632188027332e+00
-4.632029641524e+00
-4.631869712388e+00
-4.631708253263e+00
-4.631545277348e+00
-4.631380797701e+00
-4.631214827241e+00
-4.631047378755e+00
-4.630878464894e+00
-4.630708098175e+00
-4.630536290988e+00
-4.630363055590e+00
-4.630188404115e+00
-4.630012348568e+00
-4.629834900833e+00
-4.629656072670e+00
-4.629475875717e+00
-4.629294321497e+00
-4.629111421411e+00
-4.628927186746e+00
-4.628741628674e+00
-4.628554758253e+00
-4.628366586431e+00
-4.628177124044e+00
-4.627986381820e+00
-4.627794370378e+00
-4.627601100232e+00
-4.627406581791e+00
-4.627210825360e+00
-4.627013841141e+00
-4.626815639236e+00
-4.626616229647e+00
-4.626415622277e+00
-4.626213826932e+00
-4.626010853322e+00
-4.625806711059e+00
-4.625601409667e+00
-4.625394958571e+00
-4.625187367110e+00
-4.624978644527e+00
-4.624768799981e+00
-4.624557842538e+00
-4.624345781181e+00
-4.624132624802e+00
-4.623918382212e+00
-4.623703062136e+00
-4.623486673216e+00
-4.623269224011e+00
-4.623050723001e+00
-4.622831178583e+00
-4.622610599077e+00
-4.622388992723e+00
-4.622166367685e+00
-4.621942732048e+00
-4.621718093825e+00
-4.621492460950e+00
-4.621265841287e+00
-4.621038242623e+00
-4.620809672677e+00
-4.620580139093e+00
-4.620349649447e+00
-4.620118211243e+00
-4.619885831917e+00
-4.619652518838e+00
-4.619418279306e+00
-4.619183120555e+00
-4.618947049752e+00
-4.618710074001e+00
-4.618472200340e+00
-4.618233435743e+00
-4.617993787123e+00
-4.617753261328e+00
-4.617511865146e+00
-4.617269605305e+00
-4.617026488471e+00
-4.616782521250e+00
-4.616537710192e+00
-4.616292061786e+00
-4.616045582465e+00
-4.615798278603e+00
-4.615550156520e+00
-4.615301222479e+00
-4.615051482689e+00
-4.614800943302e+00
-4.614549610419e+00
-4.614297490085e+00
-4.614044588294e+00
-4.613790910988e+00
-4.613536464056e+00
-4.613281253337e+00
-4.613025284618e+00
-4.612768563638e+00
-4.612511096085e+00
-4.612252887598e+00
-4.611993943769e+00
-4.611734270140e+00
-4.611473872208e+00
-4.611212755421e+00
-4.610950925182e+00
-4.610688386847e+00
-4.610425145728e+00
-4.610161207089e+00
-4.609896576153e+00
-4.609631258097e+00
-4.609365258055e+00
-4.609098581118e+00
-4.608831232333e+00
-4.608563216707e+00
-4.608294539203e+00
-4.608025204744e+00
-4.607755218211e+00
-4.607484584446e+00
-4.607213308249e+00
-4.606941394382e+00
-4.606668847566e+00
-4.606395672485e+00
-4.606121873782e+00
-4.605847456063e+00
-4.605572423899e+00
-4.605296781818e+00
-4.605020534316e+00
-4.604743685850e+00
-4.604466240841e+00
-4.604188203675e+00
-4.603909578701e+00
-4.603630370233e+00
-4.603350582552e+00
-4.603070219902e+00
-4.602789286494e+00
-4.602507786507e+00
-4.602225724083e+00
-4.601943103332e+00
-4.601659928333e+00
-4.601376203131e+00
-4.601091931739e+00
-4.600807118138e+00
-4.600521766277e+00
-4.600235880074e+00
-4.599949463417e+00
-4.599662520162e+00
-4.599375054136e+00
-4.599087069135e+00
-4.598798568924e+00
-4.598509557241e+00
-4.598220037794e+00
-4.597930014260e+00
-4.597639490290e+00
-4.597348469506e+00
-4.597056955500e+00
-4.596764951839e+00
-4.596472462060e+00
-4.596179489674e+00
-4.595886038164e+00
-4.595592110988e+00
-4.595297711574e+00
-4.595002843328e+00
-4.594707509626e+00
-4.594411713821e+00
-4.594115459238e+00
-4.593818749180e+00
-4.593521586920e+00
-4.593223975711e+00
-4.592925918778e+00
-4.592627419323e+00
-4.592328480524e+00
-4.592029105534e+00
-4.591729297483e+00
-4.591429059478e+00
-4.591128394600e+00
-4.590827305911e+00
-4.590525796446e+00
-4.590223869220e+00
-4.589921527224e+00
-4.589618773428e+00
-4.589315610779e+00
-4.589012042203e+00
-4.588708070602e+00
-4.588403698860e+00
-4.588098929837e+00
-4.587793766372e+00
-4.587488211285e+00
-4.587182267373e+00
-4.586875937414e+00
-4.586569224165e+00
-4.586262130363e+00
-4.585954658724e+00
-4.585646811947e+00
-4.585338592707e+00
-4.585030003663e+00
-4.584721047454e+00
-4.584411726699e+00
-4.584102043998e+00
-4.583792001933e+00
-4.583481603067e+00
-4.583170849944e+00
-4.582859745090e+00
-4.582548291013e+00
-4.582236490204e+00
-4.581924345134e+00
-4.581611858258e+00
-4.581299032012e+00
-4.580985868816e+00
-4.580672371071e+00
-4.580358541164e+00
-4.580044381462e+00
-4.579729894317e+00
-4.579415082062e+00
-4.579099947017e+00
-4.578784491483e+00
-4.578468717745e+00
-4.578152628073e+00
-4.577836224719e+00
-4.577519509923e+00
-4.577202485905e+00
-4.576885154872e+00
-4.576567519015e+00
-4.576249580508e+00
-4.575931341514e+00
-4.575612804176e+00
-4.575293970626e+00
-4.574974842978e+00
-4.574655423334e+00
-4.574335713781e+00
-4.574015716389e+00
-4.573695433217e+00
-4.573374866308e+00
-4.573054017691e+00
-4.572732889382e+00
-4.572411483381e+00
-4.572089801678e+00
-4.571767846246e+00
-4.571445619045e+00
-4.571123122024e+00
-4.570800357115e+00
-4.570477326239e+00
-4.570154031305e+00
-4.569830474206e+00
-4.569506656826e+00
-4.569182581032e+00
-4.568858248681e+00
-4.568533661618e+00
-4.568208821672e+00
-4.567883730665e+00
-4.567558390402e+00
-4.567232802678e+00
-4.566906969275e+00
-4.566580891965e+00
-4.566254572505e+00
-4.565928012644e+00
-4.565601214116e+00
-4.565274178645e+00
-4.564946907943e+00
-4.564619403712e+00
-4.564291667640e+00
-4.563963701406e+00
-4.563635506677e+00
-4.563307085110e+00
-4.562978438349e+00
-4.562649568029e+00
-4.562320475773e+00
-4.561991163194e+00
-4.561661631894e+00
-4.561331883465e+00
-4.561001919489e+00
-4.560671741535e+00
-4.560341351165e+00
-4.560010749929e+00
-4.559679939367e+00
-4.559348921009e+00
-4.559017696376e+00
-4.558686266977e+00
-4.558354634313e+00
-4.558022799875e+00
-4.557690765144e+00
-4.557358531591e+00
-4.557026100679e+00
-4.556693473859e+00
-4.556360652574e+00
-4.556027638260e+00
-4.555694432339e+00
-4.555361036228e+00
-4.555027451332e+00
-4.554693679049e+00
-4.554359720768e+00
-4.554025577867e+00
-4.553691251717e+00
-4.553356743680e+00
-4.553022055110e+00
-4.552687187349e+00
-4.552352141736e+00
-4.552016919596e+00
-4.551681522249e+00
-4.551345951006e+00
-4.551010207169e+00
-4.550674292032e+00
-4.550338206881e+00
-4.550001952993e+00
-4.549665531638e+00
-4.549328944079e+00
-4.548992191568e+00
-4.548655275352e+00
-4.548318196669e+00
-4.547980956749e+00
-4.547643556814e+00
-4.547305998079e+00
-4.546968281753e+00
-4.546630409033e+00
-4.546292381114e+00
-4.545954199179e+00
-4.545615864406e+00
-4.545277377965e+00
-4.544938741019e+00
-4.544599954724e+00
-4.544261020228e+00
-4.543921938672e+00
-4.543582711191e+00
-4.543243338912e+00
-4.542903822956e+00
-4.542564164435e+00
-4.542224364456e+00
-4.541884424119e+00
-4.541544344518e+00
-4.541204126737e+00
-4.540863771857e+00
-4.540523280952e+00
-4.540182655086e+00
-4.539841895320e+00
-4.539501002707e+00
-4.539159978295e+00
-4.538818823124e+00
-4.538477538228e+00
-4.538136124635e+00
-4.537794583367e+00
-4.537452915439e+00
-4.537111121861e+00
-4.536769203635e+00
-4.536427161759e+00
-4.536084997224e+00
-4.535742711015e+00
-4.535400304111e+00
-4.535057777486e+00
-4.534715132106e+00
-4.534372368933e+00
-4.534029488924e+00
-4.533686493027e+00
-4.533343382188e+00
-4.533000157345e+00
-4.532656819430e+00
-4.532313369372e+00
-4.531969808092e+00
-4.531626136507e+00
-4.531282355528e+00
-4.530938466059e+00
-4.530594469001e+00
-4.530250365249e+00
-4.529906155692e+00
-4.529561841215e+00
-4.529217422695e+00
-4.528872901007e+00
-4.528528277020e+00
-4.528183551596e+00
-4.527838725593e+00
-4.527493799865e+00
-4.527148775260e+00
-4.526803652622e+00
-4.526458432787e+00
-4.526113116590e+00
-4.525767704858e+00
-4.525422198415e+00
-4.525076598080e+00
-4.524730904666e+00
-4.524385118983e+00
-4.524039241834e+00
-4.523693274020e+00
-4.523347216334e+00
-4.523001069568e+00
-4.522654834507e+00
-4.522308511932e+00
-4.521962102620e+00
-4.521615607341e+00
-4.521269026865e+00
-4.520922361954e+00
-4.520575613366e+00
-4.520228781857e+00
-4.519881868174e+00
-4.519534873065e+00
-4.519187797270e+00
-4.518840641526e+00
-4.518493406566e+00
-4.518146093117e+00
-4.517798701905e+00
-4.517451233649e+00
-4.517103689066e+00
-4.516756068866e+00
-4.516408373757e+00
-4.516060604444e+00
-4.515712761625e+00
-4.515364845996e+00
-4.515016858249e+00
-4.514668799072e+00
-4.514320669147e+00
-4.513972469154e+00
-4.513624199770e+00
-4.513275861667e+00
-4.512927455512e+00
-4.512578981971e+00
-4.512230441702e+00
-4.511881835364e+00
-4.511533163610e+00
-4.511184427088e+00
-4.510835626445e+00
-4.510486762322e+00
-4.510137835359e+00
-4.509788846188e+00
-4.509439795443e+00
-4.509090683750e+00
-4.508741511733e+00
-4.508392280013e+00
-4.508042989207e+00
-4.507693639928e+00
-4.507344232787e+00
-4.506994768391e+00
-4.506645247341e+00
-4.506295670239e+00
-4.505946037681e+00
-4.505596350259e+00
-4.505246608564e+00
-4.504896813182e+00
-4.504546964697e+00
-4.504197063687e+00
-4.503847110731e+00
-4.503497106401e+00
-4.503147051267e+00
-4.502796945897e+00
-4.502446790855e+00
-4.502096586701e+00
-4.501746333993e+00
-4.501396033286e+00
-4.501045685130e+00
-4.500695290075e+00
-4.500344848666e+00
-4.499994361445e+00
-4.499643828951e+00
-4.499293251720e+00
-4.498942630286e+00
-4.498591965180e+00
-4.498241256929e+00
-4.497890506056e+00
-4.497539713085e+00
-4.497188878533e+00
-4.496838002917e+00
-4.496487086749e+00
-4.496136130540e+00
-4.495785134797e+00
-4.495434100025e+00
-4.495083026726e+00
-4.494731915398e+00
-4.494380766538e+00
-4.494029580640e+00
-4.493678358194e+00
-4.493327099689e+00
-4.492975805610e+00
-4.492624476441e+00
-4.492273112660e+00
-4.491921714746e+00
-4.491570283174e+00
-4.491218818416e+00
-4.490867320942e+00
-4.490515791220e+00
-4.490164229713e+00
-4.489812636885e+00
-4.489461013194e+00
-4.489109359098e+00
-4.488757675051e+00
-4.488405961506e+00
-4.488054218912e+00
-4.487702447718e+00
-4.487350648366e+00
-4.486998821300e+00
-4.486646966961e+00
-4.486295085785e+00
-4.485943178207e+00
-4.485591244662e+00
-4.485239285578e+00
-4.484887301386e+00
-4.484535292510e+00
-4.484183259373e+00
-4.483831202399e+00
-4.483479122004e+00
-4.483127018608e+00
-4.482774892622e+00
-4.482422744462e+00
-4.482070574535e+00
-4.481718383251e+00
-4.481366171014e+00
-4.481013938229e+00
-4.480661685296e+00
-4.480309412616e+00
-4.479957120584e+00
-4.479604809596e+00
-4.479252480045e+00
-4.478900132322e+00
-4.478547766814e+00
-4.478195383909e+00
-4.477842983991e+00
-4.477490567442e+00
-4.477138134643e+00
-4.476785685971e+00
-4.476433221805e+00
-4.476080742516e+00
-4.475728248479e+00
-4.475375740063e+00
-4.475023217636e+00
-4.474670681565e+00
-4.474318132214e+00
-4.473965569946e+00
-4.473612995122e+00
-4.473260408099e+00
-4.472907809235e+00
-4.472555198884e+00
-4.472202577400e+00
-4.471849945133e+00
-4.471497302433e+00
-4.471144649647e+00
-4.470791987120e+00
-4.470439315197e+00
-4.470086634218e+00
-4.469733944525e+00
-4.469381246454e+00
-4.469028540344e+00
-4.468675826528e+00
-4.468323105339e+00
-4.467970377109e+00
-4.467617642166e+00
-4.467264900839e+00
-4.466912153454e+00
-4.466559400334e+00
-4.466206641802e+00
-4.465853878179e+00
-4.465501109783e+00
-4.465148336934e+00
-4.464795559945e+00
-4.464442779132e+00
-4.464089994806e+00
-4.463737207279e+00
-4.463384416859e+00
-4.463031623854e+00
-4.462678828571e+00
-4.462326031313e+00
-4.461973232382e+00
-4.461620432081e+00
-4.461267630709e+00
-4.460914828563e+00
-4.460562025941e+00
-4.460209223136e+00
-4.459856420442e+00
-4.459503618152e+00
-4.459150816554e+00
-4.458798015939e+00
-4.458445216593e+00
-4.458092418801e+00
-4.457739622849e+00
-4.457386829018e+00
-4.457034037590e+00
-4.456681248846e+00
-4.456328463062e+00
-4.455975680516e+00
-4.455622901484e+00
-4.455270126239e+00
-4.454917355054e+00
-4.454564588200e+00
-4.454211825947e+00
-4.453859068563e+00
-4.453506316315e+00
-4.453153569468e+00
-4.452800828288e+00
-4.452448093035e+00
-4.452095363973e+00
-4.451742641360e+00
-4.451389925456e+00
-4.451037216518e+00
-4.450684514801e+00
-4.450331820562e+00
-4.449979134052e+00
-4.449626455524e+00
-4.449273785228e+00
-4.448921123415e+00
-4.448568470332e+00
-4.448215826226e+00
-4.447863191343e+00
-4.447510565926e+00
-4.447157950220e+00
-4.446805344465e+00
-4.446452748902e+00
-4.446100163770e+00
-4.445747589308e+00
-4.445395025752e+00
-4.445042473338e+00
-4.444689932300e+00
-4.444337402871e+00
-4.443984885283e+00
-4.443632379767e+00
-4.443279886552e+00
-4.442927405867e+00
-4.442574937939e+00
-4.442222482993e+00
-4.441870041256e+00
-4.441517612949e+00
-4.441165198296e+00
-4.440812797518e+00
-4.440460410836e+00
-4.440108038468e+00
-4.439755680632e+00
-4.439403337545e+00
-4.439051009423e+00
-4.438698696480e+00
-4.438346398930e+00
-4.437994116985e+00
-4.437641850856e+00
-4.437289600754e+00
-4.436937366888e+00
-4.436585149465e+00
-4.436232948693e+00
-4.435880764777e+00
-4.435528597923e+00
-4.435176448333e+00
-4.434824316212e+00
-4.434472201759e+00
-4.434120105177e+00
-4.433768026664e+00
-4.433415966419e+00
-4.433063924640e+00
-4.432711901524e+00
-4.432359897264e+00
-4.432007912057e+00
-4.431655946096e+00
-4.431303999573e+00
-4.430952072679e+00
-4.430600165606e+00
-4.430248278542e+00
-4.429896411676e+00
-4.429544565196e+00
-4.429192739289e+00
-4.428840934140e+00
-4.428489149934e+00
-4.428137386854e+00
-4.427785645084e+00
-4.427433924805e+00
-4.427082226198e+00
-4.426730549443e+00
-4.426378894720e+00
-4.426027262206e+00
-4.425675652079e+00
-4.425324064515e+00
-4.424972499689e+00
-4.424620957776e+00
-4.424269438949e+00
-4.423917943382e+00
-4.423566471246e+00
-4.423215022712e+00
-4.422863597950e+00
-4.422512197130e+00
-4.422160820419e+00
-4.421809467985e+00
-4.421458139994e+00
-4.421106836614e+00
-4.420755558007e+00
-4.420404304339e+00
-4.420053075772e+00
-4.419701872470e+00
-4.419350694592e+00
-4.418999542301e+00
-4.418648415756e+00
-4.418297315115e+00
-4.417946240538e+00
-4.417595192181e+00
-4.417244170202e+00
-4.416893174756e+00
-4.416542205997e+00
-4.416191264081e+00
-4.415840349160e+00
-4.415489461387e+00
-4.415138600914e+00
-4.414787767893e+00
-4.414436962472e+00
-4.414086184802e+00
-4.413735435032e+00
-4.413384713309e+00
-4.413034019780e+00
-4.412683354593e+00
-4.412332717892e+00
-4.411982109822e+00
-4.411631530529e+00
-4.411280980154e+00
-4.410930458841e+00
-4.410579966732e+00
-4.410229503968e+00
-4.409879070689e+00
-4.409528667036e+00
-4.409178293147e+00
-4.408827949161e+00
-4.408477635214e+00
-4.408127351445e+00
-4.407777097989e+00
-4.407426874982e+00
-4.407076682558e+00
-4.406726520852e+00
-4.406376389998e+00
-4.406026290126e+00
-4.405676221371e+00
-4.405326183863e+00
-4.404976177732e+00
-4.404626203110e+00
-4.404276260124e+00
-4.403926348904e+00
-4.403576469578e+00
-4.403226622272e+00
-4.402876807115e+00
-4.402527024231e+00
-4.402177273746e+00
-4.401827555784e+00
-4.401477870471e+00
-4.401128217928e+00
-4.400778598280e+00
-4.400429011647e+00
-4.400079458152e+00
-4.399729937915e+00
-4.399380451057e+00
-4.399030997697e+00
-4.398681577954e+00
-4.398332191947e+00
-4.397982839793e+00
-4.397633521610e+00
-4.397284237513e+00
-4.396934987620e+00
-4.396585772044e+00
-4.396236590902e+00
-4.395887444307e+00
-4.395538332372e+00
-4.395189255211e+00
-4.394840212936e+00
-4.394491205658e+00
-4.394142233490e+00
-4.393793296540e+00
-4.393444394920e+00
-4.393095528740e+00
-4.392746698106e+00
-4.392397903129e+00
-4.392049143916e+00
-4.391700420574e+00
-4.391351733209e+00
-4.391003081929e+00
-4.390654466837e+00
-4.390305888039e+00
-4.389957345640e+00
-4.389608839743e+00
-4.389260370452e+00
-4.388911937870e+00
-4.388563542098e+00
-4.388215183239e+00
-4.387866861393e+00
-4.387518576661e+00
-4.387170329143e+00
-4.386822118939e+00
-4.386473946148e+00
-4.386125810869e+00
-4.385777713199e+00
-4.385429653235e+00
-4.385081631076e+00
-4.384733646817e+00
-4.384385700554e+00
-4.384037792382e+00
-4.383689922398e+00
-4.383342090694e+00
-4.382994297365e+00
-4.382646542505e+00
-4.382298826206e+00
-4.381951148562e+00
-4.381603509662e+00
-4.381255909601e+00
-4.380908348467e+00
-4.380560826352e+00
-4.380213343347e+00
-4.379865899539e+00
-4.379518495019e+00
-4.379171129875e+00
-4.378823804195e+00
-4.378476518067e+00
-4.378129271578e+00
-4.377782064815e+00
-4.377434897864e+00
-4.377087770811e+00
-4.376740683740e+00
-4.376393636738e+00
-4.376046629889e+00
-4.375699663276e+00
-4.375352736982e+00
-4.375005851092e+00
-4.374659005688e+00
-4.374312200852e+00
-4.373965436665e+00
-4.373618713210e+00
-4.373272030566e+00
-4.372925388815e+00
-4.372578788036e+00
-4.372232228309e+00
-4.371885709713e+00
-4.371539232327e+00
-4.371192796229e+00
-4.370846401497e+00
-4.370500048208e+00
-4.370153736440e+00
-4.369807466269e+00
-4.369461237772e+00
-4.369115051023e+00
-4.368768906100e+00
-4.368422803075e+00
-4.368076742025e+00
-4.367730723023e+00
-4.367384746142e+00
-4.367038811457e+00
-4.366692919041e+00
-4.366347068965e+00
-4.366001261302e+00
-4.365655496124e+00
-4.365309773502e+00
-4.364964093507e+00
-4.364618456210e+00
-4.364272861681e+00
-4.363927309990e+00
-4.363581801206e+00
-4.363236335398e+00
-4.362890912635e+00
-4.362545532985e+00
-4.362200196516e+00
-4.361854903296e+00
-4.361509653392e+00
-4.361164446871e+00
-4.360819283799e+00
-4.360474164242e+00
-4.360129088266e+00
-4.359784055936e+00
-4.359439067318e+00
-4.359094122475e+00
-4.358749221473e+00
-4.358404364374e+00
-4.358059551243e+00
-4.357714782143e+00
-4.357370057137e+00
-4.357025376286e+00
-4.356680739654e+00
-4.356336147302e+00
-4.355991599291e+00
-4.355647095683e+00
-4.355302636538e+00
-4.354958221917e+00
-4.354613851879e+00
-4.354269526485e+00
-4.353925245795e+00
-4.353581009866e+00
-4.353236818758e+00
-4.352892672529e+00
-4.352548571237e+00
-4.352204514941e+00
-4.351860503696e+00
-4.351516537561e+00
-4.351172616593e+00
-4.350828740847e+00
-4.350484910380e+00
-4.350141125247e+00
-4.349797385505e+00
-4.349453691208e+00
-4.349110042411e+00
-4.348766439168e+00
-4.348422881535e+00
-4.348079369564e+00
-4.347735903309e+00
-4.347392482825e+00
-4.347049108162e+00
-4.346705779375e+00
-4.346362496516e+00
-4.346019259637e+00
-4.345676068789e+00
-4.345332924024e+00
-4.344989825393e+00
-4.344646772948e+00
-4.344303766737e+00
-4.343960806813e+00
-4.343617893225e+00
-4.343275026022e+00
-4.342932205255e+00
-4.342589430971e+00
-4.342246703220e+00
-4.341904022051e+00
-4.341561387512e+00
-4.341218799650e+00
-4.340876258514e+00
-4.340533764150e+00
-4.340191316606e+00
-4.339848915929e+00
-4.339506562166e+00
-4.339164255362e+00
-4.338821995564e+00
-4.338479782817e+00
-4.338137617167e+00
-4.337795498659e+00
-4.337453427338e+00
-4.337111403249e+00
-4.336769426436e+00
-4.336427496943e+00
-4.336085614814e+00
-4.335743780092e+00
-4.335401992822e+00
-4.335060253045e+00
-4.334718560805e+00
-4.334376916145e+00
-4.334035319106e+00
-4.333693769732e+00
-4.333352268062e+00
-4.333010814140e+00
-4.332669408005e+00
-4.332328049700e+00
-4.331986739265e+00
-4.331645476741e+00
-4.331304262167e+00
-4.330963095584e+00
-4.330621977032e+00
-4.330280906550e+00
-4.329939884177e+00
-4.329598909953e+00
-4.329257983916e+00
-4.328917106104e+00
-4.328576276557e+00
-4.328235495312e+00
-4.327894762406e+00
-4.327554077879e+00
-4.327213441766e+00
-4.326872854105e+00
-4.326532314933e+00
-4.326191824286e+00
-4.325851382202e+00
-4.325510988715e+00
-4.325170643863e+00
-4.324830347681e+00
-4.324490100203e+00
-4.324149901467e+00
-4.323809751506e+00
-4.323469650356e+00
-4.323129598050e+00
-4.322789594625e+00
-4.322449640112e+00
-4.322109734548e+00
-4.321769877964e+00
-4.321430070395e+00
-4.321090311875e+00
-4.320750602435e+00
-4.320410942109e+00
-4.320071330930e+00
-4.319731768930e+00
-4.319392256141e+00
-4.319052792595e+00
-4.318713378323e+00
-4.318374013359e+00
-4.318034697732e+00
-4.317695431474e+00
-4.317356214616e+00
-4.317017047189e+00
-4.316677929223e+00
-4.316338860748e+00
-4.315999841795e+00
-4.315660872394e+00
-4.315321952573e+00
-4.314983082364e+00
-4.314644261794e+00
-4.314305490894e+00
-4.313966769691e+00
-4.313628098215e+00
-4.313289476495e+00
-4.312950904558e+00
-4.312612382433e+00
-4.312273910148e+00
-4.311935487730e+00
-4.311597115207e+00
-4.311258792606e+00
-4.310920519954e+00
-4.310582297279e+00
-4.310244124607e+00
-4.309906001965e+00
-4.309567929379e+00
-4.309229906876e+00
-4.308891934481e+00
-4.308554012220e+00
-4.308216140119e+00
-4.307878318203e+00
-4.307540546498e+00
-4.307202825029e+00
-4.306865153821e+00
-4.306527532898e+00
-4.306189962285e+00
-4.305852442006e+00
-4.305514972087e+00
-4.305177552550e+00
-4.304840183419e+00
-4.304502864719e+00
-4.304165596472e+00
-4.303828378703e+00
-4.303491211433e+00
-4.303154094687e+00
-4.302817028487e+00
-4.302480012856e+00
-4.302143047816e+00
-4.301806133389e+00
-4.301469269598e+00
-4.301132456465e+00
-4.300795694010e+00
-4.300458982257e+00
-4.300122321227e+00
-4.299785710940e+00
-4.299449151418e+00
-4.299112642681e+00
-4.298776184752e+00
-4.298439777650e+00
-4.298103421395e+00
-4.297767116009e+00
-4.297430861511e+00
-4.297094657922e+00
-4.296758505261e+00
-4.296422403547e+00
-4.296086352801e+00
-4.295750353041e+00
-4.295414404288e+00
-4.295078506560e+00
-4.294742659875e+00
-4.294406864253e+00
-4.294071119713e+00
-4.293735426272e+00
-4.293399783949e+00
-4.293064192763e+00
-4.292728652730e+00
-4.292393163870e+00
-4.292057726199e+00
-4.291722339736e+00
-4.291387004497e+00
-4.291051720500e+00
-4.290716487762e+00
-4.290381306300e+00
-4.290046176130e+00
-4.289711097271e+00
-4.289376069736e+00
-4.289041093545e+00
-4.288706168712e+00
-4.288371295253e+00
-4.288036473185e+00
-4.287701702523e+00
-4.287366983284e+00
-4.287032315482e+00
-4.286697699133e+00
-4.286363134252e+00
-4.286028620854e+00
-4.285694158955e+00
-4.285359748568e+00
-4.285025389710e+00
-4.284691082394e+00
-4.284356826634e+00
-4.284022622446e+00
-4.283688469843e+00
-4.283354368839e+00
-4.283020319448e+00
-4.282686321685e+00
-4.282352375561e+00
-4.282018481092e+00
-4.281684638290e+00
-4.281350847169e+00
-4.281017107741e+00
-4.280683420021e+00
-4.280349784019e+00
-4.280016199750e+00
-4.279682667226e+00
-4.279349186459e+00
-4.279015757462e+00
-4.278682380246e+00
-4.278349054825e+00
-4.278015781209e+00
-4.277682559411e+00
-4.277349389443e+00
-4.277016271316e+00
-4.276683205041e+00
-4.276350190630e+00
-4.276017228094e+00
-4.275684317444e+00
-4.275351458692e+00
-4.275018651847e+00
-4.274685896922e+00
-4.274353193925e+00
-4.274020542869e+00
-4.273687943763e+00
-4.273355396617e+00
-4.273022901443e+00
-4.272690458249e+00
-4.272358067045e+00
-4.272025727842e+00
-4.271693440650e+00
-4.271361205477e+00
-4.271029022333e+00
-4.270696891228e+00
-4.270364812171e+00
-4.270032785171e+00
-4.269700810237e+00
-4.269368887377e+00
-4.269037016602e+00
-4.268705197918e+00
-4.268373431336e+00
-4.268041716862e+00
-4.267710054507e+00
-4.267378444278e+00
-4.267046886182e+00
-4.266715380229e+00
-4.266383926426e+00
-4.266052524781e+00
-4.265721175301e+00
-4.265389877995e+00
-4.265058632869e+00
-4.264727439931e+00
-4.264396299188e+00
-4.264065210649e+00
-4.263734174318e+00
-4.263403190205e+00
-4.263072258314e+00
-4.262741378655e+00
-4.262410551231e+00
-4.262079776052e+00
-4.261749053122e+00
-4.261418382449e+00
-4.261087764038e+00
-4.260757197896e+00
-4.260426684029e+00
-4.260096222443e+00
-4.259765813143e+00
-4.259435456136e+00
-4.259105151427e+00
-4.258774899021e+00
-4.258444698925e+00
-4.258114551143e+00
-4.257784455681e+00
-4.257454412544e+00
-4.257124421738e+00
-4.256794483266e+00
-4.256464597135e+00
-4.256134763348e+00
-4.255804981911e+00
-4.255475252828e+00
-4.255145576104e+00
-4.254815951743e+00
-4.254486379750e+00
-4.254156860129e+00
-4.253827392883e+00
-4.253497978018e+00
-4.253168615537e+00
-4.252839305443e+00
-4.252510047742e+00
-4.252180842436e+00
-4.251851689529e+00
-4.251522589025e+00
-4.251193540927e+00
-4.250864545238e+00
-4.250535601963e+00
-4.250206711103e+00
-4.249877872662e+00
-4.249549086644e+00
-4.249220353051e+00
-4.248891671885e+00
-4.248563043150e+00
-4.248234466849e+00
-4.247905942984e+00
-4.247577471557e+00
-4.247249052571e+00
-4.246920686028e+00
-4.246592371931e+00
-4.246264110281e+00
-4.245935901082e+00
-4.245607744334e+00
-4.245279640040e+00
-4.244951588201e+00
-4.244623588820e+00
-4.244295641898e+00
-4.243967747437e+00
-4.243639905438e+00
-4.243312115903e+00
-4.242984378833e+00
-4.242656694229e+00
-4.242329062093e+00
-4.242001482426e+00
-4.241673955229e+00
-4.241346480502e+00
-4.241019058247e+00
-4.240691688465e+00
-4.240364371156e+00
-4.240037106320e+00
-4.239709893960e+00
-4.239382734075e+00
-4.239055626665e+00
-4.238728571731e+00
-4.238401569274e+00
-4.238074619293e+00
-4.237747721789e+00
-4.237420876762e+00
-4.237094084211e+00
-4.236767344137e+00
-4.236440656540e+00
-4.236114021419e+00
-4.235787438774e+00
-4.235460908605e+00
-4.235134430912e+00
-4.234808005693e+00
-4.234481632948e+00
-4.234155312678e+00
-4.233829044880e+00
-4.233502829554e+00
-4.233176666700e+00
-4.232850556317e+00
-4.232524498402e+00
-4.232198492957e+00
-4.231872539978e+00
-4.231546639466e+00
-4.231220791419e+00
-4.230894995835e+00
-4.230569252714e+00
-4.230243562053e+00
-4.229917923852e+00
-4.229592338108e+00
-4.229266804820e+00
-4.228941323987e+00
-4.228615895606e+00
-4.228290519675e+00
-4.227965196194e+00
-4.227639925159e+00
-4.227314706570e+00
-4.226989540422e+00
-4.226664426716e+00
-4.226339365447e+00
-4.226014356615e+00
-4.225689400216e+00
-4.225364496249e+00
-4.225039644710e+00
-4.224714845598e+00
-4.224390098909e+00
-4.224065404641e+00
-4.223740762791e+00
-4.223416173357e+00
-4.223091636335e+00
-4.222767151723e+00
-4.222442719518e+00
-4.222118339716e+00
-4.221794012315e+00
-4.221469737312e+00
-4.221145514702e+00
-4.220821344484e+00
-4.220497226654e+00
-4.220173161207e+00
-4.219849148142e+00
-4.219525187454e+00
-4.219201279140e+00
-4.218877423196e+00
-4.218553619619e+00
-4.218229868404e+00
-4.217906169549e+00
-4.217582523048e+00
-4.217258928899e+00
-4.216935387098e+00
-4.216611897640e+00
-4.216288460521e+00
-4.215965075737e+00
-4.215641743284e+00
-4.215318463158e+00
-4.214995235355e+00
-4.214672059870e+00
-4.214348936699e+00
-4.214025865837e+00
-4.213702847279e+00
-4.213379881023e+00
-4.213056967062e+00
-4.212734105392e+00
-4.212411296008e+00
-4.212088538906e+00
-4.211765834081e+00
-4.211443181528e+00
-4.211120581242e+00
-4.210798033218e+00
-4.210475537451e+00
-4.210153093936e+00
-4.209830702668e+00
-4.209508363641e+00
-4.209186076851e+00
-4.208863842293e+00
-4.208541659960e+00
-4.208219529848e+00
-4.207897451951e+00
-4.207575426264e+00
-4.207253452781e+00
-4.206931531496e+00
-4.206609662405e+00
-4.206287845500e+00
-4.205966080778e+00
-4.205644368231e+00
-4.205322707855e+00
-4.205001099642e+00
-4.204679543588e+00
-4.204358039687e+00
-4.204036587931e+00
-4.203715188316e+00
-4.203393840836e+00
-4.203072545483e+00
-4.202751302253e+00
-4.202430111138e+00
-4.202108972133e+00
-4.201787885231e+00
-4.201466850426e+00
-4.201145867711e+00
-4.200824937080e+00
-4.200504058527e+00
-4.200183232045e+00
-4.199862457627e+00
-4.199541735266e+00
-4.199221064957e+00
-4.198900446692e+00
-4.198579880465e+00
-4.198259366269e+00
-4.197938904096e+00
-4.197618493941e+00
-4.197298135796e+00
-4.196977829654e+00
-4.196657575508e+00
-4.196337373351e+00
-4.196017223177e+00
-4.195697124977e+00
-4.195377078745e+00
-4.195057084474e+00
-4.194737142155e+00
-4.194417251783e+00
-4.194097413349e+00
-4.193777626847e+00
-4.193457892268e+00
-4.193138209606e+00
-4.192818578853e+00
-4.192499000000e+00
-4.192179473042e+00
-4.191859997969e+00
-4.191540574775e+00
-4.191221203452e+00
-4.190901883992e+00
-4.190582616387e+00
-4.190263400629e+00
-4.189944236711e+00
-4.189625124625e+00
-4.189306064362e+00
-4.188987055915e+00
-4.188668099275e+00
-4.188349194436e+00
-4.188030341388e+00
-4.187711540123e+00
-4.187392790634e+00
-4.187074092912e+00
-4.186755446949e+00
-4.186436852737e+00
-4.186118310266e+00
-4.185799819530e+00
-4.185481380520e+00
-4.185162993226e+00
-4.184844657642e+00
-4.184526373758e+00
-4.184208141565e+00
-4.183889961056e+00
-4.183571832221e+00
-4.183253755052e+00
-4.182935729541e+00
-4.182617755678e+00
-4.182299833456e+00
-4.181981962864e+00
-4.181664143895e+00
-4.181346376539e+00
-4.181028660788e+00
-4.180710996633e+00
-4.180393384065e+00
-4.180075823074e+00
-4.179758313653e+00
-4.179440855791e+00
-4.179123449480e+00
-4.178806094711e+00
-4.178488791474e+00
-4.178171539761e+00
-4.177854339562e+00
-4.177537190868e+00
-4.177220093670e+00
-4.176903047958e+00
-4.176586053723e+00
-4.176269110956e+00
-4.175952219647e+00
-4.175635379788e+00
-4.175318591368e+00
-4.175001854378e+00
-4.174685168808e+00
-4.174368534650e+00
-4.174051951893e+00
-4.173735420527e+00
-4.173418940544e+00
-4.173102511934e+00
-4.172786134686e+00
-4.172469808792e+00
-4.172153534241e+00
-4.171837311023e+00
-4.171521139129e+00
-4.171205018550e+00
-4.170888949274e+00
-4.170572931292e+00
-4.170256964595e+00
-4.169941049172e+00
-4.169625185014e+00
-4.169309372110e+00
-4.168993610450e+00
-4.168677900024e+00
-4.168362240822e+00
-4.168046632835e+00
-4.167731076051e+00
-4.167415570461e+00
-4.167100116054e+00
-4.166784712821e+00
-4.166469360750e+00
-4.166154059832e+00
-4.165838810057e+00
-4.165523611413e+00
-4.165208463891e+00
-4.164893367481e+00
-4.164578322171e+00
-4.164263327952e+00
-4.163948384812e+00
-4.163633492742e+00
-4.163318651731e+00
-4.163003861768e+00
-4.162689122843e+00
-4.162374434945e+00
-4.162059798064e+00
-4.161745212188e+00
-4.161430677308e+00
-4.161116193412e+00
-4.160801760489e+00
-4.160487378530e+00
-4.160173047523e+00
-4.159858767457e+00
-4.159544538322e+00
-4.159230360107e+00
-4.158916232800e+00
-4.158602156391e+00
-4.158288130870e+00
-4.157974156224e+00
-4.157660232443e+00
-4.157346359517e+00
-4.157032537433e+00
-4.156718766182e+00
-4.156405045751e+00
-4.156091376131e+00
-4.155777757309e+00
-4.155464189274e+00
-4.155150672016e+00
-4.154837205524e+00
-4.154523789785e+00
-4.154210424789e+00
-4.153897110525e+00
-4.153583846980e+00
-4.153270634145e+00
-4.152957472008e+00
-4.152644360557e+00
-4.152331299781e+00
-4.152018289668e+00
-4.151705330207e+00
-4.151392421388e+00
-4.151079563197e+00
-4.150766755624e+00
-4.150453998658e+00
-4.150141292287e+00
-4.149828636498e+00
-4.149516031282e+00
-4.149203476625e+00
-4.148890972517e+00
-4.148578518946e+00
-4.148266115901e+00
-4.147953763368e+00
-4.147641461338e+00
-4.147329209798e+00
-4.147017008737e+00
-4.146704858142e+00
-4.146392758002e+00
-4.146080708306e+00
-4.145768709041e+00
-4.145456760196e+00
-4.145144861758e+00
-4.144833013716e+00
-4.144521216059e+00
-4.144209468773e+00
-4.143897771848e+00
-4.143586125271e+00
-4.143274529030e+00
-4.142962983114e+00
-4.142651487510e+00
-4.142340042206e+00
-4.142028647191e+00
-4.141717302452e+00
-4.141406007977e+00
-4.141094763754e+00
-4.140783569772e+00
-4.140472426017e+00
-4.140161332478e+00
-4.139850289142e+00
-4.139539295998e+00
-4.139228353034e+00
-4.138917460236e+00
-4.138606617593e+00
-4.138295825093e+00
-4.137985082723e+00
-4.137674390471e+00
-4.137363748324e+00
-4.137053156271e+00
-4.136742614299e+00
-4.136432122396e+00
-4.136121680549e+00
-4.135811288746e+00
-4.135500946975e+00
-4.135190655223e+00
-4.134880413477e+00
-4.134570221726e+00
-4.134260079957e+00
-4.133949988157e+00
-4.133639946314e+00
-4.133329954415e+00
-4.133020012448e+00
-4.132710120400e+00
-4.132400278259e+00
-4.132090486012e+00
-4.131780743646e+00
-4.131471051150e+00
-4.131161408509e+00
-4.130851815713e+00
-4.130542272747e+00
-4.130232779599e+00
-4.129923336258e+00
-4.129613942709e+00
-4.129304598940e+00
-4.128995304939e+00
-4.128686060693e+00
-4.128376866189e+00
-4.128067721414e+00
-4.127758626355e+00
-4.127449581000e+00
-4.127140585336e+00
-4.126831639350e+00
-4.126522743029e+00
-4.126213896360e+00
-4.125905099331e+00
-4.125596351928e+00
-4.125287654139e+00
-4.124979005950e+00
-4.124670407349e+00
-4.124361858323e+00
-4.124053358859e+00
-4.123744908944e+00
-4.123436508565e+00
-4.123128157709e+00
-4.122819856363e+00
-4.122511604513e+00
-4.122203402147e+00
-4.121895249253e+00
-4.121587145816e+00
-4.121279091823e+00
-4.120971087263e+00
-4.120663132120e+00
-4.120355226383e+00
-4.120047370039e+00
-4.119739563073e+00
-4.119431805473e+00
-4.119124097227e+00
-4.118816438319e+00
-4.118508828739e+00
-4.118201268471e+00
-4.117893757503e+00
-4.117586295823e+00
-4.117278883415e+00
-4.116971520268e+00
-4.116664206368e+00
-4.116356941702e+00
-4.116049726257e+00
-4.115742560018e+00
-4.115435442973e+00
-4.115128375109e+00
-4.114821356412e+00
-4.114514386869e+00
-4.114207466467e+00
-4.113900595192e+00
-4.113593773030e+00
-4.113286999969e+00
-4.112980275995e+00
-4.112673601094e+00
-4.112366975254e+00
-4.112060398460e+00
-4.111753870700e+00
-4.111447391960e+00
-4.111140962226e+00
-4.110834581484e+00
-4.110528249723e+00
-4.110221966927e+00
-4.109915733083e+00
-4.109609548179e+00
-4.109303412200e+00
-4.108997325132e+00
-4.108691286963e+00
-4.108385297679e+00
-4.108079357266e+00
-4.107773465711e+00
-4.107467622999e+00
-4.107161829118e+00
-4.106856084054e+00
-4.106550387793e+00
-4.106244740322e+00
-4.105939141626e+00
-4.105633591693e+00
-4.105328090508e+00
-4.105022638059e+00
-4.104717234330e+00
-4.104411879310e+00
-4.104106572983e+00
-4.103801315336e+00
-4.103496106356e+00
-4.103190946029e+00
-4.102885834341e+00
-4.102580771278e+00
-4.102275756827e+00
-4.101970790974e+00
-4.101665873705e+00
-4.101361005006e+00
-4.101056184863e+00
-4.100751413264e+00
-4.100446690193e+00
-4.100142015637e+00
-4.099837389583e+00
-4.099532812016e+00
-4.099228282923e+00
-4.098923802290e+00
-4.098619370102e+00
-4.098314986347e+00
-4.098010651010e+00
-4.097706364078e+00
-4.097402125536e+00
-4.097097935370e+00
-4.096793793568e+00
-4.096489700114e+00
-4.096185654995e+00
-4.095881658197e+00
-4.095577709706e+00
-4.095273809508e+00
-4.094969957590e+00
-4.094666153936e+00
-4.094362398534e+00
-4.094058691370e+00
-4.093755032428e+00
-4.093451421696e+00
-4.093147859160e+00
-4.092844344805e+00
-4.092540878617e+00
-4.092237460582e+00
-4.091934090687e+00
-4.091630768918e+00
-4.091327495260e+00
-4.091024269699e+00
-4.090721092221e+00
-4.090417962812e+00
-4.090114881459e+00
-4.089811848146e+00
-4.089508862861e+00
-4.089205925589e+00
-4.088903036315e+00
-4.088600195027e+00
2.266235482246e+02
2.266235482246e+02
2.266235482246e+02
2.266235482246e+02
2.266235482246e+02
2.266235482246e+02
2.266235482246e+02
2.266235482246e+02
2.266235482246e+02
2.266235482246e+02
2.266235482246e+02
2.266235482246e+02
2.266235482246e+02
2.266235482246e+02
2.266235482246e+02
2.266235482246e+02
2.266235482246e+02
2.266235482246e+02
2.266235482246e+02
2.266235482246e+02
2.266235482246e+02
2.266235482246e+02
2.266235482246e+02
2.266235482246e+02
2.266235482246e+02
2.266235482246e+02
2.266235482246e+02
2.266235482246e+02
2.266235482246e+02
2.266235482246e+02
2.266235482246e+02
2.266235482246e+02
2.266235482246e+02
2.266235482246e+02
2.266235482246e+02
2.266235482246e+02
2.266235482246e+02
2.266235482246e+02
2.266235482246e+02
2.266235482246e+02
2.266235482246e+02
2.266235482246e+02
2.266235482246e+02
2.266235482246e+02
2.266235482246e+02
2.266235482246e+02
2.266235482246e+02
2.266235482246e+02
2.266235482246e+02
2.266235482246e+02
2.266235482246e+02
2.266235482246e+02
2.266235482246e+02
2.266235482246e+02
2.266235482246e+02
2.266235482246e+02
2.266235482246e+02
2.266235482246e+02
2.266235482246e+02
2.266235482246e+02
2.266235482246e+02
2.266235482246e+02
2.266235482246e+02
2.266235482246e+02
2.266235482246e+02
2.266235482246e+02
2.266235482246e+02
2.266235482246e+02
2.266235482246e+02
2.266235482246e+02
2.266235482246e+02
2.266235482246e+02
2.266235482246e+02
2.266235482246e+02
2.266235482246e+02
2.266235482246e+02
2.266235482246e+02
2.266235482246e+02
2.266235482246e+02
2.266235482246e+02
2.266235482246e+02
2.266235482246e+02
2.266235482246e+02
2.266235482246e+02
2.266235482246e+02
2.266235482246e+02
2.266235482246e+02
2.266235482246e+02
2.266235482246e+02
2.266235482246e+02
2.266235482246e+02
2.266235482246e+02
2.266235482246e+02
2.266235482246e+02
2.266235482246e+02
2.266235482246e+02
2.266235482246e+02
2.266235482246e+02
2.266235482246e+02
2.266235482246e+02
2.266235482246e+02
2.266235482246e+02
2.266235482246e+02
2.266235482246e+02
2.266235482246e+02
2.266235482246e+02
2.266235482246e+02
2.266235482246e+02
2.266235482246e+02
2.266235482246e+02
2.266235482246e+02
2.266235482246e+02
2.266235482246e+02
2.266235482246e+02
2.266235482246e+02
2.266235482246e+02
2.266235482246e+02
2.266235482246e+02
2.266235482246e+02
2.266235482246e+02
2.266235482246e+02
2.266235482246e+02
2.266235482246e+02
2.266235482246e+02
2.266235482246e+02
2.266235482246e+02
2.266235482246e+02
2.266235482246e+02
2.266235482246e+02
2.266235482246e+02
2.266235482246e+02
2.266235482246e+02
2.266235482246e+02
2.266235482246e+02
2.266235482246e+02
2.266235482246e+02
2.266235482246e+02
2.266235482246e+02
2.266235482246e+02
2.266235482246e+02
2.262368452382e+02
2.250093008932e+02
2.237839619795e+02
2.225609648091e+02
2.213404412521e+02
2.201225188250e+02
2.189073207794e+02
2.176949661897e+02
2.164855700408e+02
2.152792433147e+02
2.140760930774e+02
2.128762225639e+02
2.116797312636e+02
2.104867150040e+02
2.092972660345e+02
2.081114731082e+02
2.069294215637e+02
2.057511934055e+02
2.045768673834e+02
2.034065190709e+02
2.022402209429e+02
2.010780424515e+02
1.999200501012e+02
1.987663075234e+02
1.976168755487e+02
1.964718122790e+02
1.953311731576e+02
1.941950110391e+02
1.930633762569e+02
1.919363166907e+02
1.908138778317e+02
1.896961028476e+02
1.885830326455e+02
1.874747059342e+02
1.863711592851e+02
1.852724271916e+02
1.841785421280e+02
1.830895346064e+02
1.820054332331e+02
1.809262647633e+02
1.798520541550e+02
1.787828246213e+02
1.777185976823e+02
1.766593932150e+02
1.756052295028e+02
1.745561232833e+02
1.735120897954e+02
1.724731428252e+02
1.714392947507e+02
1.704105565859e+02
1.693869380229e+02
1.683684474743e+02
1.673550921133e+02
1.663468779138e+02
1.653438096890e+02
1.643458911290e+02
1.633531248378e+02
1.623655123691e+02
1.613830542611e+02
1.604057500712e+02
1.594335984084e+02
1.584665969660e+02
1.575047425533e+02
1.565480311259e+02
1.555964578158e+02
1.546500169602e+02
1.537087021301e+02
1.527725061575e+02
1.518414211625e+02
1.509154385791e+02
1.499945491804e+02
1.490787431036e+02
1.481680098736e+02
1.472623384266e+02
1.463617171323e+02
1.454661338161e+02
1.445755757806e+02
1.436900298262e+02
1.428094822711e+02
1.419339189710e+02
1.410633253382e+02
1.401976863601e+02
1.393369866166e+02
1.384812102981e+02
1.376303412222e+02
1.367843628497e+02
1.359432583009e+02
1.351070103710e+02
1.342756015446e+02
1.334490140107e+02
1.326272296765e+02
1.318102301810e+02
1.309979969082e+02
1.301905110000e+02
1.293877533684e+02
1.285897047079e+02
1.277963455066e+02
1.270076560577e+02
1.262236164708e+02
1.254442066816e+02
1.246694064630e+02
1.238991954345e+02
1.231335530719e+02
1.223724587165e+02
1.216158915843e+02
1.208638307744e+02
1.201162552776e+02
1.193731439844e+02
1.186344756927e+02
1.179002291158e+02
1.171703828893e+02
1.164449155784e+02
1.157238056848e+02
1.150070316530e+02
1.142945718771e+02
1.135864047066e+02
1.128825084525e+02
1.121828613932e+02
1.114874417797e+02
1.107962278411e+02
1.101091977899e+02
1.094263298267e+02
1.087476021454e+02
1.080729929373e+02
1.074024803958e+02
1.067360427208e+02
1.060736581227e+02
1.054153048264e+02
1.047609610751e+02
1.041106051339e+02
1.034642152936e+02
1.028217698740e+02
1.021832472268e+02
1.015486257395e+02
1.009178838377e+02
1.002909999884e+02
9.966795270262e+01
9.904872053826e+01
9.843328210249e+01
9.782161605425e+01
9.721370110667e+01
9.660951602927e+01
9.600903965015e+01
9.541225085806e+01
9.481912860437e+01
9.422965190498e+01
9.364379984210e+01
9.306155156603e+01
9.248288629677e+01
9.190778332558e+01
9.133622201654e+01
9.076818180791e+01
9.020364221353e+01
8.964258282410e+01
8.908498330842e+01
8.853082341452e+01
8.798008297080e+01
8.743274188706e+01
8.688878015549e+01
8.634817785162e+01
8.581091513517e+01
8.527697225091e+01
8.474632952943e+01
8.421896738787e+01
8.369486633061e+01
8.317400694994e+01
8.265636992659e+01
8.214193603040e+01
8.163068612071e+01
8.112260114696e+01
8.061766214904e+01
8.011585025778e+01
7.961714669524e+01
7.912153277511e+01
7.862898990300e+01
7.813949957672e+01
7.765304338649e+01
7.716960301524e+01
7.668916023869e+01
7.621169692562e+01
7.573719503794e+01
7.526563663082e+01
7.479700385276e+01
7.433127894572e+01
7.386844424509e+01
7.340848217972e+01
7.295137527199e+01
7.249710613770e+01
7.204565748610e+01
7.159701211980e+01
7.115115293471e+01
7.070806291993e+01
7.026772515769e+01
6.983012282318e+01
6.939523918443e+01
6.896305760218e+01
6.853356152967e+01
6.810673451252e+01
6.768256018847e+01
6.726102228726e+01
6.684210463035e+01
6.642579113071e+01
6.601206579260e+01
6.560091271133e+01
6.519231607297e+01
6.478626015412e+01
6.438272932163e+01
6.398170803228e+01
6.358318083256e+01
6.318713235831e+01
6.279354733445e+01
6.240241057465e+01
6.201370698103e+01
6.162742154382e+01
6.124353934104e+01
6.086204553813e+01
6.048292538769e+01
6.010616422903e+01
5.973174748789e+01
5.935966067607e+01
5.898988939105e+01
5.862241931565e+01
5.825723621765e+01
5.789432594941e+01
5.753367444750e+01
5.717526773236e+01
5.681909190785e+01
5.646513316093e+01
5.611337776121e+01
5.576381206065e+01
5.541642249307e+01
5.507119557383e+01
5.472811789941e+01
5.438717614701e+01
5.404835707416e+01
5.371164751831e+01
5.337703439645e+01
5.304450470471e+01
5.271404551790e+01
5.238564398920e+01
5.205928734970e+01
5.173496290797e+01
5.141265804973e+01
5.109236023740e+01
5.077405700967e+01
5.045773598116e+01
5.014338484196e+01
4.983099135725e+01
4.952054336688e+01
4.921202878498e+01
4.890543559955e+01
4.860075187205e+01
4.829796573700e+01
4.799706540158e+01
4.769803914521e+01
4.740087531918e+01
4.710556234621e+01
4.681208872008e+01
4.652044300523e+01
4.623061383631e+01
4.594258991787e+01
4.565636002388e+01
4.537191299737e+01
4.508923775005e+01
4.480832326189e+01
4.452915858073e+01
4.425173282190e+01
4.397603516783e+01
4.370205486763e+01
4.342978123675e+01
4.315920365657e+01
4.289031157401e+01
4.262309450114e+01
4.235754201483e+01
4.209364375634e+01
4.183138943094e+01
4.157076880756e+01
4.131177171838e+01
4.105438805848e+01
4.079860778546e+01
4.054442091905e+01
4.029181754077e+01
4.004078779354e+01
3.979132188134e+01
3.954341006880e+01
3.929704268088e+01
3.905221010249e+01
3.880890277813e+01
3.856711121152e+01
3.832682596528e+01
3.808803766053e+01
3.785073697658e+01
3.761491465055e+01
3.738056147700e+01
3.714766830766e+01
3.691622605100e+01
3.668622567193e+01
3.645765819144e+01
3.623051468628e+01
3.600478628860e+01
3.578046418560e+01
3.555753961926e+01
3.533600388592e+01
3.511584833601e+01
3.489706437368e+01
3.467964345652e+01
3.446357709518e+01
3.424885685308e+01
3.403547434608e+01
3.382342124213e+01
3.361268926100e+01
3.340327017394e+01
3.319515580335e+01
3.298833802248e+01
3.278280875511e+01
3.257855997527e+01
3.237558370687e+01
3.217387202346e+01
3.197341704787e+01
3.177421095195e+01
3.157624595623e+01
3.137951432965e+01
3.118400838925e+01
3.098972049987e+01
3.079664307385e+01
3.060476857075e+01
3.041408949707e+01
3.022459840591e+01
3.003628789675e+01
2.984915061510e+01
2.966317925227e+01
2.947836654504e+01
2.929470527540e+01
2.911218827029e+01
2.893080840128e+01
2.875055858433e+01
2.857143177949e+01
2.839342099065e+01
2.821651926525e+01
2.804071969400e+01
2.786601541066e+01
2.769239959172e+01
2.751986545615e+01
2.734840626516e+01
2.717801532191e+01
2.700868597127e+01
2.684041159955e+01
2.667318563422e+01
2.650700154372e+01
2.634185283713e+01
2.617773306398e+01
2.601463581395e+01
2.585255471665e+01
2.569148344136e+01
2.553141569681e+01
2.537234523087e+01
2.521426583039e+01
2.505717132090e+01
2.490105556638e+01
2.474591246905e+01
2.459173596908e+01
2.443852004441e+01
2.428625871047e+01
2.413494601999e+01
2.398457606272e+01
2.383514296524e+01
2.368664089071e+01
2.353906403864e+01
2.339240664469e+01
2.324666298041e+01
2.310182735305e+01
2.295789410530e+01
2.281485761510e+01
2.267271229543e+01
2.253145259404e+01
2.239107299330e+01
2.225156800992e+01
2.211293219481e+01
2.197516013277e+01
2.183824644239e+01
2.170218577574e+01
2.156697281824e+01
2.143260228840e+01
2.129906893763e+01
2.116636755004e+01
2.103449294224e+01
2.090343996313e+01
2.077320349369e+01
2.064377844681e+01
2.051515976705e+01
2.038734243049e+01
2.026032144448e+01
2.013409184749e+01
2.000864870890e+01
1.988398712882e+01
1.976010223785e+01
1.963698919696e+01
1.951464319725e+01
1.939305945980e+01
1.927223323544e+01
1.915215980459e+01
1.903283447708e+01
1.891425259198e+01
1.879640951736e+01
1.867930065016e+01
1.856292141603e+01
1.844726726906e+01
1.833233369172e+01
1.821811619459e+01
1.810461031623e+01
1.799181162300e+01
1.787971570886e+01
1.776831819526e+01
1.765761473089e+01
1.754760099157e+01
1.743827268007e+01
1.732962552591e+01
1.722165528523e+01
1.711435774061e+01
1.700772870089e+01
1.690176400105e+01
1.679645950199e+01
1.669181109043e+01
1.658781467868e+01
1.648446620454e+01
1.638176163113e+01
1.627969694668e+01
1.617826816447e+01
1.607747132256e+01
1.597730248375e+01
1.587775773532e+01
1.577883318896e+01
1.568052498058e+01
1.558282927016e+01
1.548574224159e+01
1.538926010257e+01
1.529337908440e+01
1.519809544187e+01
1.510340545310e+01
1.500930541940e+01
1.491579166513e+01
1.482286053754e+01
1.473050840664e+01
1.463873166507e+01
1.454752672793e+01
1.445689003266e+01
1.436681803889e+01
1.427730722832e+01
1.418835410456e+01
1.409995519302e+01
1.401210704073e+01
1.392480621625e+01
1.383804930953e+01
1.375183293174e+01
1.366615371518e+01
1.358100831314e+01
1.349639339974e+01
1.341230566984e+01
1.332874183888e+01
1.324569864277e+01
1.316317283775e+01
1.308116120028e+01
1.299966052689e+01
1.291866763409e+01
1.283817935821e+01
1.275819255529e+01
1.267870410095e+01
1.259971089031e+01
1.252120983779e+01
1.244319787706e+01
1.236567196090e+01
1.228862906105e+01
1.221206616815e+01
1.213598029156e+01
1.206036845929e+01
1.198522771786e+01
1.191055513219e+01
1.183634778549e+01
1.176260277915e+01
1.168931723260e+01
1.161648828324e+01
1.154411308629e+01
1.147218881469e+01
1.140071265901e+01
1.132968182731e+01
1.125909354506e+01
1.118894505500e+01
1.111923361705e+01
1.104995650821e+01
1.098111102245e+01
1.091269447058e+01
1.084470418019e+01
1.077713749549e+01
1.070999177727e+01
1.064326440274e+01
1.057695276546e+01
1.051105427522e+01
1.044556635797e+01
1.038048645566e+01
1.031581202621e+01
1.025154054338e+01
1.018766949664e+01
1.012419639113e+01
1.006111874751e+01
9.998434101915e+00
9.936140005808e+00
9.874234025917e+00
9.812713744129e+00
9.751576757395e+00
9.690820677639e+00
9.630443131665e+00
9.570441761061e+00
9.510814222111e+00
9.451558185697e+00
9.392671337218e+00
9.334151376489e+00
9.275996017658e+00
9.218202989116e+00
9.160770033405e+00
9.103694907133e+00
9.046975380884e+00
8.990609239134e+00
8.934594280160e+00
8.878928315959e+00
8.823609172159e+00
8.768634687935e+00
8.714002715925e+00
8.659711122147e+00
8.605757785912e+00
8.552140599746e+00
8.498857469305e+00
8.445906313292e+00
8.393285063379e+00
8.340991664125e+00
8.289024072892e+00
8.237380259772e+00
8.186058207503e+00
8.135055911389e+00
8.084371379228e+00
8.034002631227e+00
7.983947699930e+00
7.934204630136e+00
7.884771478830e+00
7.835646315100e+00
7.786827220064e+00
7.738312286796e+00
7.690099620252e+00
7.642187337193e+00
7.594573566115e+00
7.547256447172e+00
7.500234132108e+00
7.453504784182e+00
7.407066578094e+00
7.360917699919e+00
7.315056347033e+00
7.269480728043e+00
7.224189062716e+00
7.179179581911e+00
7.134450527510e+00
7.090000152350e+00
7.045826720149e+00
7.001928505449e+00
6.958303793536e+00
6.914950880384e+00
6.871868072582e+00
6.829053687269e+00
6.786506052070e+00
6.744223505028e+00
6.702204394543e+00
6.660447079303e+00
6.618949928223e+00
6.577711320379e+00
6.536729644949e+00
6.496003301144e+00
6.455530698150e+00
6.415310255064e+00
6.375340400832e+00
6.335619574189e+00
6.296146223598e+00
6.256918807187e+00
6.217935792691e+00
6.179195657393e+00
6.140696888062e+00
6.102437980895e+00
6.064417441457e+00
6.026633784627e+00
5.989085534534e+00
5.951771224503e+00
5.914689396999e+00
5.877838603565e+00
5.841217404769e+00
5.804824370150e+00
5.768658078156e+00
5.732717116093e+00
5.697000080069e+00
5.661505574939e+00
5.626232214249e+00
5.591178620184e+00
5.556343423514e+00
5.521725263539e+00
5.487322788036e+00
5.453134653208e+00
5.419159523631e+00
5.385396072198e+00
5.351842980075e+00
5.318498936641e+00
5.285362639443e+00
5.252432794141e+00
5.219708114461e+00
5.187187322142e+00
5.154869146886e+00
5.122752326313e+00
5.090835605903e+00
5.059117738957e+00
5.027597486541e+00
4.996273617439e+00
4.965144908109e+00
4.934210142630e+00
4.903468112656e+00
4.872917617372e+00
4.842557463442e+00
4.812386464967e+00
4.782403443435e+00
4.752607227677e+00
4.722996653821e+00
4.693570565248e+00
4.664327812542e+00
4.635267253450e+00
4.606387752837e+00
4.577688182637e+00
4.549167421816e+00
4.520824356321e+00
4.492657879043e+00
4.464666889769e+00
4.436850295141e+00
4.409207008613e+00
4.381735950409e+00
4.354436047480e+00
4.327306233463e+00
4.300345448639e+00
4.273552639890e+00
4.246926760660e+00
4.220466770916e+00
4.194171637100e+00
4.168040332098e+00
4.142071835192e+00
4.116265132026e+00
4.090619214562e+00
4.065133081043e+00
4.039805735954e+00
4.014636189982e+00
3.989623459977e+00
3.964766568915e+00
3.940064545861e+00
3.915516425925e+00
3.891121250234e+00
3.866878065885e+00
3.842785925913e+00
3.818843889254e+00
3.795051020707e+00
3.771406390896e+00
3.747909076238e+00
3.724558158902e+00
3.701352726776e+00
3.678291873432e+00
3.655374698087e+00
3.632600305573e+00
3.609967806298e+00
3.587476316212e+00
3.565124956774e+00
3.542912854915e+00
3.520839143007e+00
3.498902958828e+00
3.477103445527e+00
3.455439751592e+00
3.433911030815e+00
3.412516442262e+00
3.391255150237e+00
3.370126324252e+00
3.349129138992e+00
3.328262774285e+00
3.307526415069e+00
3.286919251358e+00
3.266440478216e+00
3.246089295720e+00
3.225864908930e+00
3.205766527861e+00
3.185793367449e+00
3.165944647520e+00
3.146219592762e+00
3.126617432694e+00
3.107137401635e+00
3.087778738673e+00
3.068540687639e+00
3.049422497074e+00
3.030423420201e+00
3.011542714896e+00
2.992779643658e+00
2.974133473582e+00
2.955603476329e+00
2.937188928097e+00
2.918889109594e+00
2.900703306009e+00
2.882630806987e+00
2.864670906596e+00
2.846822903303e+00
2.829086099945e+00
2.811459803706e+00
2.793943326082e+00
2.776535982861e+00
2.759237094095e+00
2.742045984069e+00
2.724961981282e+00
2.707984418413e+00
2.691112632300e+00
2.674345963915e+00
2.657683758333e+00
2.641125364710e+00
2.624670136258e+00
2.608317430219e+00
2.592066607837e+00
2.575917034340e+00
2.559868078906e+00
2.543919114647e+00
2.528069518580e+00
2.512318671601e+00
2.496665958467e+00
2.481110767766e+00
2.465652491895e+00
2.450290527037e+00
2.435024273139e+00
2.419853133883e+00
2.404776516669e+00
2.389793832588e+00
2.374904496401e+00
2.360107926514e+00
2.345403544957e+00
2.330790777362e+00
2.316269052938e+00
2.301837804452e+00
2.287496468203e+00
2.273244484003e+00
2.259081295156e+00
2.245006348430e+00
2.231019094045e+00
2.217118985643e+00
2.203305480271e+00
2.189578038359e+00
2.175936123698e+00
2.162379203421e+00
2.148906747979e+00
2.135518231125e+00
2.122213129888e+00
2.108990924558e+00
2.095851098660e+00
2.082793138940e+00
2.069816535338e+00
2.056920780976e+00
2.044105372132e+00
2.031369808221e+00
2.018713591780e+00
2.006136228443e+00
1.993637226924e+00
1.981216099000e+00
1.968872359488e+00
1.956605526228e+00
1.944415120064e+00
1.932300664827e+00
1.920261687313e+00
1.908297717267e+00
1.896408287363e+00
1.884592933187e+00
1.872851193220e+00
1.861182608815e+00
1.849586724187e+00
1.838063086387e+00
1.826611245289e+00
1.815230753573e+00
1.803921166705e+00
1.792682042919e+00
1.781512943204e+00
1.770413431284e+00
1.759383073598e+00
1.748421439289e+00
1.737528100186e+00
1.726702630781e+00
1.715944608221e+00
1.705253612285e+00
1.694629225373e+00
1.684071032484e+00
1.673578621204e+00
1.663151581688e+00
1.652789506645e+00
1.642491991322e+00
1.632258633486e+00
1.622089033411e+00
1.611982793862e+00
1.601939520079e+00
1.591958819761e+00
1.582040303050e+00
1.572183582519e+00
1.562388273154e+00
1.552653992340e+00
1.542980359846e+00
1.533366997808e+00
1.523813530719e+00
1.514319585410e+00
1.504884791038e+00
1.495508779070e+00
1.486191183268e+00
1.476931639677e+00
1.467729786609e+00
1.458585264631e+00
1.449497716548e+00
1.440466787390e+00
1.431492124399e+00
1.422573377017e+00
1.413710196866e+00
1.404902237742e+00
1.396149155596e+00
1.387450608524e+00
1.378806256751e+00
1.370215762620e+00
1.361678790576e+00
1.353195007157e+00
1.344764080977e+00
1.336385682715e+00
1.328059485101e+00
1.319785162906e+00
1.311562392926e+00
1.303390853970e+00
1.295270226850e+00
1.287200194366e+00
1.279180441292e+00
1.271210654369e+00
1.263290522290e+00
1.255419735684e+00
1.247597987110e+00
1.239824971044e+00
1.232100383861e+00
1.224423923833e+00
1.216795291108e+00
1.209214187703e+00
1.201680317493e+00
1.194193386197e+00
1.186753101367e+00
1.179359172378e+00
1.172011310414e+00
1.164709228461e+00
1.157452641292e+00
1.150241265456e+00
1.143074819270e+00
1.135953022804e+00
1.128875597873e+00
1.121842268026e+00
1.114852758534e+00
1.107906796378e+00
1.101004110243e+00
1.094144430501e+00
1.087327489206e+00
1.080553020082e+00
1.073820758510e+00
1.067130441521e+00
1.060481807784e+00
1.053874597596e+00
1.047308552874e+00
1.040783417139e+00
1.034298935513e+00
1.027854854707e+00
1.021450923006e+00
1.015086890266e+00
1.008762507902e+00
1.002477528876e+00
9.962317076913e-01
9.900248003782e-01
9.838565644887e-01
9.777267590850e-01
9.716351447304e-01
9.655814834798e-01
9.595655388708e-01
9.535870759142e-01
9.476458610849e-01
9.417416623127e-01
9.358742489733e-01
9.300433918793e-01
9.242488632712e-01
9.184904368085e-01
9.127678875610e-01
9.070809919997e-01
9.014295279886e-01
8.958132747753e-01
8.902320129831e-01
8.846855246018e-01
8.791735929799e-01
8.736960028153e-01
8.682525401475e-01
8.628429923491e-01
8.574671481174e-01
8.521247974661e-01
8.468157317174e-01
8.415397434936e-01
8.362966267088e-01
8.310861765613e-01
8.259081895255e-01
8.207624633436e-01
8.156487970181e-01
8.105669908037e-01
8.055168461997e-01
8.004981659420e-01
7.955107539957e-01
7.905544155470e-01
7.856289569962e-01
7.807341859495e-01
7.758699112121e-01
7.710359427802e-01
7.662320918337e-01
7.614581707292e-01
7.567139929922e-01
7.519993733101e-01
7.473141275248e-01
7.426580726257e-01
7.380310267422e-01
7.334328091370e-01
7.288632401988e-01
7.243221414354e-01
7.198093354667e-01
7.153246460176e-01
7.108678979114e-01
7.064389170628e-01
7.020375304710e-01
6.976635662132e-01
6.933168534376e-01
6.889972223572e-01
6.847045042424e-01
6.804385314151e-01
6.761991372419e-01
6.719861561275e-01
6.677994235084e-01
6.636387758464e-01
6.595040506221e-01
6.553950863287e-01
6.513117224658e-01
6.472537995327e-01
6.432211590228e-01
6.392136434167e-01
6.352310961766e-01
6.312733617400e-01
6.273402855135e-01
6.234317138671e-01
6.195474941277e-01
6.156874745736e-01
6.118515044283e-01
6.080394338547e-01
6.042511139493e-01
6.004863967362e-01
5.967451351617e-01
5.930271830879e-01
5.893323952879e-01
5.856606274392e-01
5.820117361186e-01
5.783855787966e-01
5.747820138316e-01
5.712009004645e-01
5.676420988132e-01
5.641054698672e-01
5.605908754819e-01
5.570981783735e-01
5.536272421135e-01
5.501779311236e-01
5.467501106698e-01
5.433436468580e-01
5.399584066280e-01
5.365942577487e-01
5.332510688128e-01
5.299287092319e-01
5.266270492310e-01
5.233459598438e-01
5.200853129075e-01
5.168449810576e-01
5.136248377234e-01
5.104247571226e-01
5.072446142567e-01
5.040842849060e-01
5.009436456245e-01
4.978225737355e-01
4.947209473267e-01
4.916386452453e-01
4.885755470932e-01
4.855315332225e-01
4.825064847308e-01
4.795002834566e-01
4.765128119743e-01
4.735439535902e-01
4.705935923374e-01
4.676616129718e-01
4.647479009671e-01
4.618523425105e-01
4.589748244985e-01
4.561152345322e-01
4.532734609129e-01
4.504493926379e-01
4.476429193962e-01
4.448539315637e-01
4.420823201998e-01
4.393279770424e-01
4.365907945037e-01
4.338706656666e-01
4.311674842800e-01
4.284811447546e-01
4.258115421593e-01
4.231585722164e-01
4.205221312981e-01
4.179021164223e-01
4.152984252483e-01
4.127109560732e-01
4.101396078277e-01
4.075842800721e-01
4.050448729927e-01
4.025212873975e-01
4.000134247125e-01
3.975211869780e-01
3.950444768444e-01
3.925831975688e-01
3.901372530111e-01
3.877065476299e-01
3.852909864794e-01
3.828904752051e-01
3.805049200406e-01
3.781342278034e-01
3.757783058917e-01
3.734370622808e-01
3.711104055192e-01
3.687982447251e-01
3.665004895831e-01
3.642170503404e-01
3.619478378033e-01
3.596927633341e-01
3.574517388470e-01
3.552246768053e-01
3.530114902175e-01
3.508120926341e-01
3.486263981444e-01
3.464543213727e-01
3.442957774753e-01
3.421506821372e-01
3.400189515688e-01
3.379005025021e-01
3.357952521884e-01
3.337031183943e-01
3.316240193988e-01
3.295578739900e-01
3.275046014620e-01
3.254641216118e-01
3.234363547359e-01
3.214212216277e-01
3.194186435738e-01
3.174285423512e-01
3.154508402246e-01
3.134854599427e-01
3.115323247355e-01
3.095913583114e-01
3.076624848542e-01
3.057456290200e-01
3.038407159341e-01
3.019476711887e-01
3.000664208393e-01
2.981968914020e-01
2.963390098512e-01
2.944927036157e-01
2.926579005769e-01
2.908345290652e-01
2.890225178577e-01
2.872217961752e-01
2.854322936795e-01
2.836539404705e-01
2.818866670838e-01
2.801304044877e-01
2.783850840804e-01
2.766506376879e-01
2.749269975605e-01
2.732140963710e-01
2.715118672113e-01
2.698202435905e-01
2.681391594318e-01
2.664685490699e-01
2.648083472489e-01
2.631584891193e-01
2.615189102357e-01
2.598895465541e-01
2.582703344296e-01
2.566612106138e-01
2.550621122525e-01
2.534729768827e-01
2.518937424309e-01
2.503243472103e-01
2.487647299182e-01
2.472148296340e-01
2.456745858168e-01
2.441439383024e-01
2.426228273019e-01
2.411111933987e-01
2.396089775463e-01
2.381161210662e-01
2.366325656454e-01
2.351582533342e-01
2.336931265439e-01
2.322371280447e-01
2.307902009631e-01
2.293522887803e-01
2.279233353292e-01
2.265032847928e-01
2.250920817019e-01
2.236896709329e-01
2.222959977053e-01
2.209110075802e-01
2.195346464578e-01
2.181668605752e-01
2.168075965045e-01
2.154568011507e-01
2.141144217494e-01
2.127804058651e-01
2.114547013888e-01
2.101372565364e-01
2.088280198460e-01
2.075269401765e-01
2.062339667054e-01
2.049490489267e-01
2.036721366493e-01
2.024031799943e-01
2.011421293939e-01
1.998889355890e-01
1.986435496271e-01
1.974059228611e-01
1.961760069465e-01
1.949537538401e-01
1.937391157981e-01
1.925320453740e-01
1.913324954167e-01
1.901404190691e-01
1.889557697657e-01
1.877785012312e-01
1.866085674786e-01
1.854459228070e-01
1.842905218007e-01
1.831423193264e-01
1.820012705321e-01
1.808673308453e-01
1.797404559708e-01
1.786206018896e-01
1.775077248566e-01
1.764017813994e-01
1.753027283162e-01
1.742105226742e-01
1.731251218082e-01
1.720464833184e-01
1.709745650695e-01
1.699093251881e-01
1.688507220619e-01
1.677987143377e-01
1.667532609197e-01
1.657143209682e-01
1.646818538974e-01
1.636558193748e-01
1.626361773187e-01
1.616228878969e-01
1.606159115255e-01
1.596152088668e-01
1.586207408283e-01
1.576324685605e-01
1.566503534563e-01
1.556743571484e-01
1.547044415088e-01
1.537405686467e-01
1.527827009071e-01
1.518308008695e-01
1.508848313463e-01
1.499447553814e-01
1.490105362489e-01
1.480821374511e-01
1.471595227178e-01
1.462426560044e-01
1.453315014906e-01
1.444260235792e-01
1.435261868944e-01
1.426319562804e-01
1.417432968004e-01
1.408601737349e-01
1.399825525803e-01
1.391103990479e-01
1.382436790622e-01
1.373823587596e-01
1.365264044873e-01
1.356757828018e-01
1.348304604676e-01
1.339904044560e-01
1.331555819435e-01
1.323259603109e-01
1.315015071419e-01
1.306821902216e-01
1.298679775355e-01
1.290588372682e-01
1.282547378019e-01
1.274556477156e-01
1.266615357835e-01
1.258723709738e-01
1.250881224476e-01
1.243087595578e-01
1.235342518475e-01
1.227645690493e-01
1.219996810835e-01
1.212395580577e-01
1.204841702648e-01
1.197334881823e-01
1.189874824712e-01
1.182461239746e-01
1.175093837166e-01
1.167772329012e-01
1.160496429111e-01
1.153265853068e-01
1.146080318251e-01
1.138939543782e-01
1.131843250528e-01
1.124791161085e-01
1.117782999770e-01
1.110818492611e-01
1.103897367335e-01
1.097019353354e-01
1.090184181762e-01
1.083391585315e-01
1.076641298430e-01
1.069933057164e-01
1.063266599215e-01
1.056641663900e-01
1.050057992154e-01
1.043515326514e-01
1.037013411113e-01
1.030551991665e-01
1.024130815458e-01
1.017749631344e-01
1.011408189727e-01
1.005106242558e-01
9.988435433155e-02
9.926198470064e-02
9.864349101495e-02
9.802884907676e-02
9.741803483782e-02
9.681102439833e-02
9.620779400601e-02
9.560832005513e-02
9.501257908560e-02
9.442054778196e-02
9.383220297251e-02
9.324752162834e-02
9.266648086241e-02
9.208905792864e-02
9.151523022096e-02
9.094497527244e-02
9.037827075437e-02
8.981509447533e-02
8.925542438032e-02
8.869923854985e-02
8.814651519908e-02
8.759723267689e-02
8.705136946505e-02
8.650890417729e-02
8.596981555850e-02
8.543408248380e-02
8.490168395769e-02
8.437259911324e-02
8.384680721118e-02
8.332428763907e-02
8.280501991048e-02
8.228898366410e-02
8.177615866295e-02
8.126652479353e-02
8.076006206500e-02
8.025675060833e-02
7.975657067550e-02
7.925950263869e-02
7.876552698945e-02
7.827462433792e-02
7.778677541198e-02
7.730196105650e-02
7.682016223248e-02
7.634136001633e-02
7.586553559903e-02
7.539267028535e-02
7.492274549308e-02
7.445574275224e-02
7.399164370430e-02
7.353043010144e-02
7.307208380573e-02
7.261658678839e-02
7.216392112903e-02
7.171406901489e-02
7.126701274008e-02
7.082273470481e-02
7.038121741466e-02
6.994244347984e-02
6.950639561442e-02
6.907305663559e-02
6.864240946297e-02
6.821443711780e-02
6.778912272224e-02
6.736644949868e-02
6.694640076894e-02
6.652895995360e-02
6.611411057123e-02
6.570183623774e-02
6.529212066559e-02
6.488494766311e-02
6.448030113379e-02
6.407816507557e-02
6.367852358012e-02
6.328136083212e-02
6.288666110863e-02
6.249440877827e-02
6.210458830066e-02
6.171718422560e-02
6.133218119245e-02
6.094956392941e-02
6.056931725285e-02
6.019142606660e-02
5.981587536127e-02
5.944265021357e-02
5.907173578563e-02
5.870311732430e-02
5.833678016051e-02
5.797270970855e-02
5.761089146542e-02
5.725131101016e-02
5.689395400315e-02
5.653880618547e-02
5.618585337821e-02
5.583508148183e-02
5.548647647545e-02
5.514002441622e-02
5.479571143866e-02
5.445352375397e-02
5.411344764938e-02
5.377546948752e-02
5.343957570571e-02
5.310575281534e-02
5.277398740122e-02
5.244426612090e-02
5.211657570400e-02
5.179090295164e-02
5.146723473568e-02
5.114555799815e-02
5.082585975058e-02
5.050812707332e-02
5.019234711493e-02
4.987850709154e-02
4.956659428615e-02
4.925659604805e-02
4.894849979212e-02
4.864229299824e-02
4.833796321059e-02
4.803549803708e-02
4.773488514863e-02
4.743611227858e-02
4.713916722205e-02
4.684403783526e-02
4.655071203495e-02
4.625917779770e-02
4.596942315930e-02
4.568143621413e-02
4.539520511451e-02
4.511071807007e-02
4.482796334710e-02
4.454692926796e-02
4.426760421038e-02
4.398997660690e-02
4.371403494419e-02
4.343976776241e-02
4.316716365462e-02
4.289621126614e-02
4.262689929390e-02
4.235921648581e-02
4.209315164017e-02
4.182869360500e-02
4.156583127744e-02
4.130455360311e-02
4.104484957550e-02
4.078670823533e-02
4.053011866994e-02
4.027507001267e-02
4.002155144222e-02
3.976955218206e-02
3.951906149979e-02
3.927006870652e-02
3.902256315627e-02
3.877653424537e-02
3.853197141179e-02
3.828886413459e-02
3.804720193329e-02
3.780697436726e-02
3.756817103510e-02
3.733078157407e-02
3.709479565946e-02
3.686020300400e-02
3.662699335728e-02
3.639515650512e-02
3.616468226903e-02
3.593556050558e-02
3.570778110583e-02
3.548133399473e-02
3.525620913061e-02
3.503239650450e-02
3.480988613965e-02
3.458866809093e-02
3.436873244426e-02
3.415006931607e-02
3.393266885273e-02
3.371652123003e-02
3.350161665262e-02
3.328794535348e-02
3.307549759338e-02
3.286426366038e-02
3.265423386930e-02
3.244539856121e-02
3.223774810294e-02
3.203127288658e-02
3.182596332898e-02
3.162180987132e-02
3.141880297858e-02
3.121693313916e-02
3.101619086434e-02
3.081656668794e-02
3.061805116583e-02
3.042063487554e-02
3.022430841585e-02
3.002906240642e-02
2.983488748740e-02
2.964177431908e-02
2.944971358154e-02
2.925869597432e-02
2.906871221610e-02
2.887975304441e-02
2.869180921535e-02
2.850487150334e-02
2.831893070086e-02
2.813397761824e-02
2.795000308343e-02
2.776699794187e-02
2.758495305631e-02
2.740385930666e-02
2.722370758990e-02
2.704448881999e-02
2.686619392783e-02
2.668881386119e-02
2.651233958474e-02
2.633676208010e-02
2.616207234584e-02
2.598826139762e-02
2.581532026829e-02
2.564324000807e-02
2.547201168470e-02
2.530162638375e-02
2.513207520880e-02
2.496334928181e-02
2.479543974345e-02
2.462833775348e-02
2.446203449121e-02
2.429652115597e-02
2.413178896763e-02
2.396782916717e-02
2.380463301734e-02
2.364219180329e-02
2.348049683332e-02
2.331953943967e-02
2.315931097936e-02
2.299980283506e-02
2.284100641606e-02
2.268291315929e-02
2.252551453040e-02
2.236880202490e-02
2.221276716933e-02
2.205740152261e-02
2.190269667731e-02
2.174864426111e-02
2.159523593825e-02
2.144246341112e-02
2.129031842189e-02
2.113879275419e-02
2.098787823495e-02
2.083756673623e-02
2.068785017719e-02
2.053872052611e-02
2.039016980252e-02
2.024219007940e-02
2.009477348548e-02
1.994791220759e-02
1.980159849315e-02
1.965582465273e-02
1.951058306268e-02
1.936586616789e-02
1.922166648459e-02
1.907797660331e-02
1.893478919189e-02
1.879209699857e-02
1.864989285522e-02
1.850816968064e-02
1.836692048391e-02
1.822613836797e-02
1.808581653308e-02
1.794594828060e-02
1.780652701668e-02
1.766754625616e-02
1.752899962646e-02
1.739088087168e-02
1.725318385663e-02
1.711590257111e-02
1.697903113411e-02
1.684256379822e-02
1.670649495403e-02
1.657081913462e-02
1.643553102017e-02
1.630062544253e-02
1.616609738995e-02
1.603194201180e-02
1.589815462339e-02
1.576473071075e-02
1.563166593553e-02
1.549895613992e-02
1.536659735155e-02
1.523458578840e-02
1.510291786381e-02
1.497159019141e-02
1.484059959003e-02
1.470994308865e-02
1.457961793133e-02
1.444962158202e-02
1.431995172941e-02
1.419060629169e-02
1.406158342124e-02
1.393288150926e-02
1.380449919027e-02
1.367643534658e-02
1.354868911254e-02
1.342125987878e-02
1.329414729619e-02
1.316735127988e-02
1.304087201281e-02
1.291470994940e-02
1.278886581883e-02
1.266334062817e-02
1.253813566531e-02
1.241325250159e-02
1.228869299420e-02
1.216445928835e-02
1.204055381913e-02
1.191697931301e-02
1.179373878915e-02
1.167083556024e-02
1.154827323316e-02
1.142605570910e-02
1.130418718349e-02
1.118267214542e-02
1.106151537671e-02
1.094072195060e-02
1.082029722997e-02
1.070024686515e-02
1.058057679135e-02
1.046129322552e-02
1.034240266284e-02
1.022391187278e-02
1.010582789457e-02
9.988158032280e-03
9.870909849426e-03
9.754091163039e-03
9.637710037285e-03
9.521774776593e-03
9.406293918290e-03
9.291276224763e-03
9.176730675130e-03
9.062666456445e-03
8.949092954432e-03
8.836019743755e-03
8.723456577841e-03
8.611413378260e-03
8.499900223682e-03
8.388927338412e-03
8.278505080533e-03
8.168643929669e-03
8.059354474380e-03
7.950647399217e-03
7.842533471458e-03
7.735023527543e-03
7.628128459237e-03
7.521859199540e-03
7.416226708379e-03
7.311241958106e-03
7.206915918825e-03
7.103259543590e-03
7.000283753489e-03
6.897999422664e-03
6.796417363279e-03
6.695548310481e-03
6.595402907391e-03
6.495991690139e-03
6.397325072998e-03
6.299413333639e-03
6.202266598535e-03
6.105894828567e-03
6.010307804844e-03
5.915515114774e-03
5.821526138432e-03
5.728350035240e-03
5.635995730988e-03
5.544471905246e-03
5.453786979166e-03
5.363949103730e-03
5.274966148445e-03
5.186845690528e-03
5.099595004588e-03
5.013221052849e-03
4.927730475903e-03
4.843129584037e-03
4.759424349142e-03
4.676620397217e-03
4.594723001472e-03
4.513737076066e-03
4.433667170463e-03
4.354517464424e-03
4.276291763642e-03
4.198993496020e-03
4.122625708595e-03
4.047191065103e-03
3.972691844186e-03
3.899129938245e-03
3.826506852911e-03
3.754823707151e-03
3.684081233985e-03
3.614279781800e-03
3.545419316267e-03
3.477499422828e-03
3.410519309737e-03
3.344477811665e-03
3.279373393812e-03
3.215204156538e-03
3.151967840482e-03
3.089661832144e-03
3.028283169915e-03
2.967828550528e-03
2.908294335916e-03
2.849676560439e-03
2.791970938464e-03
2.735172872282e-03
2.679277460323e-03
2.624279505646e-03
2.570173524699e-03
2.516953756291e-03
2.464614170787e-03
2.413148479473e-03
2.362550144087e-03
2.312812386477e-03
2.263928198377e-03
2.215890351270e-03
2.168691406313e-03
2.122323724315e-03
2.076779475732e-03
2.032050650669e-03
1.988129068868e-03
1.945006389659e-03
1.902674121860e-03
1.861123633610e-03
1.820346162109e-03
1.780332823271e-03
1.741074621247e-03
1.702562457825e-03
1.664787141694e-03
1.627739397541e-03
1.591409874998e-03
1.555789157399e-03
1.520867770366e-03
1.486636190194e-03
1.453084852036e-03
1.420204157885e-03
1.387984484335e-03
1.356416190132e-03
1.325489623495e-03
1.295195129212e-03
1.265523055507e-03
1.236463760667e-03
1.208007619449e-03
1.180145029233e-03
1.152866415953e-03
1.126162239785e-03
1.100023000598e-03
1.074439243172e-03
1.049401562184e-03
1.024900606956e-03
1.000927085982e-03
9.774717712172e-04
9.545255021562e-04
9.320791896787e-04
9.101238196848e-04
8.886504565153e-04
8.676502461633e-04
8.471144192809e-04
8.270342939860e-04
8.074012784732e-04
7.882068734353e-04
7.694426742980e-04
7.511003732751e-04
7.331717612480e-04
7.156487294757e-04
6.985232711396e-04
6.817874827297e-04
6.654335652764e-04
6.494538254340e-04
6.338406764212e-04
6.185866388237e-04
6.036843412645e-04
5.891265209467e-04
5.749060240752e-04
5.610158061606e-04
5.474489322126e-04
5.341985768261e-04
5.212580241655e-04
5.086206678532e-04
4.962800107649e-04
4.842296647384e-04
4.724633501991e-04
4.609748957074e-04
4.497582374317e-04
4.388074185524e-04
4.281165885993e-04
4.176800027275e-04
4.074920209361e-04
3.975471072318e-04
3.878398287429e-04
3.783648547859e-04
3.691169558886e-04
3.600910027727e-04
3.512819652999e-04
3.426849113830e-04
3.342950058666e-04
3.261075093789e-04
3.181177771579e-04
3.103212578545e-04
3.027134923149e-04
2.952901123449e-04
2.880468394580e-04
2.809794836090e-04
2.740839419172e-04
2.673561973781e-04
2.607923175683e-04
2.543884533430e-04
2.481408375303e-04
2.420457836212e-04
2.360996844585e-04
2.302990109261e-04
2.246403106390e-04
2.191202066359e-04
2.137353960756e-04
2.084826489382e-04
2.033588067324e-04
1.983607812088e-04
1.934855530824e-04
1.887301707621e-04
1.840917490912e-04
1.795674680963e-04
1.751545717490e-04
1.708503667373e-04
1.666522212503e-04
1.625575637746e-04
1.585638819046e-04
1.546687211654e-04
1.508696838507e-04
1.471644278739e-04
1.435506656345e-04
1.400261628993e-04
1.365887376986e-04
1.332362592377e-04
1.299666468245e-04
1.267778688120e-04
1.236679415577e-04
1.206349283979e-04
1.176769386390e-04
1.147921265643e-04
1.119786904574e-04
1.092348716417e-04
1.065589535357e-04
1.039492607251e-04
1.014041580508e-04
9.892204971273e-05
9.650137839031e-05
9.414062437821e-05
9.183830473848e-05
8.959297246824e-05
8.740321568306e-05
8.526765681587e-05
8.318495183129e-05
8.115378945516e-05
7.917289041929e-05
7.724100672106e-05
7.535692089781e-05
7.351944531598e-05
7.172742147447e-05
6.997971932251e-05
6.827523659142e-05
6.661289814037e-05
6.499165531577e-05
6.341048532424e-05
6.186839061886e-05
6.036439829846e-05
5.889755951998e-05
5.746694892333e-05
5.607166406897e-05
5.471082488764e-05
5.338357314222e-05
5.208907190152e-05
5.082650502575e-05
4.959507666341e-05
4.839401075956e-05
4.722255057505e-05
4.607995821676e-05
4.496551417838e-05
4.387851689174e-05
4.281828228839e-05
4.178414337131e-05
4.077544979637e-05
3.979156746364e-05
3.883187811809e-05
3.789577895963e-05
3.698268226227e-05
3.609201500223e-05
3.522321849473e-05
3.437574803950e-05
3.354907257447e-05
3.274267433791e-05
3.195604853840e-05
3.118870303283e-05
3.044015801198e-05
2.970994569377e-05
2.899761002372e-05
2.830270638278e-05
2.762480130211e-05
2.696347218480e-05
2.631830703431e-05
2.568890418954e-05
2.507487206631e-05
2.447582890517e-05
2.389140252535e-05
2.332123008474e-05
2.276495784572e-05
2.222224094681e-05
2.169274317985e-05
2.117613677271e-05
2.067210217736e-05
2.018032786315e-05
1.970051011522e-05
1.923235283789e-05
1.877556736290e-05
1.832987226250e-05
1.789499316706e-05
1.747066258729e-05
1.705661974089e-05
41 92.908 4.0421 fcc
0.000000000000e+00
-5.027651032350e-02
-1.002090017851e-01
-1.497986756068e-01
-1.990467330108e-01
-2.479543752191e-01
-2.965228034538e-01
-3.447532189370e-01
-3.926468228908e-01
-4.402048165371e-01
-4.874284010983e-01
-5.343187777962e-01
-5.808771478530e-01
-6.271047124907e-01
-6.730026729315e-01
-7.185722303974e-01
-7.638145861106e-01
-8.087309412930e-01
-8.533224971667e-01
-8.975904549539e-01
-9.415360158767e-01
-9.851603811570e-01
-1.028464752017e+00
-1.071450329679e+00
-1.114118315364e+00
-1.156469910296e+00
-1.198506315695e+00
-1.240228732785e+00
-1.281638362787e+00
-1.322736406923e+00
-1.363524066415e+00
-1.404002542486e+00
-1.444173036357e+00
-1.484036749251e+00
-1.523594882389e+00
-1.562848636995e+00
-1.601799214288e+00
-1.640447815493e+00
-1.678795641831e+00
-1.716843894524e+00
-1.754593774794e+00
-1.792046483863e+00
-1.829203222953e+00
-1.866065193287e+00
-1.902633596087e+00
-1.938909632573e+00
-1.974894503970e+00
-2.010589411498e+00
-2.045995556380e+00
-2.081114139837e+00
-2.115946363093e+00
-2.150493427368e+00
-2.184756533886e+00
-2.218736883868e+00
-2.252435678536e+00
-2.285854119112e+00
-2.318993406819e+00
-2.351854742878e+00
-2.384439328512e+00
-2.416748364943e+00
-2.448783053392e+00
-2.480544595082e+00
-2.512034191235e+00
-2.543253043072e+00
-2.574202351817e+00
-2.604883318691e+00
-2.635297144916e+00
-2.665445031715e+00
-2.695328180309e+00
-2.724947791920e+00
-2.754305067771e+00
-2.783401209083e+00
-2.812237417079e+00
-2.840814892981e+00
-2.869134838011e+00
-2.897198453391e+00
-2.925006940342e+00
-2.952561500088e+00
-2.979863333850e+00
-3.006913642850e+00
-3.033713628310e+00
-3.060264491453e+00
-3.086567433500e+00
-3.112623655674e+00
-3.138434359197e+00
-3.164000745290e+00
-3.189324015176e+00
-3.214405370077e+00
-3.239246011215e+00
-3.263847139812e+00
-3.288209957090e+00
-3.312335664271e+00
-3.336225462577e+00
-3.359880553231e+00
-3.383302137455e+00
-3.406491416470e+00
-3.429449591498e+00
-3.452177863762e+00
-3.474677434484e+00
-3.496949504886e+00
-3.518995276189e+00
-3.540815949617e+00
-3.562412726391e+00
-3.583786807733e+00
-3.604939394865e+00
-3.625871689009e+00
-3.646584891388e+00
-3.667080203223e+00
-3.687358825737e+00
-3.707421960152e+00
-3.727270807689e+00
-3.746906569571e+00
-3.766330447020e+00
-3.785543641258e+00
-3.804547353507e+00
-3.823342784989e+00
-3.841931136927e+00
-3.860313610541e+00
-3.878491407055e+00
-3.896465727690e+00
-3.914237773669e+00
-3.931808746214e+00
-3.949179846546e+00
-3.966352275888e+00
-3.983327235462e+00
-4.000105926489e+00
-4.016689550193e+00
-4.033079307795e+00
-4.049276400517e+00
-4.065282029581e+00
-4.081097396209e+00
-4.096723701624e+00
-4.112162147048e+00
-4.127413933702e+00
-4.142480262808e+00
-4.157362335590e+00
-4.172061353268e+00
-4.186578517065e+00
-4.200915028203e+00
-4.215072087904e+00
-4.229050897390e+00
-4.242852657883e+00
-4.256478570606e+00
-4.269929836780e+00
-4.283207657627e+00
-4.296313234370e+00
-4.309247768231e+00
-4.322012460431e+00
-4.334608512193e+00
-4.347037124739e+00
-4.359299499291e+00
-4.371396837070e+00
-4.383330339300e+00
-4.395101207202e+00
-4.406710641998e+00
-4.418159844911e+00
-4.429450017162e+00
-4.440582359973e+00
-4.451558074567e+00
-4.462378362166e+00
-4.473044423991e+00
-4.483557461266e+00
-4.493918675211e+00
-4.504129267049e+00
-4.514190438002e+00
-4.524103389292e+00
-4.533869322141e+00
-4.543489437772e+00
-4.552964937406e+00
-4.562297022265e+00
-4.571486893572e+00
-4.580535752549e+00
-4.589444800417e+00
-4.598215238399e+00
-4.606848267717e+00
-4.615345089593e+00
-4.623706905249e+00
-4.631934915907e+00
-4.640030322789e+00
-4.647994327117e+00
-4.655828130114e+00
-4.663532933001e+00
-4.671109937000e+00
-4.678560343334e+00
-4.685885353225e+00
-4.693086167894e+00
-4.700163988565e+00
-4.707120016458e+00
-4.713955452796e+00
-4.720671498801e+00
-4.727269355695e+00
-4.733750224701e+00
-4.740115307039e+00
-4.746365803933e+00
-4.752502916605e+00
-4.758527846276e+00
-4.764441794169e+00
-4.770245961505e+00
-4.775941549507e+00
-4.781529759397e+00
-4.787011792397e+00
-4.792388849729e+00
-4.797662132615e+00
-4.802832842277e+00
-4.807902179937e+00
-4.812871346818e+00
-4.817741544141e+00
-4.822513973128e+00
-4.827189835003e+00
-4.831770330985e+00
-4.836256662299e+00
-4.840650030165e+00
-4.844951635806e+00
-4.849162680444e+00
-4.853284365302e+00
-4.857317891600e+00
-4.861264460561e+00
-4.865125273408e+00
-4.868901531362e+00
-4.872594435646e+00
-4.876205187481e+00
-4.879734988090e+00
-4.883185038694e+00
-4.886556540516e+00
-4.889850694778e+00
-4.893068702702e+00
-4.896211765510e+00
-4.899281084424e+00
-4.902277860666e+00
-4.905203295459e+00
-4.908058590023e+00
-4.910844945582e+00
-4.913563563358e+00
-4.916215644572e+00
-4.918802390447e+00
-4.921325002205e+00
-4.923784681067e+00
-4.926182628256e+00
-4.928520044994e+00
-4.930797709632e+00
-4.933016530518e+00
-4.935176453353e+00
-4.937277687332e+00
-4.939320441652e+00
-4.941304925509e+00
-4.943231348099e+00
-4.945099918618e+00
-4.946910846262e+00
-4.948664340228e+00
-4.950360609711e+00
-4.951999863907e+00
-4.953582312013e+00
-4.955108163224e+00
-4.956577626737e+00
-4.957990911748e+00
-4.959348227453e+00
-4.960649783047e+00
-4.961895787728e+00
-4.963086450691e+00
-4.964221981131e+00
-4.965302588246e+00
-4.966328481232e+00
-4.967299869283e+00
-4.968216961598e+00
-4.969079967371e+00
-4.969889095798e+00
-4.970644556076e+00
-4.971346557401e+00
-4.971995308969e+00
-4.972591019976e+00
-4.973133899618e+00
-4.973624157092e+00
-4.974062001592e+00
-4.974447642316e+00
-4.974781288459e+00
-4.975063149217e+00
-4.975293433788e+00
-4.975472351365e+00
-4.975600111147e+00
-4.975676922328e+00
-4.975702994106e+00
-4.975678535675e+00
-4.975603756232e+00
-4.975478864973e+00
-4.975304071095e+00
-4.975079583793e+00
-4.974805612263e+00
-4.974482365702e+00
-4.974110053306e+00
-4.973688884270e+00
-4.973219067790e+00
-4.972700813064e+00
-4.972134329286e+00
-4.971519825654e+00
-4.970857511362e+00
-4.970147595608e+00
-4.969390287586e+00
-4.968585796494e+00
-4.967734331528e+00
-4.966836101883e+00
-4.965891316755e+00
-4.964900185341e+00
-4.963862916837e+00
-4.962779720438e+00
-4.961650805342e+00
-4.960476380743e+00
-4.959256655839e+00
-4.957991839824e+00
-4.956682141896e+00
-4.955327771250e+00
-4.953928937082e+00
-4.952485848589e+00
-4.950998714967e+00
-4.949467745411e+00
-4.947893149117e+00
-4.946275135283e+00
-4.944613913103e+00
-4.942909691774e+00
-4.941162680493e+00
-4.939373088454e+00
-4.937541124854e+00
-4.935666998890e+00
-4.933750919758e+00
-4.931792923562e+00
-4.929792540474e+00
-4.927750080150e+00
-4.925665700688e+00
-4.923539559114e+00
-4.921371811392e+00
-4.919162612435e+00
-4.916912116115e+00
-4.914620475273e+00
-4.912287841730e+00
-4.909914366295e+00
-4.907500198777e+00
-4.905045487990e+00
-4.902550381771e+00
-4.900015026980e+00
-4.897439569515e+00
-4.894824154321e+00
-4.892168925394e+00
-4.889474025797e+00
-4.886739597663e+00
-4.883965782209e+00
-4.881152719738e+00
-4.878300549654e+00
-4.875409410466e+00
-4.872479439798e+00
-4.869510774398e+00
-4.866503550142e+00
-4.863457902049e+00
-4.860373964283e+00
-4.857251870163e+00
-4.854091752169e+00
-4.850893741952e+00
-4.847657970343e+00
-4.844384567354e+00
-4.841073662191e+00
-4.837725383261e+00
-4.834339858174e+00
-4.830917213758e+00
-4.827457576059e+00
-4.823961070352e+00
-4.820427821147e+00
-4.816857952193e+00
-4.813251586490e+00
-4.809608846290e+00
-4.805929853108e+00
-4.802214727726e+00
-4.798463590201e+00
-4.794676559868e+00
-4.790853755350e+00
-4.786995294563e+00
-4.783101294721e+00
-4.779171872344e+00
-4.775207143261e+00
-4.771207222620e+00
-4.767172224889e+00
-4.763102263866e+00
-4.758997452683e+00
-4.754857903811e+00
-4.750683729066e+00
-4.746475039615e+00
-4.742231945982e+00
-4.737954558051e+00
-4.733642985074e+00
-4.729297335675e+00
-4.724917717855e+00
-4.720504238997e+00
-4.716057005874e+00
-4.711576124649e+00
-4.707061700884e+00
-4.702513839543e+00
-4.697932644999e+00
-4.693318221035e+00
-4.688670670853e+00
-4.683990097076e+00
-4.679276601755e+00
-4.674530286369e+00
-4.669751251836e+00
-4.664939598513e+00
-4.660095426202e+00
-4.655218834153e+00
-4.650309921072e+00
-4.645368785121e+00
-4.640395523926e+00
-4.635390234577e+00
-4.630353013638e+00
-4.625283957144e+00
-4.620183160614e+00
-4.615050719045e+00
-4.609886726925e+00
-4.604691278231e+00
-4.599464466437e+00
-4.594206384514e+00
-4.588917124938e+00
-4.583596779689e+00
-4.578245440262e+00
-4.572863197661e+00
-4.567450142413e+00
-4.562006364564e+00
-4.556531953685e+00
-4.551026998879e+00
-4.545491588778e+00
-4.539925811553e+00
-4.534329754913e+00
-4.528703506111e+00
-4.523047151947e+00
-4.517360778770e+00
-4.511644472483e+00
-4.505898318545e+00
-4.500122401975e+00
-4.494316807358e+00
-4.488481618841e+00
-4.482616920145e+00
-4.476722794561e+00
-4.470799324958e+00
-4.464846593783e+00
-4.458864683065e+00
-4.452853674421e+00
-4.446813649053e+00
-4.440744687756e+00
-4.434646870920e+00
-4.428520278531e+00
-4.422364990176e+00
-4.416181085045e+00
-4.409968641934e+00
-4.403727739247e+00
-4.397458455001e+00
-4.391160866827e+00
-4.384835051973e+00
-4.378481087306e+00
-4.372099049317e+00
-4.365689014122e+00
-4.359251057464e+00
-4.352785254717e+00
-4.346291680889e+00
-4.339770410623e+00
-4.333221518201e+00
-4.326645077544e+00
-4.320041162219e+00
-4.313409845436e+00
-4.306751200056e+00
-4.300065298589e+00
-4.293352213199e+00
-4.286612015705e+00
-4.279844777584e+00
-4.273050569974e+00
-4.266229463674e+00
-4.259381529151e+00
-4.252506836537e+00
-4.245605455632e+00
-4.238677455912e+00
-4.231722906523e+00
-4.224741876289e+00
-4.217734433714e+00
-4.210700646978e+00
-4.203640583949e+00
-4.196554312177e+00
-4.189441898898e+00
-4.182303411040e+00
-4.175138915220e+00
-4.167948477749e+00
-4.160732164634e+00
-4.153490041577e+00
-4.146222173981e+00
-4.138928626950e+00
-4.131609465293e+00
-4.124264753520e+00
-4.116894555853e+00
-4.109498936218e+00
-4.102077958258e+00
-4.094631685323e+00
-4.087160180481e+00
-4.079663506516e+00
-4.072141725930e+00
-4.064594900947e+00
-4.057023093511e+00
-4.049426365290e+00
-4.041804777679e+00
-4.034158391799e+00
-4.026487268502e+00
-4.018791468368e+00
-4.011071051713e+00
-4.003326078585e+00
-3.995556608769e+00
-3.987762701787e+00
-3.979944416901e+00
-3.972101813114e+00
-3.964234949172e+00
-3.956343883564e+00
-3.948428674525e+00
-3.940489380040e+00
-3.932526057840e+00
-3.924538765408e+00
-3.916527559979e+00
-3.908492498542e+00
-3.900433637841e+00
-3.892351034377e+00
-3.884244744408e+00
-3.876114823955e+00
-3.867961328796e+00
-3.859784314476e+00
-3.851583836300e+00
-3.843359949343e+00
-3.835112708444e+00
-3.826842168211e+00
-3.818548383023e+00
-3.810231407030e+00
-3.801891294154e+00
-3.793528098091e+00
-3.785141872313e+00
-3.776732670070e+00
-3.768300544388e+00
-3.759845548073e+00
-3.751367733714e+00
-3.742867153680e+00
-3.734343860123e+00
-3.725797904981e+00
-3.717229339979e+00
-3.708638216626e+00
-3.700024586223e+00
-3.691388499860e+00
-3.682730008416e+00
-3.674049162564e+00
-3.665346012771e+00
-3.656620609299e+00
-3.647873002204e+00
-3.639103241340e+00
-3.630311376360e+00
-3.621497456716e+00
-3.612661531661e+00
-3.603803650250e+00
-3.594923861340e+00
-3.586022213593e+00
-3.577098755477e+00
-3.568153535265e+00
-3.559186601037e+00
-3.550198000685e+00
-3.541187781906e+00
-3.532155992213e+00
-3.523102678926e+00
-3.514027889181e+00
-3.504931669927e+00
-3.495814067929e+00
-3.486675129768e+00
-3.477514901841e+00
-3.468333430365e+00
-3.459130761374e+00
-3.449906940726e+00
-3.440662014095e+00
-3.431396026983e+00
-3.422109024712e+00
-3.412801052429e+00
-3.403472155106e+00
-3.394122377541e+00
-3.384751764362e+00
-3.375360360022e+00
-3.365948208804e+00
-3.356515354822e+00
-3.347061842020e+00
-3.337587714176e+00
-3.328093014897e+00
-3.318577787628e+00
-3.309042075648e+00
-3.299485922068e+00
-3.289909369841e+00
-3.280312461753e+00
-3.270695240432e+00
-3.261057748342e+00
-3.251400027789e+00
-3.241722120920e+00
-3.232024069723e+00
-3.222305916029e+00
-3.212567701514e+00
-3.202809467695e+00
-3.193031255938e+00
-3.183233107454e+00
-3.173415063299e+00
-3.163577164379e+00
-3.153719451447e+00
-3.143841965107e+00
-3.133944745813e+00
-3.124027833867e+00
-3.114091269426e+00
-3.104135092500e+00
-3.094159342949e+00
-3.084164060490e+00
-3.074149284693e+00
-3.064115054986e+00
-3.054061410652e+00
-3.043988390829e+00
-3.033896034518e+00
-3.023784380573e+00
-3.013653467713e+00
-3.003503334512e+00
-2.993334019408e+00
-2.983145560700e+00
-2.972937996550e+00
-2.962711364980e+00
-2.952465703879e+00
-2.942201051000e+00
-2.931917443960e+00
-2.921614920243e+00
-2.911293517197e+00
-2.900953272042e+00
-2.890594221860e+00
-2.880216403607e+00
-2.869819854105e+00
-2.859404610048e+00
-2.848970707997e+00
-2.838518184389e+00
-2.828047075530e+00
-2.817557417598e+00
-2.807049246648e+00
-2.796522598604e+00
-2.785977509267e+00
-2.775414014314e+00
-2.764832149296e+00
-2.754231949640e+00
-2.743613450653e+00
-2.732976687517e+00
-2.722321695292e+00
-2.711648508919e+00
-2.700957163216e+00
-2.690247692883e+00
-2.679520132500e+00
-2.668774516527e+00
-2.658010879308e+00
-2.647229255068e+00
-2.636429677916e+00
-2.625612181843e+00
-2.614776800726e+00
-2.603923568325e+00
-2.593052518286e+00
-2.582163684142e+00
-2.571257099310e+00
-2.560332797097e+00
-2.549390810695e+00
-2.538431173185e+00
-2.527453917536e+00
-2.516459076608e+00
-2.505446683148e+00
-2.494416769796e+00
-2.483369369081e+00
-2.472304513423e+00
-2.461222235136e+00
-2.450122566423e+00
-2.439005539384e+00
-2.427871186008e+00
-2.416719538181e+00
-2.405550627683e+00
-2.394364486187e+00
-2.383161145263e+00
-2.371940636378e+00
-2.360702990893e+00
-2.349448240067e+00
-2.338176415056e+00
-2.326887546915e+00
-2.315581666596e+00
-2.304258804950e+00
-2.292918992729e+00
-2.281562260582e+00
-2.270188639061e+00
-2.258798158617e+00
-2.247390849602e+00
-2.235966742271e+00
-2.224525866781e+00
-2.213068253191e+00
-2.201593931462e+00
-2.190102931460e+00
-2.178595282955e+00
-2.167071015620e+00
-2.155530159035e+00
-2.143972742683e+00
-2.132398795954e+00
-2.120808348144e+00
-2.109201428456e+00
-2.097578065998e+00
-2.085938289788e+00
-2.074282128750e+00
-2.062609611718e+00
-2.050920767433e+00
-2.039215624546e+00
-2.027494211618e+00
-2.015756557118e+00
-2.004002689427e+00
-1.992232636838e+00
-1.980446427552e+00
-1.968644089684e+00
-1.956825651260e+00
-1.944991140219e+00
-1.933140584412e+00
-1.921274011604e+00
-1.909391449472e+00
-1.897492925609e+00
-1.885578467521e+00
-1.873648102630e+00
-1.861701858271e+00
-1.849739761696e+00
-1.837761840073e+00
-1.825768120485e+00
-1.813758629934e+00
-1.801733395336e+00
-1.789692443525e+00
-1.777635801256e+00
-1.765563495197e+00
-1.753475551939e+00
-1.741371997988e+00
-1.729252859773e+00
-1.717118163638e+00
-1.704967935852e+00
-1.692802202599e+00
-1.680620989988e+00
-1.668424324046e+00
-1.656212230724e+00
-1.643984735891e+00
-1.631741865340e+00
-1.619483644788e+00
-1.607210099872e+00
-1.594921256152e+00
-1.582617139113e+00
-1.570297774162e+00
-1.557963186632e+00
-1.545613401779e+00
-1.533248444782e+00
-1.520868340749e+00
-1.508473114709e+00
-1.496062791619e+00
-1.483637396362e+00
-1.471196953746e+00
-1.458741488507e+00
-1.446271025307e+00
-1.433785588734e+00
-1.421285203306e+00
-1.408769893468e+00
-1.396239683591e+00
-1.383694597978e+00
-1.371134660857e+00
-1.358559896388e+00
-1.345970328659e+00
-1.333365981687e+00
-1.320746879421e+00
-1.308113045738e+00
-1.295464504446e+00
-1.282801279285e+00
-1.270123393925e+00
-1.257430871968e+00
-1.244723736946e+00
-1.232002012326e+00
-1.219265721505e+00
-1.206514887812e+00
-1.193749534511e+00
-1.180969684798e+00
-1.168175361802e+00
-1.155366588585e+00
-1.142543388145e+00
-1.129705783412e+00
-1.116853797253e+00
-1.103987452466e+00
-1.091106771788e+00
-1.078211777889e+00
-1.065302493375e+00
-1.052378940787e+00
-1.039441142604e+00
-1.026489121240e+00
-1.013522899044e+00
-1.000542498306e+00
-9.875479412498e-01
-9.745392500371e-01
-9.615164467677e-01
-9.484795534793e-01
-9.354285921474e-01
-9.223635846862e-01
-9.092845529482e-01
-8.961915187249e-01
-8.830845037470e-01
-8.699635296845e-01
-8.568286181470e-01
-8.436797906839e-01
-8.305170687848e-01
-8.173404738795e-01
-8.041500273385e-01
-7.909457504730e-01
-7.777276645354e-01
-7.644957907192e-01
-7.512501501596e-01
-7.379907639334e-01
-7.247176530594e-01
-7.114308384987e-01
-6.981303411549e-01
-6.848161818741e-01
-6.714883814453e-01
-6.581469606008e-01
-6.447919400161e-01
-6.314233403104e-01
-6.180411820466e-01
-6.046454857315e-01
-5.912362718165e-01
-5.778135606972e-01
-5.643773727138e-01
-5.509277281517e-01
-5.374646472410e-01
-5.239881501575e-01
-5.104982570224e-01
-4.969949879025e-01
-4.834783628109e-01
-4.699484017065e-01
-4.564051244948e-01
-4.428485510278e-01
-4.292787011045e-01
-4.156955944706e-01
-4.020992508192e-01
-3.884896897907e-01
-3.748669309733e-01
-3.612309939028e-01
-3.475818980631e-01
-3.339196628865e-01
-3.202443077533e-01
-3.065558519929e-01
-2.928543148831e-01
-2.791397156511e-01
-2.654120734728e-01
-2.516714074740e-01
-2.379177367299e-01
-2.241510802653e-01
-2.103714570552e-01
-1.965788860248e-01
-1.827733860494e-01
-1.689549759551e-01
-1.551236745185e-01
-1.412795004674e-01
-1.274224724804e-01
-1.135526091876e-01
-9.966992917044e-02
-8.577445096211e-02
-7.186619304755e-02
-5.794517386377e-02
-4.401141179994e-02
-3.006492519763e-02
-1.610573235094e-02
-2.133851506725e-03
1.185069913528e-02
2.584790142225e-02
3.985773724809e-02
5.388018855330e-02
6.791523732475e-02
8.196286559554e-02
9.602305544483e-02
1.100957889977e-01
1.241810484248e-01
1.382788159425e-01
1.523890738124e-01
1.665118043415e-01
1.806469898817e-01
1.947946128296e-01
2.089546556269e-01
2.231271007596e-01
2.373119307581e-01
2.515091281970e-01
2.657186756951e-01
2.799405559150e-01
2.941747515629e-01
3.084212453889e-01
3.226800201863e-01
3.369510587916e-01
3.512343440846e-01
3.655298589879e-01
3.798375864669e-01
3.941575095298e-01
4.084896112270e-01
4.228338746515e-01
4.371902829383e-01
4.515588192645e-01
4.659394668490e-01
4.803322089526e-01
4.947370288774e-01
5.091539099672e-01
5.235828356069e-01
5.380237892225e-01
5.524767542811e-01
5.669417142906e-01
5.814186527995e-01
5.959075533970e-01
6.104083997125e-01
6.249211754158e-01
6.394458642168e-01
6.539824498653e-01
6.685309161509e-01
6.830912469030e-01
6.976634259906e-01
7.122474373218e-01
7.268432648442e-01
7.414508925445e-01
7.560703044484e-01
7.707014846205e-01
7.853444171639e-01
7.999990862204e-01
8.146654759704e-01
8.293435706324e-01
8.440333544631e-01
8.587348117573e-01
8.734479268477e-01
8.881726841049e-01
9.029090679368e-01
9.176570627892e-01
9.324166531450e-01
9.471878235245e-01
9.619705584851e-01
9.767648426212e-01
9.915706605641e-01
1.006387996982e+00
1.021216836578e+00
1.036057164096e+00
1.050908964311e+00
1.065772222038e+00
1.080646922126e+00
1.095533049461e+00
1.110430588964e+00
1.125339525594e+00
1.140259844344e+00
1.155191530240e+00
1.170134568349e+00
1.185088943768e+00
1.200054641631e+00
1.215031647109e+00
1.230019945405e+00
1.245019521759e+00
1.260030361443e+00
1.275052449766e+00
1.290085772071e+00
1.305130313734e+00
1.320186060167e+00
1.335252996814e+00
1.350331109154e+00
1.365420382702e+00
1.380520803002e+00
1.395632355636e+00
1.410755026218e+00
1.425888800393e+00
1.441033663844e+00
1.456189602283e+00
1.471356601457e+00
1.486534647147e+00
1.501723725163e+00
1.516923821352e+00
1.532134921591e+00
1.547357011791e+00
1.562590077894e+00
1.577834105875e+00
1.593089081741e+00
1.608354991533e+00
1.623631821320e+00
1.638919557206e+00
1.654218185327e+00
1.669527691848e+00
1.684848062967e+00
1.700179284914e+00
1.715521343951e+00
1.730874226368e+00
1.746237918490e+00
1.761612406670e+00
1.776997677294e+00
1.792393716778e+00
1.807800511568e+00
1.823218048142e+00
1.838646313009e+00
1.854085292706e+00
1.869534973802e+00
1.884995342896e+00
1.900466386617e+00
1.915948091624e+00
1.931440444606e+00
1.946943432283e+00
1.962457041402e+00
1.977981258743e+00
1.993516071113e+00
2.009061465348e+00
2.024617428317e+00
2.040183946915e+00
2.055761008067e+00
2.071348598727e+00
2.086946705878e+00
2.102555316533e+00
2.118174417732e+00
2.133803996545e+00
2.149444040070e+00
2.165094535434e+00
2.180755469792e+00
2.196426830327e+00
2.212108604252e+00
2.227800778806e+00
2.243503341258e+00
2.259216278902e+00
2.274939579064e+00
2.290673229094e+00
2.306417216373e+00
2.322171528307e+00
2.337936152330e+00
2.353711075905e+00
2.369496286522e+00
2.385291771696e+00
2.401097518973e+00
2.416913515921e+00
2.432739750141e+00
2.448576209257e+00
2.464422880920e+00
2.480279752809e+00
2.496146812630e+00
2.512024048114e+00
2.527911447019e+00
2.543808997131e+00
2.559716686261e+00
2.575634502247e+00
2.591562432951e+00
2.607500466264e+00
2.623448590101e+00
2.639406792405e+00
2.655375061142e+00
2.671353384307e+00
2.687341749918e+00
2.703340146020e+00
2.719348560684e+00
2.735366982005e+00
2.751395398104e+00
2.767433797128e+00
2.783482167249e+00
2.799540496663e+00
2.815608773593e+00
2.831686986285e+00
2.847775123011e+00
2.863873172068e+00
2.879981121777e+00
2.896098960485e+00
2.912226676562e+00
2.928364258405e+00
2.944511694432e+00
2.960668973087e+00
2.976836082841e+00
2.993013012184e+00
3.009199749635e+00
3.025396283734e+00
3.041602603047e+00
3.057818696163e+00
3.074044551693e+00
3.090280158277e+00
3.106525504573e+00
3.122780579266e+00
3.139045371063e+00
3.155319868697e+00
3.171604060922e+00
3.187897936516e+00
3.204201484280e+00
3.220514693040e+00
3.236837551642e+00
3.253170048959e+00
3.269512173883e+00
3.285863915333e+00
3.302225262248e+00
3.318596203590e+00
3.334976728346e+00
3.351366825523e+00
3.367766484152e+00
3.384175693286e+00
3.400594442002e+00
3.417022719397e+00
3.433460514593e+00
3.449907816731e+00
3.466364614978e+00
3.482830898521e+00
3.499306656569e+00
